#include "mlp_weights.h"

const float layer_0_weights[15840] = {-0.08047112077474594, 0.03513743355870247, -0.04620933160185814, 0.02867904305458069, 0.11957116425037384, 0.12749415636062622, -0.1727471798658371, 0.013711408711969852, 0.09661884605884552, -0.06296977400779724, 0.00332096079364419, 0.038413506001234055, -0.14566092193126678, -0.030505666509270668, 0.14093540608882904, 0.060494229197502136, -0.12176534533500671, -0.016729654744267464, 0.051380131393671036, 0.05140235275030136, -0.03885556757450104, 0.0742187425494194, 0.03552168235182762, 0.09530219435691833, 0.021236000582575798, 0.15918651223182678, 0.16020378470420837, -0.10153426229953766, -0.10058052092790604, -0.17126300930976868, 0.004288203082978725, 0.02360522747039795, 0.13444484770298004, -0.07442788034677505, -0.028382860124111176, -0.0010104794055223465, -0.02418714389204979, -0.057909246534109116, 0.018415695056319237, 0.019944120198488235, -0.0018271312583237886, -0.10936260223388672, 0.08233872056007385, 0.175664022564888, -0.03674721345305443, -0.08574135601520538, -0.05543278530240059, 0.013885616324841976, -0.07669918984174728, 0.0427786260843277, -0.06506751477718353, -0.0890614464879036, 0.10852297395467758, -0.010125592350959778, 0.058367565274238586, -0.05904574692249298, 0.11385375261306763, 0.06443949043750763, -0.016964374110102654, -0.05409906059503555, 0.07345286756753922, 0.08929024636745453, -0.0011943335412070155, -0.13142850995063782, -0.05488685891032219, 0.07628709822893143, -0.08382461220026016, 0.09858378022909164, -0.13396935164928436, 0.009735563769936562, 0.03858398273587227, 0.06042875722050667, 0.020070169121026993, -0.085727758705616, -0.13097184896469116, -0.18092362582683563, -0.00961058959364891, -0.0172107070684433, 0.00839376263320446, -0.08936181664466858, 0.002901284024119377, 0.04134123772382736, 0.08248971402645111, -0.020885389298200607, 0.05683755502104759, -0.10930067300796509, -0.03994494676589966, 0.07898134738206863, 0.015932857990264893, 0.08016335219144821, 0.02948806621134281, 0.079008087515831, 0.0025462124031037092, -0.11725521087646484, 0.050608254969120026, 0.01202716026455164, 0.008074966259300709, -0.06981904804706573, -0.1279749721288681, 0.09959521889686584, -0.007795093581080437, 0.022968832403421402, 0.12082446366548538, -0.05226198211312294, -0.06995395570993423, 0.013778331689536572, -0.10336757451295853, 0.030706234276294708, 0.041758500039577484, 0.04814835637807846, -0.009264214895665646, -0.07684754580259323, 0.008389294147491455, 0.07057273387908936, -0.05870221555233002, -0.015714000910520554, 0.039959616959095, -0.07704254239797592, -0.10871410369873047, 0.020256008952856064, -0.004034192301332951, 0.012015433982014656, 0.01535027101635933, -0.014413965865969658, -0.050921306014060974, 0.0011482697445899248, 0.023030269891023636, 0.04953974857926369, -0.016524072736501694, -0.005882897414267063, -0.016989711672067642, -0.03362802788615227, -0.016221236437559128, -0.0423041507601738, 0.014933035708963871, -0.006256130523979664, -0.004741718526929617, 0.01153928879648447, 0.018607093021273613, 0.026379277929663658, -0.011881217360496521, 0.0028713438659906387, 0.0067161135375499725, 0.008845598436892033, -0.006269427482038736, -0.004482380114495754, -0.0002711288689170033, -0.001982309389859438, -0.0018951956881210208, 0.00503891846165061, -0.01677740179002285, -9.072254761122167e-05, -0.0028957340400666, 9.966710058506578e-05, -0.004419994540512562, 2.939932528533973e-07, -8.15315281954554e-09, -4.880507731286343e-08, -4.4922874309349936e-08, -7.014803315996687e-08, 7.360458909033696e-08, -1.812235339571089e-08, -2.4498029915775987e-07, -2.301268686721869e-08, -1.5369334960269043e-07, 0.07432782649993896, -0.05913296341896057, 0.07508187741041183, 0.02583218552172184, 0.07340322434902191, 0.11227622628211975, 0.09827806800603867, 0.08523537963628769, -0.008271371014416218, -0.09356914460659027, -0.01631867326796055, -0.129770427942276, -0.0012004519812762737, 0.08513015508651733, 0.03558476269245148, -0.06008055806159973, 0.021382847800850868, -0.0030430355109274387, -0.027076072990894318, -0.044955603778362274, -0.1228298619389534, 0.11444036662578583, 0.0045431931503117085, 0.04377835616469383, -0.02366870455443859, -0.040593769401311874, 0.023753488436341286, 0.09493652731180191, 0.017059864476323128, 0.059605661779642105, 0.009304122067987919, -0.10430202633142471, -0.07743582874536514, -0.15610410273075104, 0.07832948863506317, 0.02966959774494171, 0.08245355635881424, 0.019428670406341553, -0.07774723321199417, 0.05301801115274429, -0.07223352044820786, -0.0004652912321034819, 0.034126654267311096, -0.0185776948928833, -0.033901430666446686, 0.10486286133527756, 0.06264200061559677, -0.09769357740879059, 0.04345741495490074, 0.08453738689422607, -0.03459975868463516, 0.003536419477313757, -0.01914364844560623, 0.1106964647769928, 0.045611605048179626, 0.07847324758768082, -0.037222862243652344, 0.019124051555991173, -0.05034912750124931, -0.03425726294517517, 0.038668785244226456, 0.019240131601691246, -0.03920871391892433, 0.04631686583161354, -0.017784420400857925, -0.13019807636737823, -0.018931379541754723, -0.02678496576845646, -0.007893078029155731, -0.0026826029643416405, -0.038934025913476944, -0.02612167038023472, 0.02308085560798645, 0.03747114539146423, -0.0025486131198704243, 0.009969175793230534, 0.014687963761389256, -0.022060520946979523, 0.06328216940164566, 0.04949521645903587, -0.03490326926112175, -0.06116308644413948, 0.0165462177246809, -0.06863193213939667, -0.01689578779041767, -0.041894443333148956, -0.009564247913658619, -0.03496652841567993, 0.009966165758669376, -0.001026000245474279, 0.024488773196935654, 0.03208773210644722, -0.02364620752632618, -0.015711797401309013, 0.036872632801532745, 0.01277866866439581, 0.07486297935247421, 0.03427015617489815, -0.017614303156733513, -0.011778941377997398, 0.020336810499429703, -0.029174694791436195, -0.025578148663043976, -0.046976689249277115, -0.024624792858958244, 0.007293379865586758, -0.027674350887537003, 0.03735027089715004, 0.04829602688550949, -0.03998582437634468, 0.005700478330254555, -0.010364161804318428, -0.010046125389635563, -0.010151098482310772, 0.005954223684966564, 0.008300748653709888, 0.006963745690882206, -0.03473037853837013, 0.01213922444730997, -0.031601618975400925, -0.02005445584654808, -0.004685825668275356, -0.006130765192210674, -0.002101150108501315, 0.0019331586081534624, -0.016748951748013496, 0.020452210679650307, 0.009810778312385082, 0.0015656915493309498, 0.0021973729599267244, -0.026254255324602127, -0.03843294829130173, 0.02414599433541298, 0.02696046233177185, -0.025733374059200287, -0.004854700528085232, 0.00424538878723979, 0.052828360348939896, 0.014652065932750702, -0.001848319312557578, -0.0020397596526890993, 0.015497922897338867, 0.0005756461760029197, 0.0044517191126942635, 0.03579363971948624, -0.002326909452676773, -0.013973051682114601, -0.003215435426682234, 0.004499469883739948, -0.0010679170954972506, -0.0018167659873142838, 0.0010045893723145127, -0.00012442698061931878, 0.008852408267557621, -7.789116352796555e-05, -7.018237511147163e-07, 3.726597341824345e-08, -2.1272560957186215e-07, 4.132458641947778e-08, -4.852926736020891e-07, -3.0376432391676644e-07, -2.848866742510836e-08, 2.1258715676708562e-08, -2.7715906014691427e-08, 4.3838525698447484e-08, -0.056186068803071976, 0.00441587483510375, -0.0861244648694992, 0.05102179944515228, -0.05332443490624428, -0.0026044417172670364, -0.15692363679409027, 0.05429227650165558, -0.04709884151816368, 0.040480177849531174, 0.05087140575051308, -0.11975663155317307, -0.08549492061138153, -0.14449147880077362, -0.013760767877101898, -0.058338750153779984, -0.008689871989190578, -0.019070828333497047, 0.09646639972925186, -0.11392780393362045, 0.08312252163887024, -0.023637287318706512, -0.01938922144472599, -0.003507882123813033, -0.0961189940571785, 0.01681782491505146, 0.023241765797138214, 0.020495446398854256, -0.07036866992712021, -0.11296859383583069, 0.07459115236997604, -0.06259002536535263, 0.09074854850769043, -0.08378245681524277, -0.025191567838191986, 0.1110004410147667, -0.012024881318211555, -0.0020327740348875523, -0.06336487084627151, 0.0755917876958847, -0.047500960528850555, -0.005383286625146866, 0.06021691858768463, 0.052956029772758484, 0.04871893301606178, -0.0010152971372008324, 0.023343127220869064, 0.017693890258669853, -0.06113786622881889, -0.056628212332725525, 0.06254156678915024, -0.10703043639659882, -0.013069863431155682, 0.1336817592382431, 0.08076061308383942, 0.01731332391500473, -0.004872338846325874, 0.030423255637288094, 0.01663617044687271, -0.032217275351285934, 0.026835385710000992, 0.12853161990642548, -0.0064497231505811214, -0.027186818420886993, -0.1349451243877411, 0.052913594990968704, -0.030889198184013367, -0.08403461426496506, 0.00684148957952857, 0.009517444297671318, -0.024262432008981705, -0.017670592293143272, -0.05077499896287918, 0.07153463363647461, 0.0020341204944998026, -0.0850919559597969, 0.10906071960926056, 0.0024188808165490627, 0.03569776192307472, -0.08969881385564804, 0.028894389048218727, 0.03994143754243851, 0.09952632337808609, 0.05115895718336105, -0.028535323217511177, 0.021640412509441376, 0.06834946572780609, -0.018433962017297745, 0.021683035418391228, -0.04010501876473427, 0.05361144244670868, 0.0045652929693460464, 0.009918131865561008, 0.0021025773603469133, -0.0037392538506537676, -0.027290452271699905, -6.0154852690175176e-05, 0.01246580109000206, -0.013018514029681683, 0.048941925168037415, 0.04338769614696503, -0.007434348110109568, -0.005126529838889837, 0.00185119709931314, 0.09346890449523926, -0.00893262680619955, 0.018550990149378777, -0.007026046514511108, 0.039320338517427444, -0.025089815258979797, -0.0254001896828413, -0.022117383778095245, 0.007492032367736101, 0.011315112002193928, -0.00044175825314596295, -0.001368114142678678, 0.006826010067015886, 0.001960234483703971, -0.0178383681923151, 0.0003841011202894151, -0.003615170018747449, -0.08305691182613373, 0.0004988001892343163, -0.013675120659172535, 0.006552112754434347, 0.007952049374580383, 2.9771899789921008e-05, -0.0013508377596735954, -0.004108262248337269, 0.0019121316727250814, -0.02688298560678959, -0.03693929687142372, 0.0026911934837698936, 0.010654403828084469, -0.016499629244208336, -0.008261366747319698, -0.004378295503556728, 0.0010774023830890656, -0.007892928086221218, -0.0027607944793999195, 0.006557615473866463, 0.0015676310285925865, -0.007416836451739073, 0.005024461075663567, 0.032137103378772736, -0.0016061965143308043, 0.002884223125874996, -0.005025719292461872, 0.0061497981660068035, 0.0016648916061967611, 0.0014921820256859064, -0.0002559024142101407, -0.0005533720832318068, -0.008928021416068077, 0.00018307080608792603, 3.7533254726440646e-08, 1.1842202241041377e-07, -2.983260003475152e-07, 8.867846190696582e-08, 1.9464951606096292e-07, -2.0700845482224395e-07, 2.2637026475536004e-08, -9.20067506626765e-08, -3.161109418670094e-08, -2.3503672252900287e-07, -0.05932443588972092, 0.0033402128610759974, -0.1419219672679901, -0.028127344325184822, -0.04244107007980347, -0.08223593980073929, 0.012320443987846375, -0.06695052236318588, -0.04091758280992508, 0.07865909487009048, -0.05598841980099678, 0.06633026897907257, 0.03239072486758232, 0.05196668952703476, -0.15179753303527832, 0.020992714911699295, 0.00367638748139143, 0.03782716765999794, -0.1221102625131607, -0.04661120846867561, -0.026767751201987267, -0.02644837647676468, -0.11892788857221603, -0.12899106740951538, -0.03498297184705734, -0.06379455327987671, -0.01404561661183834, -0.03899416700005531, 0.06564731895923615, 0.02873675897717476, -0.07108202576637268, -0.027097517624497414, -0.09194871038198471, 0.01021522469818592, -0.02956770546734333, -0.03812265023589134, 0.04686419293284416, 0.04393917694687843, -0.10733748227357864, 0.03351830318570137, 0.014716077595949173, -0.020885271951556206, 0.040728140622377396, -0.0654100775718689, 0.018807416781783104, -0.03247890993952751, -0.10601586848497391, -0.04948239028453827, 0.07572294771671295, 0.0738728940486908, -0.0055831000208854675, 0.06974533200263977, 0.011468721553683281, 0.028867436572909355, -0.00664207898080349, -0.03679879382252693, -0.10371439903974533, -0.055754728615283966, 0.08605731278657913, 0.08287448436021805, -0.05852952226996422, -0.04919048398733139, 0.01350613683462143, 0.11154919117689133, 0.04415860399603844, -0.0076300157234072685, 0.06471768766641617, -0.05807363986968994, 0.06181427836418152, 0.10443980246782303, 0.060051582753658295, -0.055312950164079666, -0.0672050416469574, 0.02313014306128025, -0.00619919179007411, 0.05016833916306496, -0.006196257658302784, 0.05591398850083351, 0.022915495559573174, 0.02512860856950283, 0.07739026099443436, -7.582668331451714e-06, -0.0311348345130682, 0.05697064846754074, -0.02643330581486225, 0.052842237055301666, 0.09426041692495346, -0.039623964577913284, -0.0338725745677948, -0.036953650414943695, -0.0077142356894910336, -0.05806144326925278, -0.08419464528560638, 0.027944887056946754, -0.039625998586416245, 0.026967765763401985, 0.038902975618839264, 0.02418540045619011, 0.05130535364151001, -0.08500819653272629, 0.0005343963857740164, 0.025373810902237892, 0.02149306982755661, -0.016431152820587158, 0.058927200734615326, 0.07036997377872467, 0.007855239324271679, -0.0693884938955307, 0.021221686154603958, -0.01213038619607687, -0.016615673899650574, -0.03044542297720909, -0.019196324050426483, -0.013484609313309193, 0.0671766996383667, 0.034443747252225876, -0.04958546906709671, 0.057301636785268784, 0.013092654757201672, -0.01786237396299839, -0.007367101963609457, 0.021129922941327095, 0.006850567180663347, -0.041862234473228455, 0.04434233531355858, -0.0027139028534293175, -0.028779854997992516, -0.030422253534197807, -0.003396456129848957, -0.02619672566652298, 0.010252384468913078, 0.0037292654160410166, 0.006604991853237152, -0.011299598962068558, -0.03607916831970215, -0.03389350324869156, 0.020263809710741043, -0.031900372356176376, -0.004306994844228029, 0.010858025401830673, 0.0011830596486106515, -0.005571892950683832, -0.003102137940004468, 0.0009019743301905692, -0.0020094113424420357, -0.0004956822376698256, -0.0007510106661356986, -0.0007501681102439761, 0.0016518154880031943, -0.004267747048288584, 0.000657384458463639, -0.0002872057957574725, 0.00023323170898947865, -0.00023137906100600958, 0.00044307485222816467, 5.660959345732408e-07, -1.0553529250501015e-07, 1.7808901020544e-08, 6.430150989444883e-08, 4.302942890888062e-09, 5.8878235620341e-08, 1.8038452509472336e-08, 4.07308142769125e-08, 1.7990987544180825e-07, -1.2823323913835338e-07, -0.005480896215885878, 0.019843611866235733, 0.015154384076595306, -0.12518250942230225, -0.06523578613996506, 0.0672222226858139, 0.11627987772226334, -0.11399494856595993, 0.05123075842857361, 0.1079406887292862, 0.08599435538053513, 0.09866273403167725, 0.04079115390777588, -0.027966897934675217, -0.031189359724521637, -0.04736224189400673, 0.07835892587900162, 0.003196980804204941, -0.008208555169403553, 0.0029227612540125847, 0.05987202003598213, 0.06936325877904892, -0.020583370700478554, -0.09625694900751114, 0.0841430276632309, -0.00874816719442606, -0.02998369373381138, -0.034231413155794144, -0.027668815106153488, -0.0574113130569458, 0.027581315487623215, 0.009894532151520252, 0.01036281418055296, -0.007793243043124676, 0.09613322466611862, 0.012614603154361248, -0.05790376663208008, -0.0508170910179615, 0.014295636676251888, -0.09096718579530716, 0.02043873630464077, -0.03710912540555, 0.029429763555526733, -0.03472783416509628, -0.08929018676280975, 0.0005060695111751556, -0.06996524333953857, -0.03532933071255684, 0.021603483706712723, 0.04580196365714073, 0.00746079022064805, 0.06411789357662201, 0.024653898552060127, -0.057744160294532776, 0.03166835755109787, -0.039844810962677, -0.07436057925224304, -0.011136958375573158, -0.0011242285836488008, 0.05354004353284836, -0.010127604007720947, -0.08241871744394302, 0.005993356928229332, -0.05912478268146515, 0.0035725508350878954, 0.07316667586565018, -0.01584494858980179, 0.0365845188498497, -0.014769474975764751, 0.07282694429159164, -0.025662105530500412, 0.03322175145149231, -0.0037135137245059013, -0.016600577160716057, -0.0512629859149456, 0.03346017748117447, 1.84598993655527e-05, -0.01372759509831667, -0.018853934481739998, -0.08163775503635406, -0.00803066324442625, -0.06410691887140274, 0.025731975212693214, 0.011842646636068821, 0.003101206850260496, -0.08323754370212555, 0.07749838382005692, -0.01836528070271015, -0.018906395882368088, -0.02411944791674614, 0.03308826684951782, 0.04359102249145508, 0.04083976522088051, -0.006318854633718729, 0.04780149087309837, 0.008254686370491982, -0.007917582988739014, 0.03518760949373245, -0.02573210559785366, 0.0026846916880458593, 0.029149161651730537, 0.005415217485278845, -0.05961987376213074, 0.004584910813719034, 0.010578641667962074, 0.03960713744163513, 0.047259099781513214, 0.035161323845386505, 0.036960478872060776, -0.01888938434422016, -0.026088058948516846, 0.00880146212875843, 0.07910511642694473, -0.0023844123352319, 0.02201937884092331, 0.019641585648059845, -0.03757694363594055, -0.027033261954784393, 0.004332893993705511, 0.02858342044055462, 0.006664549931883812, 0.008352993056178093, -0.0017824649112299085, 0.002898176433518529, 0.0003670060832519084, 0.02101672999560833, 0.01376134343445301, -0.01740429736673832, -0.018832670524716377, 0.003779555903747678, -0.009243103675544262, -0.009231818839907646, 4.6089724492048845e-05, 0.00355900707654655, -0.005520876031368971, 0.010260703042149544, 0.0022236118093132973, -0.0034414203837513924, -0.007989669218659401, -0.005273113027215004, -0.00999939814209938, -0.0019824316259473562, 0.011945598758757114, -0.014682173728942871, -0.0005968924378976226, -0.0029310332611203194, -0.005846930667757988, -0.02403523214161396, 0.00017463380936533213, -0.0006213176529854536, 0.00022135562903713435, -0.0031514116562902927, -5.749434785684571e-05, 6.518738518934697e-05, -0.00018762476975098252, 4.337806558396551e-08, -3.2142875028284834e-08, -8.075640778315574e-08, 1.937295621701196e-07, 3.283181015945047e-08, -4.4703579504812296e-08, -1.3214755512080956e-08, -1.179297726139339e-08, 6.5957861394849715e-09, 2.714719649077324e-08, -0.065080925822258, -0.09317109733819962, 0.03751713037490845, 0.012624911032617092, -0.14583753049373627, -0.13089773058891296, 0.01817413419485092, -0.08613747358322144, -0.10619459301233292, -0.03118666633963585, -0.13932816684246063, 0.1524726003408432, -0.033661019057035446, 0.0850173830986023, -0.012761173769831657, 0.15295347571372986, 0.0032139583490788937, 0.08529811352491379, -0.08088244497776031, 0.14304281771183014, 0.04777960479259491, -0.07426299154758453, -0.08520644903182983, -0.013834535144269466, 0.11117538809776306, -0.009899193421006203, 0.09368681907653809, -0.08347867429256439, -0.025223098695278168, 0.001321435789577663, -0.03808951750397682, -0.04041249677538872, 0.05379579961299896, -0.06917110085487366, 0.03774810954928398, -0.026437457650899887, -0.08320312947034836, -0.07419782876968384, 0.0061197225004434586, -0.03595231845974922, 0.0660400241613388, 0.16639980673789978, -0.008146987296640873, -0.15155991911888123, 0.008377432823181152, -0.09974808990955353, -0.07785960286855698, -0.059270359575748444, -0.019885774701833725, 0.025371788069605827, -0.0023376697208732367, 0.13078008592128754, 0.05829133093357086, -0.05736308917403221, -0.1329951137304306, -0.0148008419200778, -0.006255193613469601, -0.09011705964803696, 0.019181914627552032, 0.05073120817542076, -0.0945933386683464, -0.0012544255005195737, -0.037324875593185425, 0.10678650438785553, 0.12846121191978455, -0.06232898682355881, 0.01002733688801527, 0.06454739719629288, 0.06037696823477745, 0.10345710813999176, 0.03932461887598038, 0.020637018606066704, -0.02295636758208275, -0.04201752319931984, -0.0015872560907155275, 0.007675080094486475, 0.05768079310655594, -0.025200719013810158, 0.05064702779054642, 0.035926081240177155, 0.005493374075740576, -0.067205049097538, -0.1399686634540558, -0.0639062374830246, 0.0953860878944397, -0.10500569641590118, 0.015348049812018871, 0.02706749737262726, 0.009028904139995575, 0.027067340910434723, 0.07246097177267075, 0.03312414512038231, -0.0910712406039238, 0.023193078115582466, 0.021019162610173225, 0.009313805028796196, -0.012761044315993786, 0.00013041539932601154, 0.01333027333021164, 0.05820360407233238, -0.03580911085009575, 0.00709552364423871, 0.013107226230204105, -0.004841028247028589, -0.02373923920094967, 0.04131356626749039, 0.05425495654344559, -0.0011808662675321102, 0.08587528020143509, -0.08335070312023163, -0.016298197209835052, 0.0018517847638577223, -0.0417385958135128, 0.053167544305324554, 0.025653628632426262, 0.07569744437932968, -0.00804052222520113, 0.06898080557584763, 0.05457474663853645, 0.017456956207752228, -0.007015523500740528, 0.010935414582490921, -0.034380458295345306, -0.05521365627646446, 0.04985874518752098, 0.026763979345560074, 0.00853698793798685, -0.02550341933965683, 0.004492077976465225, 0.020560869947075844, 0.04237526282668114, 0.037761855870485306, -0.02608650177717209, -0.005931224673986435, -0.016428548842668533, -0.04303049296140671, 0.015461510047316551, 0.00027312253951095045, 0.002779790898784995, 0.0030645597726106644, 0.012745841406285763, -0.0002854409103747457, 0.00338387000374496, 0.0032034609466791153, -0.013503322377800941, 0.012004316784441471, -0.006746301893144846, 0.001945169293321669, 0.012201245874166489, -0.0017978824907913804, -0.000406145176384598, -0.0012441579019650817, 3.730381649802439e-05, 0.015885017812252045, -8.930333024181891e-06, -7.133464805519907e-07, -6.932958029892689e-08, -2.462212762566196e-07, -2.608802844861202e-07, -1.6786820822289883e-07, 8.693608037901868e-07, 1.863930698675631e-08, -1.0789068483063602e-07, 1.0629743485424115e-07, 6.59356160781499e-08, -0.012113981880247593, 0.07160746306180954, -0.01676526665687561, -0.09470567852258682, -0.012739148922264576, 0.15471109747886658, 0.1335880607366562, -0.02644321881234646, -0.051266372203826904, 0.15055115520954132, 0.10585793852806091, -0.0532609224319458, -0.02624591439962387, -0.12602613866329193, -0.09053382277488708, -0.040298379957675934, 0.07167042046785355, 0.014300438575446606, -0.06298969686031342, -0.06428278237581253, 0.07362853735685349, 0.03661124035716057, -0.03135501220822334, 0.0918140709400177, -0.13080939650535583, -0.051456328481435776, 0.05797208100557327, 0.056237537413835526, -0.030772019177675247, 0.023886844515800476, -0.0013926791725680232, -0.07812345772981644, 0.019244777038693428, 0.024565497413277626, 0.005144723691046238, -0.08060391247272491, 0.07597025483846664, 0.0405731163918972, -0.08687112480401993, -0.10017655789852142, 0.011111030355095863, 0.053380873054265976, -0.0021222862415015697, 0.07142513990402222, -0.07334836572408676, 0.06678525358438492, 0.06811776012182236, -0.0023435160983353853, 0.02957512065768242, -0.012845765799283981, -0.053037792444229126, 0.052255429327487946, -0.09943234175443649, 0.08988706022500992, 0.07542479038238525, 0.11250843852758408, -0.01761101558804512, 0.07319033890962601, 0.03366364538669586, -0.11755891144275665, 0.025469733402132988, 0.09708427637815475, -0.00212417752481997, -0.052521638572216034, -0.12749892473220825, -0.05000005662441254, 0.007916123606264591, -0.028584685176610947, -0.09017713367938995, 0.0219479538500309, -0.09235748648643494, 0.014156323857605457, 0.04091627523303032, -0.002330096671357751, -0.01926109381020069, 0.041547741740942, -0.049018874764442444, -0.004370307549834251, -0.005419513676315546, 0.020175034180283546, -0.058222901076078415, 0.07133907824754715, 0.005679650232195854, -0.0641307532787323, -0.03012046031653881, 0.020959042012691498, -0.005165587645024061, 0.00933837890625, -0.023968268185853958, -0.025830144062638283, -0.06490097939968109, 0.014563361182808876, 0.04388480633497238, 0.02450965903699398, -0.016860051080584526, -0.028221243992447853, -0.01784614846110344, -0.033663421869277954, -0.021212540566921234, -0.041721295565366745, -0.03452128544449806, -0.025512542575597763, -0.0071745277382433414, 0.007151409983634949, 0.007691575679928064, 0.016549957916140556, -0.015735309571027756, 0.036592014133930206, -0.027537820860743523, -0.011185403913259506, 0.01212302502244711, 0.014727351255714893, -0.008150113746523857, -0.05915382504463196, 0.01957247033715248, 0.026733245700597763, 0.008966336026787758, -0.003916389774531126, 0.02452745847404003, 0.009626196697354317, 0.012682708911597729, -0.03672561049461365, -0.023810604587197304, -0.005527142435312271, 0.0014067119918763638, -0.004804425407201052, 0.002427835715934634, -0.0741998553276062, -0.04524032399058342, -0.019350744783878326, 0.018489718437194824, -0.02122602052986622, -0.0004325576010160148, -0.01211052481085062, -0.01038550678640604, 0.021815143525600433, -0.0008456973591819406, -0.014984252862632275, 0.00131328497081995, -0.0009000137215480208, -0.02176874876022339, 0.003743209410458803, -0.0002067417954094708, -0.01470652874559164, 0.0029539335519075394, 0.0015685985563322902, -0.04694509878754616, 5.876052091480233e-05, 0.011124189011752605, -0.002733909524977207, -0.00013062120706308633, -0.0016082377405837178, 0.0001660417183302343, 0.0002804622345138341, 3.825406020041555e-05, -4.429345068501789e-08, -7.962276526995993e-08, -1.753176093188813e-07, 3.2284830808748666e-08, -5.094499755387005e-08, 1.1218012474500938e-07, -2.503387364072296e-08, -5.934451507982885e-08, -6.922436313061553e-08, 3.528037098021741e-07, 0.008899953216314316, 0.07033681124448776, 0.0025640460662543774, 0.03330541402101517, -0.04515235126018524, 0.012615734711289406, 0.15534046292304993, 0.07893746346235275, -0.04966799169778824, 0.08824177086353302, -0.0030421181581914425, 0.07657252997159958, 0.05495256930589676, -0.04398801922798157, 0.11155422776937485, 0.1211942583322525, 0.0669933333992958, -0.07649323344230652, -0.1049719750881195, 0.09123706072568893, 0.0165720172226429, 0.057764049619436264, 0.016938379034399986, 0.16694484651088715, -0.012218175455927849, -0.04957261309027672, 0.026693768799304962, -0.011415818706154823, 0.040720172226428986, 0.047530077397823334, -0.0688810870051384, -0.024953601881861687, -0.06762033700942993, -0.0277880672365427, 0.08298034965991974, -0.009948460385203362, -0.0055213989689946175, -0.10530160367488861, 0.050928954035043716, -0.13190357387065887, 0.039503928273916245, -0.00016614279593341053, -0.08186757564544678, -0.12881430983543396, 0.0787419006228447, -0.014730991795659065, -0.080609530210495, -0.07656781375408173, 0.03940274566411972, 0.0736105665564537, -0.011020711623132229, 0.12067308276891708, 0.052710067480802536, -0.03706127777695656, -0.08697836846113205, 0.08750293403863907, -0.04557466134428978, -0.06490232050418854, 0.021416638046503067, 0.0006435182876884937, -0.02442840486764908, -0.01930651068687439, -0.03032381273806095, 0.04545207694172859, 0.006458723451942205, -0.04206690937280655, 0.023947088047862053, 0.0396304689347744, 0.036721207201480865, 0.06253351271152496, -0.016945194453001022, 0.020052382722496986, -0.020486410707235336, 0.0007283106679096818, 0.1145697832107544, 0.019245821982622147, -0.09147946536540985, -0.1038660854101181, 0.03886198624968529, 0.01968621090054512, 0.018828529864549637, 0.012134084478020668, 0.015892816707491875, -0.03221381455659866, -0.05712415650486946, -0.0007362606702372432, 0.01557076908648014, -0.0005099295522086322, 0.05203526094555855, 0.02614818885922432, -0.03180738538503647, -0.03946923837065697, -0.03664904832839966, -0.051172927021980286, 0.045431286096572876, 0.0641108974814415, -0.01949693076312542, -0.03086867742240429, 0.004761295858770609, -0.013506212271749973, -0.07418785989284515, 0.005646363366395235, 0.002246430842205882, -0.018537789583206177, -0.03197912126779556, 0.043042559176683426, -0.01167257595807314, -0.03890019282698631, 0.0036884958390146494, -0.011539588682353497, 0.006454686634242535, 0.03710222244262695, 0.026421690359711647, 0.04673541709780693, -0.0008970912313088775, -0.04119804874062538, -0.04711519181728363, 0.010534577071666718, 0.01330560352653265, -0.01903042197227478, 0.02136503905057907, 0.014571379870176315, -0.008918367326259613, -0.009702003560960293, -0.04610798507928848, 0.005347574595361948, -0.010688371025025845, 0.013791192322969437, 0.012862562201917171, 0.04475001245737076, 0.028833428397774696, 0.0353853777050972, -0.011630591005086899, -0.006281149107962847, -0.008533863350749016, -0.011797349900007248, -0.013208243064582348, -0.012291106395423412, -0.018965991213917732, -0.0022927403915673494, -0.005100637674331665, 0.021852409467101097, 0.02002904750406742, -0.0026731151156127453, -0.01910616084933281, 0.004632121883332729, 0.0030384166166186333, 0.0005734303267672658, -0.0006728805019520223, -0.0028969869017601013, -0.0011929728789255023, 0.0006077569560147822, 0.00025461221230216324, 0.000914700620342046, -0.0019074783194810152, -1.5854055845920811e-07, 6.060688519937685e-07, 7.421214576197599e-08, -9.048014248946856e-08, -6.59112060930056e-07, -8.534317430530791e-08, -1.029875917879508e-07, -1.4641480561294884e-07, -5.478941034198215e-08, 1.107392336052726e-06, 0.009273086674511433, 0.026465464383363724, -0.15466584265232086, 0.040345486253499985, 0.09689906239509583, -0.04523564875125885, 0.10266989469528198, -0.0033054726663976908, -0.07741515338420868, -0.12071800231933594, 0.09433052688837051, 0.012765460647642612, 0.008428751491010189, 0.006532262545078993, 0.04157649353146553, -0.05689326301217079, 0.1549195945262909, 0.10068374127149582, 0.0007808843511156738, -0.15166838467121124, -0.002007003640756011, 0.10572705417871475, -0.017351416870951653, -0.0259072408080101, 0.03397061675786972, 0.006289621815085411, -0.09021341055631638, -0.06549195945262909, 0.036698177456855774, 0.04944982752203941, 0.07325883209705353, -0.022569430992007256, 0.02683551423251629, 0.07910327613353729, -0.05191641300916672, -0.03960903361439705, -0.04323665797710419, 0.035445597022771835, 0.06498818099498749, 0.09861602634191513, 0.024251114577054977, 0.02729003317654133, 0.06264926493167877, -0.01120687648653984, 0.0641535222530365, 0.0028177399653941393, 0.012532197870314121, -0.017957378178834915, 0.008364610373973846, 0.04881180077791214, 0.015452040359377861, 0.001786033739335835, -0.04504033923149109, -0.00978466123342514, 0.019310083240270615, -0.05542571470141411, -0.06106826290488243, 0.009688813239336014, -0.0006956449942663312, 0.047200556844472885, 0.03502267599105835, -0.03393971174955368, 0.0036170235835015774, -0.013072152622044086, -0.08387604355812073, 0.00824296846985817, -0.03265237808227539, -0.007477144245058298, 0.0964369848370552, -0.024640407413244247, -0.031050659716129303, 0.026813862845301628, 0.04079873114824295, 0.01966778375208378, -0.06590966880321503, 0.029160216450691223, 0.01900966838002205, 0.025642238557338715, -6.19228376308456e-05, -0.005991586018353701, -0.001302053453400731, 0.015460699796676636, -0.02068925090134144, -0.017623992636799812, 0.0016170837916433811, -0.005617241840809584, 0.055938977748155594, 0.03742847219109535, 0.03126168251037598, 0.013222772628068924, 0.02106427773833275, 0.02122875116765499, 0.004564996343106031, 0.009553346782922745, 0.03915983811020851, -0.009155682288110256, -0.018437307327985764, 0.026164982467889786, 0.00014708717935718596, 0.008639810606837273, -0.0006311953766271472, 0.012328499928116798, 0.004759787581861019, -0.01069679670035839, -0.023526931181550026, -0.010533986613154411, 0.04229855164885521, 0.06159764155745506, 0.0015756647335365415, -0.03183465078473091, -0.0023271713871508837, 0.007612450979650021, -0.022598465904593468, -0.02020767517387867, 0.004730276297777891, 0.0433221310377121, 0.03707454726099968, 0.0016209669411182404, -0.007628799881786108, -0.05156344920396805, 0.0243611428886652, -0.0038438867777585983, -0.026835039258003235, 0.025723522529006004, 0.04999006167054176, -0.014427991583943367, 0.011146356351673603, 0.05117415264248848, 0.021611174568533897, 0.006798136979341507, -0.005062037147581577, 0.01749682053923607, 0.001989459851756692, -0.004125331062823534, 0.003440624102950096, -0.04247308894991875, 0.010379367507994175, -0.009115326218307018, -0.003153685014694929, -0.001465144450776279, 0.008517180569469929, -0.0015939148142933846, -0.0016848811646923423, 0.0038815925363451242, -0.004945650231093168, 0.0021358905360102654, -0.0014875044580549002, 0.0006380830309353769, -0.008654029108583927, -0.0005134980310685933, -2.5136796466540545e-05, 0.0004044435336254537, 0.0006952921394258738, 0.0031357677653431892, -0.00020228602807037532, 4.781271627507522e-07, -2.519461261840661e-08, 3.183257035743736e-07, -4.243849716090153e-09, -1.2787324976670789e-08, -8.772710202720191e-08, -1.1284730483396288e-08, 5.584891482612875e-08, -1.7151386089153675e-08, -9.499402153778647e-09, 0.14059463143348694, -0.14234808087348938, -0.003018488408997655, 0.05336902663111687, -0.02541992999613285, -0.02643255516886711, 0.032418474555015564, -0.06927439570426941, -0.025234773755073547, 0.030330989509820938, -0.04661201313138008, 0.01668909192085266, -0.10099542886018753, -0.045409493148326874, -0.12257038801908493, 0.07208411395549774, 0.13217586278915405, -0.1378496140241623, -0.016591480001807213, -0.14657825231552124, 0.04863473400473595, -0.05064881220459938, -0.12602035701274872, 0.08007820695638657, 0.0026035530027002096, 0.008939011953771114, 0.06476587057113647, 0.037399306893348694, 0.012644204311072826, 0.05464579164981842, 0.052534639835357666, -0.08778505772352219, -0.013244819827377796, 0.03298276662826538, -0.1251746565103531, -0.004108358174562454, 0.07093609124422073, 0.021662607789039612, -0.05454990267753601, 0.050355009734630585, -0.019690992310643196, -0.11000147461891174, -0.053032293915748596, 0.04906086251139641, 0.0457126721739769, 0.007589332759380341, 0.08448856323957443, 0.055913325399160385, 0.02051873505115509, -0.007183844689279795, -0.04627664014697075, -0.02301395684480667, -0.13398951292037964, -0.042932186275720596, 0.08270492404699326, -0.012323545292019844, -0.09919428080320358, -0.0012897119158878922, 0.06658990681171417, -0.014728629030287266, -0.03464161977171898, 0.1513725221157074, -0.014562908560037613, 0.04775216802954674, -0.10474373400211334, 0.009262356907129288, 0.022636644542217255, 0.03707433491945267, 0.041058819741010666, -0.04624675586819649, -0.05751541256904602, 0.039364464581012726, -0.04132721573114395, 0.09569864720106125, 0.03851766511797905, 0.013416633941233158, 0.015702130272984505, -0.03852377459406853, 0.04706345871090889, -0.033575378358364105, 0.036302145570516586, 0.01762934774160385, 0.016782328486442566, 0.08144263923168182, -0.016629353165626526, 0.05923212692141533, 0.012031640857458115, -0.004114505369216204, -0.04703356325626373, 0.04003946855664253, -0.06005304679274559, 0.029277749359607697, 0.035593193024396896, 0.0870482549071312, -0.06294391304254532, 0.07749905437231064, 0.06176992133259773, -0.05888492241501808, 0.11689934879541397, -0.12162512540817261, 0.010115262120962143, 0.0173929613083601, 0.0017486754804849625, 0.035234808921813965, -0.0004062797233927995, -0.03123576194047928, 0.04464477300643921, 0.0037504807114601135, -0.02442115731537342, 0.045911118388175964, 0.00510621489956975, -0.018569154664874077, -0.006864584516733885, -0.017722710967063904, -0.0001891416177386418, 0.0014425265835598111, -0.0020195688121020794, -0.02993466705083847, 0.031014665961265564, -0.007134960498660803, 0.042140938341617584, -0.0001369877572869882, -0.02075888402760029, -0.03340451419353485, -0.0025296593084931374, -0.03662264719605446, -0.0202644020318985, -0.02724878303706646, 0.00875785294920206, -0.03074917010962963, 0.008400035090744495, -0.01706702820956707, 0.01830894686281681, -0.027636351063847542, -0.0010822020703926682, -0.004177076276391745, 0.010136032477021217, 0.01799347996711731, -0.004437954630702734, -0.008503764867782593, -0.002122339094057679, 0.0034646594431251287, -0.005916299298405647, 0.0007295634131878614, 0.007634569890797138, 1.5118030205485411e-05, -0.007475906051695347, -0.001963324612006545, -0.004029944073408842, -0.01652269810438156, -0.00017946919251699, -0.010945187881588936, 0.0003637088811956346, 2.217016663053073e-05, -7.467342948075384e-05, 4.225250052058982e-07, 7.548256064637826e-08, -5.575718660111306e-07, 1.0320508003758277e-08, -4.930882369080791e-10, 5.20890068855806e-08, -5.2151257534660544e-08, -8.147596020080528e-08, -1.1686665857268963e-07, 1.1933654775475588e-07, 0.020510148257017136, -0.039704617112874985, 0.008482776582241058, -0.05508655682206154, -0.08298348635435104, -0.10520768910646439, -0.148894801735878, 0.05652066320180893, -0.045135196298360825, -0.10248121619224548, 0.033434610813856125, 0.005877306684851646, 0.02782546915113926, -0.14342305064201355, -0.01589152216911316, 0.01606428064405918, -0.08098025619983673, -0.01817196235060692, -0.09308381378650665, 0.05514133721590042, 0.01076569128781557, 0.022386202588677406, -0.0334937609732151, -0.0011513670906424522, -0.009226727299392223, -0.017094558104872704, 0.07430831342935562, 0.11361230164766312, -0.024722134694457054, -0.08964629471302032, -0.03427091985940933, -0.01504489779472351, 0.015850551426410675, 0.048479676246643066, -0.036765385419130325, -0.05841748043894768, -0.04836253449320793, 0.007771913427859545, -0.020527228713035583, 0.03904588893055916, -0.04135565087199211, 0.05310337617993355, 0.040802665054798126, 0.03057023137807846, -0.03980268910527229, 0.008449232205748558, -0.054245542734861374, 0.021554430946707726, 0.006578109227120876, -0.016711806878447533, -0.07985497266054153, -0.05573941022157669, 0.053107019513845444, 0.00322906207293272, 0.008555731736123562, 0.007860487326979637, -0.023955481126904488, 0.060544781386852264, 0.020950661972165108, -0.015152666717767715, -0.04850947856903076, -0.011880028061568737, -0.008189147338271141, -0.037457872182130814, 0.033935338258743286, 0.017221806570887566, -0.0057593719102442265, 0.017985085025429726, -0.012217896990478039, -0.005707981530576944, 0.01020481064915657, -0.008108549751341343, -0.017835574224591255, 0.03740580752491951, -0.0019256123341619968, -0.022442281246185303, -0.06730663776397705, 0.02310640551149845, 0.009348343126475811, -0.004051729571074247, -0.0001241142163053155, -0.028928149491548538, 0.03295644745230675, -0.0037186918780207634, -0.03583415225148201, 0.0013742472510784864, -0.017964966595172882, -0.025059496983885765, -0.015454145148396492, -0.011746765114367008, -0.0046510593965649605, 0.025384768843650818, -0.028048941865563393, 0.03754015266895294, -0.003965685609728098, 0.04092879220843315, -0.012694966979324818, 0.0012720745289698243, -0.006178432609885931, 0.012169546447694302, -0.020081698894500732, -0.011096899397671223, -0.0012917955173179507, 0.02162160351872444, 0.020765602588653564, 0.0015737749636173248, -0.028881149366497993, 0.022051086649298668, -0.013677171431481838, -0.003415157552808523, -0.01628393866121769, 0.04528148099780083, -0.0040618497878313065, 0.02987075224518776, 0.00632014125585556, -0.00849654246121645, 0.036494385451078415, 0.001025757403112948, -0.025996597483754158, 0.005059048067778349, -0.004015364218503237, -0.006241141352802515, 0.0098808528855443, -0.01755553111433983, -0.055883582681417465, -0.001467075664550066, -0.0015483387978747487, -0.011065592058002949, 0.0025589056313037872, 0.00423791678622365, -0.006129387300461531, 0.007849292829632759, 0.0025760014541447163, -0.004476421512663364, 0.004569103009998798, -0.0038705288898199797, -0.0014980346895754337, -0.0008104688604362309, 0.006405754946172237, -0.002250262536108494, 0.003675411455333233, 0.008908440358936787, 0.002394492272287607, 0.0022761994041502476, -0.0013472578721120954, 0.0012855384266003966, -0.000587820541113615, 0.0021274632308632135, 0.001833553658798337, 0.0016816578572615981, 0.0008433154434897006, -0.0014428463764488697, -0.00025645826826803386, -0.0006205926765687764, 0.00011479806562419981, 1.1719720305336523e-08, 1.2306628605074366e-08, -1.3247820618289552e-08, 3.6738718733886344e-09, -8.473617185700277e-08, 5.272958958357776e-09, -2.212437166804193e-08, 4.27879669473441e-08, 3.920117208622287e-08, 5.4419956541096326e-08, -0.05741994455456734, 0.0031053388956934214, -0.09622620791196823, 0.0016429643146693707, -0.020080802962183952, -0.02492145448923111, -0.12976188957691193, 0.051522642374038696, 0.04708009958267212, -0.1260889321565628, 0.0020914929918944836, -0.004022639244794846, 0.05727198347449303, 0.06886424869298935, -0.09673969447612762, 0.12700144946575165, 0.015749435871839523, 0.13270090520381927, 0.06300606578588486, -0.06584863364696503, 0.08483769744634628, 0.0385277234017849, 0.008153785020112991, -0.14172163605690002, 0.08100982755422592, -0.05050450935959816, -0.0374770425260067, -0.04187512397766113, 0.04329714551568031, 0.013131236657500267, 0.045291244983673096, 0.005279172211885452, 0.02178662084043026, 0.05232524871826172, 0.03306552395224571, -0.05451458320021629, -0.02867998741567135, -0.027683503925800323, -0.05528537556529045, 0.06931682676076889, 0.0026272356044501066, -0.07220448553562164, -0.011680158786475658, 0.032214000821113586, -0.0543246753513813, -0.02481764741241932, -0.02659265510737896, -0.013938536867499352, 0.08062240481376648, 0.0220620296895504, 0.013468101620674133, 0.03569516912102699, 0.04536078870296478, 0.019621996209025383, 0.01352702360600233, -0.0280379019677639, -0.004863855428993702, -0.08967605233192444, -0.026997704058885574, -0.008060199208557606, -0.011041252873837948, -0.027419734746217728, 0.004888042341917753, -0.011544957756996155, -0.038012079894542694, 0.05203750729560852, 0.018574552610516548, 0.03943861275911331, -0.010167303495109081, -0.03138256072998047, 0.01125776395201683, 0.026399176567792892, 0.03945077210664749, 0.004068192094564438, -0.04303750768303871, 0.004794133361428976, -0.004713695961982012, 0.006525760516524315, 0.004861475899815559, -0.01677309162914753, 0.016381416469812393, -0.026329027488827705, 0.06499795615673065, 0.07528606057167053, 0.023655271157622337, -0.04539597034454346, -0.017994089052081108, 0.01294975820928812, 0.012301369570195675, -0.006383726838976145, -0.07100743800401688, 0.0034193266183137894, 0.024094656109809875, 0.005564531777054071, -0.0681670531630516, -0.01258003618568182, -0.014070721343159676, 0.015129579231142998, -0.004493905697017908, 0.009235259145498276, 0.023614032194018364, -0.022885670885443687, 0.000366960623068735, 0.0069291479885578156, -0.0025153574533760548, 0.01954847387969494, -7.563661711174063e-06, 0.003986935596913099, -0.0026871520094573498, 0.020474746823310852, -0.019749632105231285, -0.0032659017015248537, -0.003132681595161557, -0.019607894122600555, -0.010606348514556885, -0.01678120717406273, -0.006375489290803671, 0.009383583441376686, 0.03709690645337105, -0.0077276709489524364, 0.021210063248872757, 0.004671372938901186, 0.0017951156478375196, 0.020532434806227684, 0.03967591002583504, 0.015974197536706924, 0.021607333794236183, -0.000668091292027384, -0.007195661775767803, 0.002020440297201276, 0.01207154430449009, 0.0017725686775520444, -0.0026201754808425903, -0.008835220709443092, 0.002150796353816986, -0.015820439904928207, -0.0020697556901723146, -0.010165298357605934, -0.0004287911287974566, 0.02092215232551098, 0.003943601623177528, 0.0002987678162753582, 0.005929263308644295, 0.0026768071111291647, -0.008524107746779919, 0.03489966318011284, 0.0002352011506445706, 0.014389880001544952, 0.00332202878780663, 0.024149006232619286, 0.00021470888168551028, 0.000646977627184242, 0.00098718935623765, -0.0005103771691210568, 0.0018856283277273178, 3.4739974807962426e-07, -2.3368119883571126e-08, -1.4812945892117568e-07, -5.1645468346350754e-08, 1.4462549380311884e-08, 3.1098679187380185e-10, 4.45254944025919e-09, -1.9214418500723696e-08, 3.5773126683125156e-09, -9.687462210195008e-08, -0.06163575127720833, 0.0162881501019001, -0.034637924283742905, 0.016950473189353943, 0.14713992178440094, 0.09117458015680313, 0.11663573235273361, 0.10648885369300842, 0.06769612431526184, -0.01808709278702736, 0.055769182741642, -0.12351395934820175, 0.025058453902602196, 0.07522641867399216, -0.12486255168914795, -0.01484814751893282, -0.036826394498348236, 0.12028370052576065, -0.051287878304719925, -0.04271768778562546, -0.10619640350341797, 0.06731418520212173, 0.0156988687813282, -0.10556107014417648, -0.04190819337964058, -0.07849735766649246, -0.06698139011859894, 0.09599720686674118, -0.004639188759028912, 0.0013469165423884988, -0.018478775396943092, -0.06636341661214828, -0.036396563053131104, 0.0398913212120533, -0.033030055463314056, -0.0838349387049675, -0.0738242045044899, -0.008096744306385517, -0.07578636705875397, 0.05774335563182831, 0.007413423154503107, 0.016638828441500664, -0.03624097257852554, 0.06666736304759979, -0.0035632464569061995, -0.04688991978764534, 0.002139594405889511, 0.04968114197254181, -0.03957914561033249, 0.02665281854569912, -0.005413971841335297, 0.044208236038684845, -0.0039216033183038235, 0.010455522686243057, -0.0234622061252594, -0.05231603607535362, 0.01581248827278614, 0.058133333921432495, 0.011338391341269016, 0.010672369971871376, 0.043877411633729935, -0.03244061768054962, -0.0357045903801918, 0.0310748852789402, 0.0007366837235167623, 0.028519324958324432, -0.01491470169275999, -0.018549643456935883, 0.01070335227996111, 0.03685854375362396, -0.011843410320580006, -0.020556261762976646, -0.07158643752336502, 0.035511281341314316, -0.008926344104111195, 0.05805312842130661, -0.012672335840761662, 0.0549917109310627, -0.013253258541226387, 0.035441804677248, 0.015829430893063545, -0.03522930666804314, 0.024422738701105118, -0.012616137973964214, 0.00101952301338315, 0.0002695430885069072, 0.03285003453493118, 0.0018500094301998615, -0.019940301775932312, 0.006243153940886259, -0.02427537553012371, -0.04000374674797058, -0.023603025823831558, 0.07259255647659302, 0.003563344245776534, 0.022270919755101204, -0.0075152269564569, 0.018282487988471985, 0.0413888655602932, 0.015188248828053474, 0.022203966975212097, 0.008131414651870728, -0.03373038023710251, 0.012146509252488613, 0.023502755910158157, -0.01024604681879282, 0.025510184466838837, 0.019916662946343422, 0.0007040874334052205, -0.023658648133277893, -0.011783843860030174, 0.017265774309635162, 0.005140417255461216, -0.012099525891244411, 0.009438117034733295, -0.014773893170058727, 0.0024122141767293215, 0.01205175369977951, 0.002947757253423333, -0.004544561728835106, -0.005417643114924431, 0.00904139969497919, -0.0010896583553403616, 0.024330364540219307, 0.025261005386710167, -0.000882754276972264, 0.008472074754536152, -0.013606647960841656, -0.0096749784424901, -0.009533139877021313, 0.0031475378200411797, -0.005912017077207565, 0.01597914844751358, -0.00013951939763501287, -0.005653465166687965, 0.0005664917989633977, 0.003677207278087735, 0.00770550174638629, -0.0014439383521676064, -0.0008021186222322285, 0.0034460369497537613, -0.002149779349565506, -0.0009534700075164437, -0.002133662346750498, -0.0017409578431397676, -0.0013265839079394937, 0.01637127809226513, 0.016951167955994606, -0.00095993687864393, -0.0012456824770197272, -0.00027726549888029695, 0.00038526937714777887, 0.00013990947627462447, -0.00019486834935378283, -0.0005357082700356841, 1.84786969725792e-07, -4.2608824912804266e-08, 4.715889190265443e-07, -1.7679331776321305e-08, -3.396197811866841e-08, -1.904818880404946e-08, -5.254574553248403e-09, 3.0981715326561243e-07, 3.986871277561477e-08, -1.77507910592567e-08, -0.023378824815154076, -0.03160487860441208, 0.0565277636051178, -0.09760884195566177, -0.17419664561748505, 0.05181541293859482, -0.007492700591683388, -0.07584179192781448, -0.11663687974214554, -0.0042471387423574924, 0.15999577939510345, -0.05210084468126297, -0.005848084110766649, -0.16085559129714966, -0.00495867757126689, 0.0380975604057312, 0.03915504366159439, -0.11567344516515732, -0.026455465704202652, -0.041086822748184204, 0.013379508629441261, 0.06134817376732826, -0.002953464165329933, 0.1302153319120407, 0.04616570100188255, 0.0010774292750284076, -0.04213778302073479, -0.06800642609596252, 0.026824310421943665, -0.0852721780538559, 0.0015791361220180988, -0.054072584956884384, -0.04592913016676903, 0.03989875689148903, 0.01949744112789631, 0.05625973641872406, 0.058456901460886, 0.03615429624915123, -0.04858986288309097, 0.08490558713674545, -0.046370893716812134, 0.09584682434797287, -0.05600567162036896, -0.0018571949331089854, 0.0562792532145977, -0.013066793791949749, 0.03076239861547947, 0.00550507428124547, -0.03135518357157707, -0.013956582173705101, 0.0004657300014514476, -0.05451711267232895, 0.0061548505909740925, 0.022735776379704475, 0.05920242890715599, 0.07109657675027847, 0.0059359511360526085, 0.11115854978561401, 0.09578167647123337, -0.021253326907753944, -0.030762290582060814, 0.06403769552707672, -0.046883657574653625, -0.014660226181149483, -0.03933154419064522, 0.047896623611450195, 0.024998417124152184, -0.06643464416265488, 0.05642034113407135, 0.018059290945529938, 0.05100441351532936, -0.06089530885219574, 0.023930614814162254, 0.01432264968752861, -0.0468662828207016, -0.05224166437983513, 0.10621492564678192, 0.08844511210918427, 0.10786808282136917, 0.02636677399277687, -0.0036779548972845078, -0.05315833538770676, 0.10643927752971649, 0.04107034206390381, -0.007551151793450117, 0.0982329249382019, 0.05870142579078674, -0.03357358276844025, -0.10398326814174652, -0.04887232929468155, 0.005494352430105209, -0.025836661458015442, -0.0440843291580677, 0.09553118050098419, -0.013417372480034828, -0.02459542267024517, 0.026177017018198967, 0.039002060890197754, 0.009330909699201584, 0.012769658118486404, 0.005699698347598314, 0.04036134108901024, -0.037330854684114456, 0.03549951687455177, 0.0047871023416519165, 0.06173017621040344, 0.011449298821389675, 0.014805854298174381, -0.014416241087019444, 0.009121078997850418, -0.03521617501974106, 0.005447568837553263, -0.0009171817800961435, 0.009496225044131279, 0.06032958999276161, -0.026611486449837685, 0.01097534317523241, 0.008423829451203346, 0.07038787752389908, 0.018694216385483742, -0.007441894616931677, 0.035326339304447174, -0.01590215414762497, -0.05592465028166771, -0.03597090765833855, -0.02635100483894348, -0.01857425458729267, -0.015208853408694267, 0.014564610086381435, -0.036005377769470215, -0.016718752682209015, 0.009144295006990433, 0.017185404896736145, 0.007777123712003231, 0.005674613174051046, -0.010101026855409145, -0.03397061675786972, 0.031577616930007935, -0.001695289509370923, 0.0034878808073699474, 0.003434550017118454, 0.005485618021339178, 0.010108493268489838, 6.91331151756458e-05, 0.003167796414345503, 0.013275674544274807, 0.0019287416944280267, -0.0012121752370148897, -0.002563226968050003, -0.0049633425660431385, -7.189745520008728e-05, -0.03613726794719696, -0.00022972399892751127, -0.003970160614699125, 3.8908689020900056e-05, 5.098897304378625e-07, -2.632504703115046e-08, 1.2734261645164224e-07, 1.8127337853002246e-08, -2.919915687016328e-07, -4.209730519733057e-08, 2.4367267315028585e-07, 5.289670568231486e-08, 3.2669049687683582e-09, -6.308567890300765e-08, 0.12852086126804352, -0.030690642073750496, -0.010175165720283985, 0.16449515521526337, -0.08919937163591385, 0.18030862510204315, -0.01869623176753521, 0.004292222671210766, 0.08833837509155273, 0.0896873027086258, -0.0019240076653659344, -0.05610491335391998, -0.04633419215679169, -0.10000892728567123, -0.10079512745141983, -0.07725069671869278, 0.14476539194583893, 0.023265400901436806, -0.06011849641799927, 0.053831931203603745, 0.142660453915596, -0.0011481877882033587, -0.006103164050728083, -0.0032933098264038563, -0.010796932503581047, -0.02623073384165764, -0.0637095496058464, -0.009305537678301334, 0.007482819724828005, 0.06452930718660355, 0.031131550669670105, 0.10604912042617798, -0.1491735428571701, 0.056882064789533615, -0.06816154718399048, 0.020660748705267906, 0.027520911768078804, 0.015045632608234882, -0.1114254966378212, -0.0006888528587296605, 0.05149584263563156, 0.02605561539530754, 0.04946514591574669, 0.009841611608862877, -0.008997472934424877, -0.03285170719027519, 0.0550600104033947, 0.00971886795014143, -0.11172802001237869, -0.024719631299376488, 0.030261127278208733, 0.04999092221260071, 0.04461059719324112, -0.12719766795635223, -0.04560443013906479, -0.021237405017018318, 0.04920439049601555, 0.07352220267057419, -0.03602496534585953, -0.007779025938361883, -0.05182013288140297, -0.06142720952630043, 0.06493525207042694, -0.0077665988355875015, 0.09780772030353546, 0.013370983302593231, 0.032330043613910675, 0.029789280146360397, 0.028888102620840073, 0.012254391796886921, 0.013129482045769691, 0.04353129491209984, 0.06559844315052032, -0.03728117421269417, 0.07301705330610275, -0.030391069129109383, 0.00821384321898222, -0.0008215261623263359, 0.0178782157599926, -0.01757890172302723, -0.015107875689864159, 0.015161855146288872, -0.015733519569039345, -0.0008010740275494754, 0.022122016176581383, 0.046911969780921936, -0.014595628716051579, 0.03536660969257355, 0.004263812210410833, -0.025382844731211662, -0.04839771240949631, 0.0046724132262170315, -0.03151524066925049, 0.022465532645583153, 0.011484993621706963, 0.01646323688328266, -0.002751148073002696, -0.002915614051744342, -0.032874226570129395, -0.022768013179302216, -0.03690682724118233, -0.025807026773691177, 0.010551169514656067, 0.011235189624130726, -0.025553787127137184, 0.016669349744915962, 0.019730450585484505, -0.032321564853191376, 0.015564494766294956, 0.005506495479494333, 0.024347633123397827, 0.01235518790781498, -0.05195101723074913, 0.010978858917951584, 0.017015907913446426, 0.010647743009030819, -0.006373590789735317, 0.021644169464707375, -0.00948974210768938, 0.024770142510533333, -0.002351112198084593, -0.012060909532010555, -0.003088562749326229, -0.006811254657804966, 0.0019735428504645824, 0.00038173861685208976, 0.0052720545791089535, 0.006465451326221228, -0.030882228165864944, 0.009565130807459354, 0.003929393831640482, -0.0013867708621546626, -0.002123109996318817, 0.001316520501859486, -0.0005131840007379651, -0.00018715253099799156, -0.0012357031228020787, -2.7029294869862497e-05, 0.0001444642839487642, 0.0013783180620521307, 0.0026829515118151903, -0.0002605354820843786, -0.001907304278574884, 0.001133595360442996, 0.00027108602807857096, 0.0006309989839792252, 0.000898689788300544, -0.005836989730596542, -0.00013520197535399348, 0.00030631289700977504, 0.00026555461226962507, -5.5384742154274136e-05, -0.00020659145957324654, 0.00019882751803379506, 6.177052273415029e-05, -1.1631099994247052e-07, -9.587493110529977e-08, -9.597085437462738e-08, -6.016357190219424e-08, -1.2379723557387479e-07, -1.300311680552113e-07, -1.0545166162501118e-07, -5.933038096372911e-07, -2.5113979518209817e-07, -3.08612186472601e-07, 0.13472679257392883, 0.11449664831161499, -0.1015838012099266, 0.05179201066493988, 0.0029881459195166826, 0.03963441774249077, -0.03837750852108002, -0.07046770304441452, -0.09526891261339188, -0.06914854049682617, -0.01396150141954422, -0.05906471610069275, -0.0034177848137915134, 0.0025033513084053993, 0.10388001054525375, -0.04627903178334236, 0.014436720870435238, -0.0580487996339798, 0.03098388947546482, -0.013891832903027534, 0.1411280632019043, 0.059746161103248596, 0.017882520332932472, -0.08761201798915863, -0.14676305651664734, -0.11737082153558731, 0.006383396219462156, 0.01795443519949913, 0.07561792433261871, 0.04150158166885376, 0.002892078598961234, -0.031013423576951027, -0.008983631618320942, 0.03382681682705879, -0.06328144669532776, -0.03252089396119118, 0.07604547590017319, -0.10946444422006607, 0.014707962982356548, 0.020094282925128937, -0.0440194234251976, 0.003486985107883811, -0.06619935482740402, 0.03362007066607475, 0.01928405649960041, 0.012357949279248714, 0.05013905093073845, -0.035594094544649124, 0.031096532940864563, 0.007870476692914963, -0.07595483213663101, 0.005759012885391712, -0.04845847189426422, 0.024338584393262863, 0.016065843403339386, -0.0197081808000803, -0.04850180819630623, 0.05804067477583885, -0.03266695886850357, -0.042376283556222916, -0.03412555903196335, 0.04569510743021965, 0.0717594102025032, 0.011127364821732044, -0.07060873508453369, -0.09934142231941223, 0.017732495442032814, 0.09391175955533981, -0.009421463124454021, 0.005760814528912306, -0.0006349451723508537, 0.08811599761247635, 0.05337994545698166, 0.07183602452278137, 0.02588280290365219, 0.030662890523672104, 0.00940011441707611, -0.07302549481391907, 0.009411576204001904, 0.00989578664302826, -0.03070599026978016, 0.05821320414543152, 0.02236640453338623, 0.02299741841852665, -0.022194167599081993, 0.02955840714275837, -0.009069882333278656, 0.031056778505444527, -0.011524328030645847, -0.014269119128584862, -0.05054998770356178, -0.021147876977920532, 0.04629017040133476, -0.01847659982740879, 0.022022182121872902, 0.025590432807803154, 0.009177370928227901, -0.06043912470340729, -0.01738016866147518, -0.01669953018426895, 0.011551671661436558, 0.015234866179525852, 0.027351489290595055, 0.01095188595354557, 0.011552244424819946, -0.008606215007603168, -0.028983470052480698, -0.009829348884522915, -0.00547177204862237, 0.01851329579949379, -0.001704753958620131, -0.022696349769830704, 0.010897458530962467, -0.006265691015869379, -0.06600786000490189, -0.0020134239457547665, -0.00039545935578644276, -0.020874178037047386, 0.0356341153383255, -0.0523708201944828, -0.014104877598583698, -0.04919162392616272, 0.032594431191682816, -0.006782941985875368, -0.022236136719584465, -0.005624738056212664, -0.0024331179447472095, -0.04592989385128021, 0.032241594046354294, 0.0177315603941679, 0.01643810234963894, 0.0014383915113285184, 0.027290312573313713, -0.021143777295947075, -0.015520204789936543, -0.015130147337913513, -0.0002652458206284791, 0.019372673705220222, -0.003200890263542533, 0.002698248950764537, 0.0011427098652347922, -0.013338079676032066, -0.009276563301682472, -0.014846747741103172, 0.008500559255480766, 0.0012223806697875261, -0.008907334879040718, 0.0007025716477073729, 0.006740853190422058, -0.00025631816242821515, -0.0002606600464787334, 9.28206936805509e-05, -9.76714218268171e-05, 0.00010193430352956057, 4.103845640202053e-05, 3.621541395659733e-07, -3.738313836265661e-08, 3.081481025901667e-08, -1.0631532321170312e-09, -1.3242684815395478e-07, -5.209114917192892e-09, 3.3894142603685395e-08, -4.761319161161737e-08, -2.0697402902669637e-08, 6.583395162351735e-08, 0.0074679492972791195, 0.09560186415910721, -0.023724939674139023, -0.043580312281847, 0.035962942987680435, -0.0988612100481987, -0.01386353000998497, 0.06042660400271416, -0.0709400549530983, -0.1433839201927185, -0.13629181683063507, 0.11295655369758606, -0.15892884135246277, -0.04011622816324234, 0.01524906326085329, -0.02352212369441986, -0.037942007184028625, -0.081071637570858, 0.04562139883637428, 0.045389000326395035, 0.01956801488995552, 0.013356740586459637, 0.1361497938632965, 0.06865346431732178, -0.013810853473842144, 0.020235523581504822, 0.024293307214975357, -0.09835003316402435, -0.013367349281907082, 0.05149904265999794, 0.06840799748897552, 0.128828763961792, 0.10613467544317245, -0.023148316890001297, -0.04995076358318329, 0.048132650554180145, -0.04898233339190483, 0.014191181398928165, 0.06546404212713242, -0.05966601148247719, 0.02997274324297905, -0.03786872699856758, 0.1249324306845665, 0.10992458462715149, -0.05730360001325607, 0.05986737459897995, -0.022713081911206245, 0.015305379405617714, 0.023421775549650192, -0.015498463064432144, 0.012697414495050907, -0.08975651860237122, -0.01276967953890562, -0.042074233293533325, 0.005613173823803663, 0.005509958136826754, -0.01782793179154396, 0.07513468712568283, 0.04523761197924614, 0.002025409834459424, 0.05683638155460358, -0.009435626678168774, 0.045110225677490234, -0.0885571837425232, 0.05889539048075676, 0.0702664852142334, -0.02480168268084526, 0.08053391426801682, 0.0065733883529901505, -0.04069911688566208, -0.0050788638181984425, 0.07499387860298157, 0.09190031886100769, -0.05352256819605827, 0.0006265175179578364, -0.11781702935695648, -0.06608126312494278, -0.08538990467786789, 0.03740033879876137, -0.13299091160297394, 0.021995745599269867, 0.04373481497168541, 0.04182738438248634, -0.03220031410455704, 0.056405920535326004, -0.10123800486326218, -0.019734783098101616, 0.04302603006362915, 0.10342691838741302, 0.11096348613500595, -0.0785757526755333, 0.0479920357465744, 0.030096516013145447, -0.038556747138500214, 0.10009411722421646, 0.022145841270685196, -0.10254039615392685, -0.05695478618144989, 0.015671899542212486, 0.05639280751347542, -0.05765964835882187, 0.0720064789056778, 0.003578797448426485, 0.015165344811975956, 0.003545998129993677, -0.0664927139878273, -0.02990134060382843, 0.12981624901294708, 0.05756569653749466, 0.020337196066975594, 0.07532761991024017, -0.06426431983709335, -0.08807310461997986, 0.06579911708831787, -0.07929813116788864, -0.04307416081428528, 0.004050831310451031, -0.025462862104177475, -0.07653201371431351, 0.029688920825719833, 0.02614087052643299, -0.030512671917676926, 0.005406203214079142, -0.016839979216456413, -0.008873372338712215, 0.03840402886271477, -0.009396219626069069, 0.060693759471178055, 0.005849859211593866, 0.023166295140981674, -0.004519382491707802, -0.013357295654714108, 0.005149077624082565, -0.024934671819210052, 0.01122498232871294, -0.009354363195598125, -0.015214408747851849, -0.012139400467276573, 0.01441173441708088, 5.7817131164483726e-05, -0.00033547228667885065, -0.0022982610389590263, 0.01667141541838646, 0.0006928145885467529, 0.0007824060157872736, -0.0006389796617440879, 0.0015593721764162183, 0.005840366240590811, -0.0010782252065837383, 0.0074897692538797855, 0.0007236887468025088, -0.0002567172341514379, 0.00012678441999014467, 0.0011679204180836678, -3.1690989999333397e-05, 1.4231981140255812e-06, 1.640697178117989e-08, 7.584129946280882e-08, -5.409737013906124e-08, 3.473630272310402e-07, -4.027057443067861e-08, -2.060285453353572e-08, 8.313128319059615e-08, 1.4469169862252329e-08, 1.3901969353469212e-08, -0.009213359095156193, -0.09045141935348511, 0.015722837299108505, -0.06813189387321472, 0.010035146959125996, -0.12029192596673965, -0.017065715044736862, 0.0018932063831016421, 0.010041957721114159, 0.07951319962739944, -0.017173578962683678, -0.14291705191135406, 0.05386963486671448, 0.1188792735338211, -0.015100237913429737, 0.14750587940216064, -0.11309868842363358, 0.037112947553396225, 0.14383380115032196, 0.02991458773612976, -0.034612253308296204, -0.04983373358845711, 0.10788741707801819, 0.08802331984043121, 0.052888475358486176, 0.07844939082860947, -0.11860666424036026, -0.11464014649391174, -0.06451418250799179, -0.08306451886892319, -0.05757512152194977, -0.02909201756119728, 0.1584085077047348, -0.018841829150915146, 0.03895218297839165, 0.1553477793931961, -0.11774871498346329, 0.06839379668235779, 0.04712102562189102, 0.08034777641296387, 0.0239072497934103, 0.13521870970726013, 0.06133533641695976, 0.03474557772278786, -0.08877353370189667, 0.060346029698848724, -0.0293625146150589, -0.004094874486327171, -0.0009669624269008636, -0.11833894997835159, -0.02167273871600628, -0.12739546597003937, 0.04285204038023949, 0.05017790198326111, 0.051974181085824966, 0.021692713722586632, -0.004052899777889252, -0.03760005533695221, -0.049533482640981674, 0.07647793740034103, 0.025644339621067047, -0.06802864372730255, -0.04383686184883118, 0.08024007081985474, 0.04752042517066002, 0.03324839845299721, 0.07823317497968674, 0.0001209623587783426, 0.0030230339616537094, -0.05055728182196617, 0.00759508740156889, -0.043494366109371185, -0.03944855183362961, -0.06710954010486603, -0.018700653687119484, -0.05492238700389862, 0.006940953433513641, -0.08810330927371979, 0.007723307237029076, -0.001613778411410749, -0.013514496386051178, -0.10973412543535233, -0.08311214298009872, -0.011078857816755772, -0.04405549541115761, -0.051566366106271744, -0.03560374677181244, -0.024150116369128227, 0.017547843977808952, 0.03143873065710068, 0.08868911117315292, -0.0034016999416053295, -0.03786591812968254, 0.04207557067275047, -0.09104489535093307, -0.027391089126467705, 0.00545837078243494, 0.05025110021233559, -0.07417599856853485, 0.002837194362655282, 0.004522116854786873, -0.0022807237692177296, -0.050802577286958694, 0.03722661733627319, -0.004568139556795359, -0.00412600114941597, -0.007680788636207581, -0.05609794706106186, 0.0006190708372741938, 0.03126729652285576, -0.04022787883877754, 0.006291083991527557, -0.025138303637504578, 0.08950503915548325, 0.025629717856645584, 0.006641567684710026, -0.01526404544711113, 0.09413811564445496, 0.01754026673734188, -0.013972672633826733, -0.04775870591402054, 0.04255751892924309, 0.026548799127340317, 0.016013160347938538, -0.012082397006452084, 0.015261181630194187, -0.009175585582852364, -0.03778507187962532, 0.01807510480284691, 0.010445253923535347, -0.013252961449325085, 0.03730306401848793, 0.003952109720557928, 0.02196795865893364, -0.0014346400275826454, 0.004100217018276453, -0.027877077460289, 0.04366324096918106, 0.025188297033309937, -0.03199397400021553, 0.008670696057379246, -0.003895330475643277, 0.0021982858888804913, -0.03555405139923096, -0.024355314671993256, -0.007915420457720757, -0.008416062220931053, 0.003973489161580801, 0.004083982668817043, 0.019880440086126328, -0.0007408165838569403, 0.006000471767038107, -0.003932289779186249, 0.0003813802031800151, -0.006092973984777927, -3.682917849801015e-06, 1.3332527259990457e-07, 1.0232810154775507e-06, 1.2236259294695628e-07, 4.7503817768301815e-08, 1.2809613281206111e-07, -1.9458991573628737e-07, 1.5553548848856735e-07, -3.108269766016747e-07, 2.126886471387479e-07, 0.02580903097987175, -0.08364143967628479, 0.18156050145626068, -0.1225905790925026, 0.03882499039173126, -0.03228214755654335, -0.061930831521749496, 0.0858304500579834, 0.13577130436897278, -0.01635371521115303, -0.0930991917848587, 0.05791221559047699, 0.025652138516306877, 0.06269048154354095, -0.06259636580944061, 0.054102666676044464, -0.05480978265404701, -0.13931508362293243, -0.04493127763271332, -0.032624684274196625, -0.1563566029071808, -0.06535103917121887, -0.0017952561611309648, 0.050190843641757965, -0.017119010910391808, 0.06890524178743362, -0.040403421968221664, -0.06479742377996445, -0.003002507844939828, 0.12242342531681061, -0.04435315728187561, -0.001234984491020441, -0.04238654300570488, 0.004431301262229681, 0.03230082988739014, 0.09922373294830322, -0.038731660693883896, 0.02022383362054825, 0.01638113521039486, -0.01531473733484745, -0.03299517557024956, 0.01026582159101963, -0.022383619099855423, -0.008939153514802456, -0.04237688332796097, -0.0037995658349245787, 0.030297046527266502, 0.0343194305896759, -0.007050118874758482, 0.0642968937754631, -0.02950066141784191, -0.07031983882188797, -0.03399293124675751, -0.00021818083769176155, 0.03256698325276375, -0.05481325462460518, -0.048770613968372345, -0.04823138564825058, 0.010362314991652966, -0.011017832905054092, 0.04232766106724739, -0.010400393977761269, -0.02418757975101471, -0.028452755883336067, -0.035640276968479156, 0.024435989558696747, -0.0014071371406316757, -0.04414200410246849, 0.046842705458402634, -0.05694134905934334, -0.02744421362876892, -0.0008739924523979425, -0.023671181872487068, -0.020094403997063637, 0.0011803111992776394, 0.04192623868584633, 0.06354079395532608, 0.027485055848956108, -0.07480576634407043, -0.0003304768761154264, 0.040293436497449875, 0.041819505393505096, -0.05312781408429146, 0.020272575318813324, -0.0377519354224205, -0.05255908891558647, -0.0028872909024357796, -0.019106412306427956, 0.038265835493803024, -0.010204849764704704, 0.008621702902019024, -0.023691846057772636, -0.011492728255689144, 0.006453630980104208, 0.01188525278121233, -0.04548986628651619, 0.0016157770296558738, 0.014038991183042526, 0.022785106673836708, -0.009196193888783455, 0.013042433187365532, 0.013530535623431206, 0.013906712643802166, -0.01081569492816925, -0.009699535556137562, -0.008508523926138878, 0.012029807083308697, -0.020997151732444763, 0.054647352546453476, -0.011535890400409698, 0.03538358584046364, 0.007359880954027176, 0.0045686038210988045, 0.02259129099547863, -0.00551692396402359, 0.008898092433810234, -0.031676869839429855, 0.006977910175919533, -0.016500091180205345, 0.024103496223688126, -0.0037159579806029797, -0.011375632137060165, -0.0036124938633292913, 0.034989431500434875, -0.004069898743182421, 0.027721785008907318, 0.009462522342801094, -0.008550601080060005, 0.00739585654810071, 0.01640334539115429, 0.004561438225209713, -0.022826099768280983, 0.0002096908283419907, -0.003453287063166499, -0.0066764033399522305, -0.003351201070472598, 0.007945486344397068, 0.0026174988597631454, 0.004938133992254734, -0.0004220747505314648, -0.0031290154438465834, -0.0018295015906915069, 0.0053384145721793175, -0.0017971479101106524, -0.00024617387680336833, -0.0029250564984977245, 0.018967699259519577, -0.0025378891732543707, -0.009148086421191692, -0.0014749513939023018, -0.00034301442792639136, 0.001753473188728094, 0.00039146398194134235, -0.0002471728075761348, -0.00016912035061977804, -7.803873813827522e-07, -1.7613718483744378e-08, -3.6481742426985875e-07, -9.479489904151706e-08, -7.030727289247807e-08, 8.229980608120968e-08, -5.426379345863097e-08, 4.300019185166093e-08, 2.3885959876679408e-08, 4.680686060964945e-08, -0.029347307980060577, 0.00029553024796769023, 0.03234295919537544, -0.08965795487165451, -0.11672504991292953, -0.005823567043989897, -0.08592426031827927, -0.10142813622951508, 0.004908197093755007, -0.12518654763698578, -0.05910218507051468, 0.04732818529009819, -0.0931244045495987, -0.08539771288633347, 0.05264434963464737, -0.046412598341703415, 0.029443664476275444, -0.05307630077004433, 0.03321588411927223, 0.06389480829238892, -0.0023640706203877926, 0.04234255105257034, 0.003002142533659935, 0.06550157815217972, 0.038660068064928055, -0.08720540255308151, 0.09087786078453064, -0.16376063227653503, 0.005585228558629751, -0.03126337379217148, 0.0355498269200325, 0.04897352308034897, 0.084624744951725, 0.03843091428279877, -0.029996013268828392, 0.008124420419335365, -0.0907902866601944, -0.013434351421892643, 0.03473317623138428, -0.061026014387607574, 0.007462539244443178, -0.03335775434970856, 0.03494343161582947, 0.132663294672966, 0.0655214935541153, 0.02998756617307663, 0.0289938822388649, -0.03864736109972, 0.1123591884970665, 0.022142674773931503, -0.02550237625837326, -0.01051691547036171, 0.07102032750844955, -0.12080837786197662, -0.032863933593034744, 0.06500328332185745, 0.06439779698848724, -0.02346154674887657, 0.06700515747070312, 0.013711419887840748, -0.05795729160308838, 0.013080627657473087, -0.004540340509265661, -0.0452500656247139, 0.04864327609539032, -0.01408463716506958, 0.0026080722454935312, 0.11024791747331619, -0.0506792776286602, -0.026563748717308044, -0.03570595383644104, 0.026898682117462158, 0.09960803389549255, -0.034352827817201614, -0.013336087577044964, 0.015237515792250633, -0.0077298725955188274, -0.056966353207826614, 0.0066197593696415424, -0.06471435725688934, 0.034876443445682526, 0.023863410577178, -0.029179677367210388, -0.025276578962802887, 0.012177396565675735, -0.08220425993204117, -0.003172063734382391, 0.0031482826452702284, 0.12027076631784439, 0.06523104757070541, 0.014554442837834358, 0.08633366972208023, -0.06026865169405937, -0.03100534901022911, -0.06426539272069931, 0.02252032235264778, -0.015085176564753056, -0.04774807393550873, 0.03741650655865669, 0.015495686791837215, -0.0050605712458491325, 0.05386953800916672, 0.008380220271646976, -0.012662459164857864, 0.036036353558301926, 0.005061781965196133, -0.03922487795352936, 0.046246275305747986, 0.06969534605741501, 0.0005940966657362878, 0.02033805102109909, -0.058565013110637665, -0.053321730345487595, 0.025906860828399658, -0.04907487705349922, -0.027365077286958694, -0.007822477258741856, 0.024916939437389374, -0.0055955140851438046, 0.005860102828592062, -0.005437998566776514, 0.008845907635986805, -0.03741321712732315, -0.03555178642272949, -0.04330495744943619, -0.006435540970414877, -0.03249121457338333, 0.00719941221177578, 0.006232996936887503, 0.004603555891662836, 0.0059626754373312, 0.009270604699850082, -0.0021074346732348204, -0.03947070986032486, 0.03993808850646019, -0.023456094786524773, -0.004994514398276806, -0.0013329617213457823, 0.0018316040514037013, 0.0032491611782461405, 0.005740450695157051, 0.0018129186937585473, 0.004497542977333069, -0.0036903799045830965, -0.0010466541862115264, -0.0012247090926393867, -0.0007877629832364619, 0.002473185071721673, 0.0023592605721205473, -0.013893386349081993, -0.0007480494095943868, -0.006483855657279491, -0.00012365306611172855, -3.208330235793255e-05, -5.540256097447127e-06, 9.505544085186557e-08, 1.7640733318557977e-10, -1.8698185044740967e-07, 4.4966093071252544e-09, -5.651570766929126e-09, -7.94971981576964e-08, 1.0458856536388339e-07, -4.789441732100386e-08, 4.8982951028619937e-08, 3.042446294898582e-09, 0.06811551004648209, 0.07948661595582962, -0.09731622040271759, 0.016943106427788734, 0.014480460435152054, -0.07315174490213394, 0.05893123894929886, -0.031615834683179855, 0.128545880317688, -0.11521502584218979, -0.06900198757648468, 0.047156840562820435, 0.004548641387373209, 0.0046899463050067425, -0.07303308695554733, -0.04074445739388466, 0.02891523763537407, 0.11951100081205368, 0.02033143863081932, -0.014408459886908531, -0.048148591071367264, -0.059777792543172836, -0.07802355289459229, -0.04859602823853493, -0.0289915781468153, 0.03123985230922699, -0.05503929406404495, 0.007109980098903179, -0.015396022237837315, 0.02620759792625904, -0.0027062231674790382, 0.004984542727470398, -0.001045914483256638, 0.1570509970188141, -0.01601254940032959, 0.04255102202296257, 0.013327510096132755, -0.009846868924796581, 0.050081729888916016, -0.05870441719889641, 0.06686974316835403, -0.022432254627346992, -0.006457077339291573, -0.039733096957206726, -0.03474711999297142, 0.003986316733062267, -0.07561136037111282, 0.054726939648389816, 0.025082696229219437, 0.027588391676545143, -0.01176365278661251, 0.032006584107875824, -0.008220288902521133, -0.07379955053329468, 0.039272405207157135, -0.026445206254720688, -0.05970102176070213, 0.004643204156309366, 0.03764130920171738, -0.010891678743064404, -0.033418234437704086, -0.029669838026165962, -0.017361413687467575, -0.0359455831348896, -0.017765982076525688, 0.05891377851366997, -0.0014640676090493798, -0.041377078741788864, 0.019103439524769783, -0.010828031226992607, -0.011580392718315125, 0.02553427778184414, 0.0030506672337651253, 0.018303269520401955, -0.010236245580017567, 0.0446324460208416, 0.053198039531707764, 0.03304886072874069, -0.01832437328994274, -0.027243224903941154, 0.05699411407113075, -0.010776928626000881, -0.016096122562885284, 0.00569507572799921, -0.0006927101640030742, 0.02292589098215103, 0.02085665613412857, 0.00105797138530761, -0.0005392272141762078, 0.00790951307862997, -0.03770233690738678, 0.015495472587645054, -0.035660259425640106, -0.0670657530426979, 0.019477766007184982, -0.01389253232628107, 0.007697424851357937, 0.012474541552364826, 0.009727434255182743, -0.012980856001377106, -0.006333290599286556, 0.023333044722676277, 0.01828763633966446, -0.016140403226017952, 0.010244116187095642, -0.00424446864053607, 0.029507571831345558, 0.01807030290365219, 0.043590229004621506, -0.03250705450773239, 0.009623550809919834, 0.013963336125016212, 0.011453722603619099, -0.00018508029461372644, 0.011190456338226795, 0.05663103982806206, -0.0036322923842817545, 0.018522508442401886, -0.004267839714884758, 0.017939703539013863, -0.006698552053421736, 0.0010978312930092216, 0.02177744358778, 0.008314494974911213, 0.004274888429790735, 0.018283341079950333, 0.0008974235388450325, 0.007448171731084585, 0.012630259618163109, 0.0018260306678712368, -0.00013345536717679352, -0.004150563385337591, -0.008928980678319931, -0.0014898371882736683, -0.007828728295862675, -0.0015883671585470438, 0.0018959199078381062, -0.0022295573726296425, 0.0037782927975058556, -0.0028713273350149393, 0.015365462750196457, -0.002171395579352975, -0.02391352318227291, -0.008859719149768353, -0.0008125803433358669, -0.012231197208166122, -0.0007340855663642287, 0.000522688846103847, -0.00802524946630001, 0.002893913071602583, 0.00021081244631204754, -9.56004805630073e-05, -0.00014515664952341467, 0.02603219635784626, -0.001280992291867733, -2.2747913419607357e-07, -5.4842587360326434e-08, -6.367389460137929e-08, 2.864260295609711e-07, -9.38109678827459e-08, 9.080594765009664e-08, -3.2526097371032847e-09, -3.0297329089989944e-09, 1.7119774042839708e-08, -2.4392079467361327e-09, -0.05275500565767288, 0.015775248408317566, 0.0944829210639, 0.05253318324685097, -0.1218576431274414, 0.1292211413383484, 0.1314089447259903, 0.14562202990055084, 0.06038769334554672, -0.06943422555923462, -0.043793391436338425, -0.011026562191545963, 0.11403198540210724, 0.125218003988266, 0.094889335334301, 0.16653847694396973, -0.06626918911933899, -0.013696236535906792, 0.05208909884095192, 0.16603904962539673, -0.0044894772581756115, -0.11011146008968353, 0.03096020594239235, 0.050021152943372726, -0.03165833652019501, 0.02269725129008293, 0.009769302792847157, -0.04410189390182495, -0.034814536571502686, 0.02141456864774227, -0.016400782391428947, 0.07619116455316544, -0.001720949076116085, -0.060426630079746246, 0.08756761997938156, -0.040504928678274155, -0.0744977742433548, -0.05532320588827133, 0.07666604220867157, -0.008149337023496628, -0.02060002088546753, -0.0003820616111624986, -0.030336204916238785, -0.13083378970623016, -0.04588943347334862, -0.003621351672336459, -0.1324869841337204, -0.1592751443386078, -0.058774519711732864, 0.09593223035335541, 0.04016740620136261, 0.06767626851797104, 0.017745904624462128, -0.106259785592556, -0.062450896948575974, -0.0067610652185976505, 0.046818770468235016, -0.0843454971909523, -0.008577428758144379, 0.089518241584301, 0.07089245319366455, -0.12091334164142609, 0.03897389769554138, -0.06218516081571579, 0.02268868312239647, -0.025864655151963234, -0.061279065907001495, 0.013958976604044437, -0.10139694064855576, 0.0026895024348050356, -0.045766811817884445, 0.0059340340085327625, -0.0319453589618206, -0.06546153128147125, 0.05747832730412483, -0.037074845284223557, -0.014070161618292332, -0.0654779002070427, -0.00943352747708559, 0.04634857177734375, 0.013945757411420345, 0.028714964166283607, 0.025024909526109695, -0.042916446924209595, 0.08678297698497772, -0.1213090792298317, -0.05236576870083809, -0.04034842923283577, 0.018446968868374825, 0.016844367608428, 0.004048833157867193, 0.04524289071559906, -0.0020290787797421217, -0.016331428661942482, 0.04842263087630272, -0.01059923879802227, -0.06342261284589767, -0.01672118902206421, -0.027739904820919037, 0.009288094006478786, -0.028248701244592667, -0.031005213037133217, 0.07798013836145401, -0.02566438540816307, -0.03657837584614754, 0.031112099066376686, -0.038592081516981125, -0.011455977335572243, 0.0255870521068573, -0.05278507620096207, 0.06937962025403976, 0.019656658172607422, -0.034354910254478455, 0.01565149798989296, -0.04271445423364639, -0.0018002149881795049, 0.006487410981208086, 0.024813752621412277, -0.06364110112190247, -0.03959374874830246, -0.03919322043657303, 0.025243671610951424, 0.005151607096195221, -0.05129403993487358, -0.004150021821260452, 0.029807744547724724, 0.027758503332734108, 0.023659439757466316, -0.054470133036375046, 0.033128153532743454, 0.024827221408486366, 0.07151861488819122, -0.01430849265307188, 0.015208684839308262, -0.01242676842957735, 0.008300816640257835, -0.023683475330471992, 0.019184723496437073, 0.016010774299502373, 0.004146295133978128, 0.012332560494542122, -0.004685535095632076, 0.002561217872425914, 0.01145719550549984, -0.007167964242398739, 0.014457271434366703, 0.010329174809157848, 0.005279709585011005, 0.009670666418969631, 0.00976642221212387, -0.0005777761689387262, 0.0009194914600811899, -0.0010645041475072503, 1.3965958714834414e-05, -0.00012301909737288952, -1.0171306996653584e-07, 1.2177207509012078e-07, 3.246338167173235e-07, 1.1982093539586458e-08, 1.7886090972751845e-06, -1.444411168449733e-08, -1.429726381729779e-07, -3.0340584089572076e-07, -1.2241416413871775e-07, -1.4781774382299773e-07, -0.010758230462670326, -0.0665135309100151, 0.15268325805664062, -0.07861240953207016, 0.13271349668502808, -0.008142651058733463, -0.0796504095196724, 0.03354369476437569, 0.017674367874860764, -0.054134469479322433, -0.15066668391227722, 0.05160212516784668, 0.0774601623415947, 0.1090908795595169, 0.11753884702920914, -0.016258591786026955, 0.041872262954711914, 0.021117929369211197, 0.09659778326749802, 0.016869695857167244, -0.015119191259145737, -0.06275041401386261, -0.06252002716064453, -0.06920774281024933, -0.03707275167107582, 0.07177305966615677, -0.036198534071445465, 0.07372236251831055, 0.016063755378127098, 0.06886858493089676, 0.07866176217794418, -0.11061787605285645, -0.06701499223709106, -0.11538143455982208, 0.0044700512662529945, 0.011059668846428394, 0.0678025409579277, -0.004501308314502239, -0.06923816353082657, 0.08309201896190643, 0.0055009457282722, -0.014909464865922928, 0.010877354070544243, -0.02203042060136795, -0.0016433540731668472, -0.016305694356560707, 0.11089452356100082, 0.008581012487411499, 0.04703252762556076, -0.04468095302581787, 0.0001245410239789635, 0.0451294481754303, -0.09196732938289642, 0.07742847502231598, 0.044556938111782074, 0.0274440199136734, 0.062303416430950165, 0.04660226032137871, 0.011144673451781273, 0.07618295401334763, 0.06328040361404419, 0.023726768791675568, -0.02632390893995762, -0.06946508586406708, -0.00976882316172123, -0.07091229408979416, -0.05641211196780205, -0.03875702619552612, -0.04198253154754639, -0.025322236120700836, -0.026125913485884666, 0.027169128879904747, -0.01157576683908701, 0.05722484365105629, -0.010821550153195858, -0.05113242194056511, -0.0009160118643194437, -0.043643057346343994, 0.0015835894737392664, 0.08266869187355042, -0.054893698543310165, -0.016298821195960045, 0.04742952808737755, 0.017770279198884964, -0.024559175595641136, 0.05575113743543625, -0.02351422607898712, 0.0108823636546731, -0.0010595107451081276, 0.007045151200145483, -0.019031673669815063, -0.051684558391571045, -0.04410885274410248, 0.04662188142538071, -0.05804932489991188, 0.017768045887351036, 0.040093857795000076, -0.009297815151512623, -0.02100139670073986, 0.00615364545956254, -0.016059692949056625, -0.045585133135318756, -0.0015747019788250327, -0.006402682512998581, -0.03483039513230324, -0.024591416120529175, -0.07038532197475433, -0.012197518721222878, -0.040752969682216644, 0.0481019988656044, 0.006319446489214897, 0.008876807056367397, -0.022294282913208008, -0.08268171548843384, -0.007809932809323072, -0.019784845411777496, 0.05433615669608116, -0.01835206337273121, -0.026417961344122887, -0.015887221321463585, -0.0040749963372945786, -0.04426804557442665, -0.003174473764374852, -0.005255702417343855, 0.011274094693362713, 0.031117193400859833, 0.0022440629545599222, 0.003878232091665268, 0.018179750069975853, 0.0062209563329815865, -0.004595959093421698, -0.007297708187252283, 0.006426031701266766, -0.0007536737248301506, -0.010278522968292236, -0.015697073191404343, 0.005355497822165489, -0.002155085327103734, 0.004466800019145012, 0.019960351288318634, -0.0007509181741625071, 0.0014666275819763541, -0.008536764420568943, 0.0025316092651337385, 0.003485801164060831, -0.0021599915344268084, -0.0037525403313338757, 0.025271927937865257, -0.01659652590751648, 0.0002597839047666639, 0.0014657023129984736, 0.010694896802306175, 0.00256802118383348, 0.00024198112078011036, 0.0031896568834781647, -6.391990723386698e-07, -8.51659631706525e-09, -1.5901703420695412e-07, -7.777695998356648e-08, 4.458633497961273e-07, 1.1536689470403871e-07, 1.754117739949379e-09, 3.3364777607403084e-10, -8.219146252486098e-09, 2.5493045541225e-07, 0.04585439711809158, 0.03857596591114998, -0.05955912172794342, -0.06945649534463882, -0.024890590459108353, 0.07458855956792831, 0.10930217802524567, 0.0228642039000988, -0.03398645669221878, -0.07050172984600067, 0.006826589349657297, -0.10064055025577545, 0.17218148708343506, 0.016210339963436127, -0.025698743760585785, 0.004887869115918875, 0.05710337311029434, 0.018973836675286293, -0.10662689059972763, -0.04125230759382248, -0.08641110360622406, -0.04327215999364853, -0.09421953558921814, -0.05870569124817848, -0.05600332096219063, -0.09193973988294601, -0.048993196338415146, 0.05387892574071884, -0.00874237809330225, 0.07201457768678665, -0.0008400951628573239, -0.021594028919935226, -0.07647062838077545, 0.08727426081895828, 0.02489093318581581, -0.0241073165088892, 0.015613370575010777, -0.03602530434727669, -0.0012009645579382777, 0.06006787717342377, 0.056933674961328506, 0.07315006852149963, -0.0266319178044796, 0.01770915649831295, 0.06386533379554749, -0.03418256342411041, -0.03821714594960213, 0.15227949619293213, -0.012127566151320934, 0.07778450846672058, 0.07525325566530228, 0.08232076466083527, -0.15024401247501373, 0.1225765272974968, -0.01239317562431097, -0.0407891720533371, -0.09388373792171478, 0.03537200763821602, -0.0316009484231472, -0.0433565154671669, -0.015734899789094925, -0.12851034104824066, 0.031208427622914314, 0.10050097852945328, -0.02674988843500614, 0.006329234689474106, 0.009477520361542702, -0.07709458470344543, 0.025040166452527046, -0.07881374657154083, 0.08878908306360245, -0.03785495460033417, -0.10964981466531754, 0.034297455102205276, 0.03604017198085785, 0.05018028989434242, 0.0256819985806942, 0.08046294748783112, 0.040897928178310394, 0.10945713520050049, 0.0011034044437110424, -0.10003188997507095, 0.0005395109183155, 0.01103217527270317, -0.02837226912379265, 0.04602384567260742, -0.010937166400253773, -0.10617583990097046, -0.09310730546712875, 0.019918786361813545, -0.04395373910665512, -0.02630620077252388, 0.015438338741660118, 0.03384530171751976, -0.019729910418391228, 0.03242030739784241, 0.06993690878152847, 0.015703143551945686, 0.09087266027927399, 0.016532838344573975, 0.048579998314380646, 0.0077344379387795925, 0.02159598097205162, 0.08583330363035202, -0.01349649764597416, 0.013795488514006138, -0.015778187662363052, -0.072645403444767, -0.027364620938897133, -0.06479065865278244, -0.11372814327478409, 0.0011851751478388906, 0.007771622855216265, -0.0446762889623642, 0.0499875545501709, 0.04897353798151016, 0.05279826000332832, 0.026925500482320786, -0.021566838026046753, -0.004574512597173452, -0.01964483968913555, -0.002406282350420952, 0.000624223961494863, 0.09730977565050125, 0.057184670120477676, 0.00540070328861475, 0.010347682982683182, -0.01770900748670101, 0.007910899817943573, -0.05916382372379303, -0.06228611618280411, -0.0036673927679657936, 0.010353216901421547, 0.01023463997989893, -0.017185941338539124, 0.016203613951802254, 0.026634588837623596, 0.0010564586846157908, -0.012022184208035469, -0.0017364949453622103, -0.010426369495689869, -0.016109157353639603, -0.010381133295595646, 0.0014314608415588737, -0.0003265991108492017, -0.005545555613934994, -0.0008218758157454431, -0.0003813400981016457, -0.0007841824553906918, -0.0017053517512977123, 0.00012400485866237432, -0.00031534070149064064, 0.0003205646062269807, 0.00023567602329421788, -0.00012187221727799624, -2.577515090251836e-07, -2.6690042886912124e-07, -1.9435668718870147e-07, -5.540298957384948e-07, -2.3901728241071396e-07, 1.1673568423020697e-07, -3.2629117185933865e-08, -7.579738792173885e-08, 1.1332502936056699e-08, -2.7994963147648377e-07, -0.04949282109737396, -0.002850494347512722, 0.03365093469619751, 0.061111900955438614, -0.010622750967741013, -0.049230579286813736, 0.017435552552342415, -0.13197854161262512, -0.16285039484500885, 0.1091742217540741, 0.007483796216547489, 0.029255222529172897, -0.04839753732085228, -0.12206626683473587, 0.05020691081881523, 0.1019553393125534, -0.00951678492128849, -0.039049047976732254, -0.17648178339004517, -0.012694690376520157, 0.08172602206468582, -0.04439171403646469, -0.10876963287591934, 0.039335500448942184, 0.03126419708132744, -0.11036713421344757, 0.08430535346269608, 0.06102197617292404, 0.07670879364013672, 0.06247912719845772, 0.0588109977543354, 0.0078035276383161545, -0.08528027683496475, 0.005013618152588606, -0.00513654388487339, -0.04762274771928787, 0.08207361400127411, -0.026562394574284554, 0.029071075841784477, -0.09769878536462784, -0.10167478024959564, 0.045538727194070816, -0.014949760399758816, -0.032311923801898956, -0.02833140455186367, 0.027814920991659164, -0.0010463279904797673, -0.04916125163435936, 0.09803298115730286, 0.09778457880020142, -0.0657418817281723, 0.03304475173354149, 0.07799778133630753, -0.06159842014312744, -0.02996787242591381, 0.11633238941431046, -0.11618092656135559, 0.02907451055943966, 0.007792512886226177, 0.08279481530189514, -0.04542938992381096, 0.03400696814060211, 0.08163131773471832, -0.06264470517635345, 0.03901515156030655, -0.04299955815076828, 0.06655602157115936, 0.09369578957557678, 0.01445684116333723, 0.024085624143481255, -0.11302577704191208, -0.025543637573719025, -0.04932577908039093, -0.09924536943435669, 0.08095227181911469, 0.09627698361873627, -0.06076584756374359, -0.08935780823230743, -0.00728713721036911, 0.06421416997909546, 0.03937332332134247, 0.011641097255051136, -0.010413067415356636, 0.06070057302713394, -0.011618312448263168, 0.005000329576432705, -0.0013929643901064992, 0.041957270354032516, -0.06024977192282677, -0.04466100037097931, 0.013528724201023579, 0.0003568559477571398, -0.0034095407463610172, -0.07503131777048111, 0.1009804978966713, 0.04282262176275253, 0.05277303606271744, -0.06491511315107346, 0.045817241072654724, -0.0026853864546865225, 0.0480399988591671, -0.04048747569322586, 0.03129631653428078, 0.007280399557203054, 0.016321882605552673, -0.09458892792463303, -0.11906477808952332, 0.03103078342974186, 0.060751721262931824, -0.015861302614212036, 0.07461223006248474, 0.02709365263581276, 0.007563790772110224, 0.049260109663009644, -0.003937287721782923, -0.02161269821226597, 0.013440065085887909, -0.022178566083312035, -0.03588729351758957, 0.01968548446893692, 0.007097518537193537, 0.005750847514718771, -0.018999597057700157, -0.06518197059631348, -0.04864203557372093, 0.014161132276058197, -0.022292232140898705, -0.02310214936733246, -0.03775618597865105, -0.0010716458782553673, 0.049653224647045135, -0.05242180824279785, 0.0059271096251904964, -0.07115507125854492, 0.010828890837728977, -0.038347937166690826, -0.0014247052604332566, -0.048079963773489, -0.025088364258408546, -0.011615234427154064, 0.015078523196280003, 0.0207614004611969, 0.0026619581039994955, 0.0012218909105286002, 0.006798462942242622, 0.016513066366314888, 0.014443592168390751, -0.02042977698147297, 0.005402600392699242, -0.01509584579616785, -0.0007062530494295061, -0.008001013658940792, -0.0004992976319044828, -0.000299907464068383, -0.00016146307461895049, 3.8990916095826833e-07, 3.290908523467806e-08, -5.973001293568814e-08, -3.2047799969348034e-09, 9.578332793580557e-08, 7.518437428188918e-09, 4.0483627117282595e-08, -4.751490934040703e-08, 1.1944820244025323e-07, -4.1626714164522127e-07, -0.010171840898692608, -0.18009087443351746, 0.07428677380084991, -0.09434517472982407, 0.044233307242393494, 0.07073502242565155, -0.1433466225862503, 0.08020762354135513, 0.0942436084151268, -0.14320093393325806, -0.025749048218131065, -0.0014722553314641118, -0.049378156661987305, -0.02691861055791378, -0.02207120694220066, -0.07527017593383789, 0.009842801839113235, -0.16077707707881927, -0.1896120309829712, -0.0958140566945076, 0.07584710419178009, -0.10693049430847168, -0.011186840012669563, 0.024707574397325516, -0.14738476276397705, -0.06101430952548981, 0.018293969333171844, 0.12185323983430862, 0.01364913396537304, 0.02315506525337696, -0.07858608663082123, 0.0017377339536324143, -0.08456980437040329, -0.14660410583019257, -0.017228107899427414, -0.04416395723819733, 0.14965607225894928, 0.10140042752027512, -0.06718003749847412, -0.012913357466459274, 0.01236693374812603, -0.15492458641529083, -0.011620677076280117, 0.08136384189128876, -0.07593341916799545, -0.08623979985713959, 0.08893070369958878, -0.13285639882087708, -0.0335150770843029, 0.03424376621842384, -0.007779306266456842, -0.08371047675609589, 0.0450182743370533, -0.0484844334423542, 0.03692248836159706, 0.03546297550201416, 0.06804842501878738, 0.07307582348585129, -0.02111686021089554, -0.018518712371587753, 0.059162240475416183, 0.01587018184363842, 0.018283473327755928, -0.00030438514659181237, 0.04130396246910095, -0.05427451431751251, 0.08047875016927719, -0.07965349406003952, 0.05911038815975189, 0.018826110288500786, -0.0808965191245079, 0.00748160807415843, -0.040429070591926575, -0.0626286193728447, -0.0013915873132646084, -0.03059585765004158, -0.039841536432504654, 0.0926731675863266, -0.016219891607761383, 0.012130080722272396, 0.08041071146726608, -0.057721927762031555, 0.019123893231153488, -0.007595571223646402, -0.055557478219270706, -0.04203575477004051, -0.01493102964013815, -0.005690098740160465, 0.03923654928803444, -9.321204561274499e-05, 0.010352215729653835, 0.07613346725702286, -0.02822466567158699, -0.044760026037693024, 0.03137326240539551, -0.06748789548873901, 0.005351661238819361, 0.04104059934616089, -0.026467733085155487, -0.0005686171352863312, -0.006745077669620514, 0.025942543521523476, -0.011953509412705898, -0.02207140065729618, 0.02913287840783596, -0.034927088767290115, -0.003107303287833929, -0.03083442896604538, 0.021834343671798706, -0.021941646933555603, -0.002471860498189926, -0.044930506497621536, 0.012126571498811245, -0.006163961719721556, -0.03411382809281349, 0.006478612311184406, -0.01957976073026657, -0.005902386736124754, -0.006484340876340866, 0.021508624777197838, 0.003997135907411575, 0.0020643891766667366, -0.018083447590470314, -0.017089681699872017, 0.010128597728908062, 0.004861874505877495, 0.013449875637888908, -0.00785092543810606, 0.0033023532014340162, -0.0011141352588310838, 0.002144525060430169, -0.008806576021015644, 0.005051121115684509, 0.00010821782052516937, 0.011282691732048988, -0.001208747737109661, 0.039946574717760086, 0.009960833005607128, 0.018177945166826248, 0.002795584499835968, -0.004056873265653849, 0.0007685689488425851, 0.004042722750455141, -0.014533444307744503, 0.006768643390387297, -0.0007104300893843174, -0.00493022333830595, 0.0012127083027735353, 0.0011648848885670304, 0.00043893561814911664, 0.0008282318012788892, -0.0014353198930621147, -0.017631864175200462, -0.017430666834115982, 0.0013767634518444538, 2.2547918376858433e-07, -1.2667351612094535e-08, -2.796423927975411e-07, -2.0871656403187444e-08, -2.1338001587878352e-08, -8.698198428191972e-08, -7.33938776420473e-09, 2.3172074037347556e-08, -9.44605194064252e-09, -2.2657724585428696e-09, 0.1024896502494812, 0.10761202871799469, -0.020400356501340866, 0.08769950270652771, -0.06448273360729218, 0.0012010905193164945, -0.1250331997871399, -0.03917214646935463, -0.10592618584632874, -0.09676685184240341, -0.018138080835342407, -0.0250400397926569, 0.02574566751718521, -0.012602857314050198, 0.0037039604503661394, -0.1240638867020607, -0.04240739718079567, -0.05466350167989731, 0.05567554011940956, 0.06090422719717026, -0.08725550770759583, 0.10063747316598892, 0.07876516133546829, -0.01821730099618435, 0.07263313978910446, 0.07233855128288269, 0.05402359366416931, -0.079207643866539, -0.03829359635710716, 0.03938748687505722, 0.10671146959066391, -0.01268851850181818, -0.014457358978688717, -0.0324774794280529, -0.03413505107164383, 0.030300945043563843, -0.04639403149485588, 0.01565481349825859, 0.11371717602014542, -0.0353391095995903, 0.0055014402605593204, 0.07061167061328888, 0.17040692269802094, -0.02941100113093853, -0.03179904818534851, 0.008426706306636333, 0.09436067193746567, -0.08668847382068634, 0.03469620645046234, 0.01908961497247219, -0.06394965201616287, -0.11093281209468842, 0.07389472424983978, -0.09296911209821701, -0.021027108654379845, -0.0062653678469359875, -0.0004932225565426052, 0.010625259950757027, -0.027304615825414658, -0.029555007815361023, -0.03729373216629028, 0.06877920031547546, 0.045469872653484344, -0.02134767360985279, -0.008098704740405083, -0.009906827472150326, -0.011943432502448559, 0.09935326874256134, -0.038532279431819916, 0.005215240642428398, -0.036613937467336655, 0.01565212570130825, 0.07936499267816544, -0.0341574065387249, -0.03868899494409561, 0.06249820813536644, -0.019636739045381546, -0.07028203457593918, -0.04156232997775078, -0.08022695034742355, 0.04180637374520302, 0.0321536660194397, -0.022120054811239243, -0.1064537838101387, 0.002537170425057411, 0.024538177996873856, -0.045607972890138626, 0.08301660418510437, 0.09060792624950409, 0.031788043677806854, -0.017663445323705673, 0.07631870359182358, 0.09654931724071503, -0.03710730001330376, 0.009791008196771145, -0.0130419060587883, -0.040315765887498856, -0.044650621712207794, -0.02791653759777546, 0.00860833190381527, 0.006015116348862648, 0.0027019577100872993, -0.013144928961992264, -0.004330760799348354, -0.003720393404364586, -0.036203477531671524, -0.04657991975545883, 0.01008500438183546, 0.023736126720905304, 0.013140824623405933, 0.01020315196365118, -0.05019243434071541, -0.01839503087103367, -0.0021135734859853983, -0.02611353062093258, -0.0013758564600721002, 0.0022638302762061357, -0.011835535056889057, -0.06692370027303696, 0.03339949622750282, 0.019484875723719597, 0.0023359626065939665, -0.005475058685988188, 0.038604672998189926, -0.03987644985318184, -0.002166265156120062, 0.0011393449967727065, 0.014099175110459328, -0.039252180606126785, 0.03938660770654678, -0.005487778224050999, 0.013377190567553043, 0.0006633938755840063, 0.005675113294273615, -0.0012470327783375978, -0.019746003672480583, 0.0012517879949882627, -0.0027557406574487686, -0.0010509875137358904, -0.0017684604972600937, 0.002015919890254736, -0.0010057425824925303, 0.004763107281178236, 0.00017572801152709872, -0.0004995993222109973, -0.0005742625799030066, -0.0013231816701591015, 0.0017373089212924242, 0.0014537348179146647, 0.0014176201075315475, 0.0005407267599366605, -0.00010307802585884929, -0.0001368078519590199, -1.1143940355395898e-05, 1.909365710162092e-05, 6.981169775599483e-08, -3.987390861937001e-09, -5.262352686941085e-08, 3.847035756621153e-08, 4.3809080807477585e-09, -1.6170426775374835e-08, 2.977271407189619e-08, 1.1493019869135424e-09, 6.503873439811514e-09, -1.261997795154457e-08, -0.06044262275099754, 0.06175774708390236, 0.04170958325266838, 0.000676527270115912, 0.0651959702372551, 0.024111630395054817, 0.1161617860198021, -0.041026998311281204, 0.1419641226530075, 0.1272459179162979, 0.060360126197338104, -0.027211805805563927, 0.026994530111551285, 0.14081285893917084, 0.0354754664003849, -0.0012506393250077963, -0.054070714861154556, -0.06694111227989197, 0.0032712100073695183, -0.13408377766609192, 0.08191072195768356, -0.004682199563831091, 0.029895884916186333, 0.07400476187467575, -0.021663382649421692, 0.07169294357299805, -0.06821995228528976, 0.05165307968854904, 0.0661013051867485, 0.06454283744096756, -0.05153954401612282, -0.014857541769742966, -0.0881185531616211, -0.009532027877867222, 0.08874358236789703, 0.035206351429224014, 0.004355154000222683, 0.10537763684988022, 0.1027907133102417, -0.02982974983751774, 0.05841265618801117, 0.056205324828624725, -0.03240598365664482, -0.0033474748488515615, 