#include "mlp_weights.h"

const float layer_0_weights[15840] = {-0.12497813254594803, 0.07718449085950851, -0.13758480548858643, 0.020531784743070602, -0.0583103708922863, -0.10573285818099976, 0.04023158922791481, 0.040137797594070435, -0.12504884600639343, 0.16302156448364258, -0.003131331643089652, -0.023403767496347427, 0.07478765398263931, 0.03279824182391167, -0.09373676031827927, -0.10895916819572449, -0.03573467582464218, 0.07802899926900864, 0.016178660094738007, 0.006536740344017744, 0.026952825486660004, -0.01621473953127861, -0.03417058661580086, -0.058247439563274384, -0.00586444977670908, -0.025672314688563347, -0.04464031383395195, -0.07038319110870361, 0.07447389513254166, 0.08181861788034439, -0.00634041428565979, -0.02701735869050026, 0.04891679063439369, 0.014557430520653725, 0.030221082270145416, -0.015911033377051353, 0.08946085721254349, -0.004516699817031622, -0.05720767006278038, 0.03311353176832199, -0.05435238406062126, -0.10662131756544113, -0.011719420552253723, -0.05492403358221054, 0.02386402152478695, 0.04184798151254654, 0.09900196641683578, -0.04888360947370529, 0.11245474219322205, 0.03246345743536949, -0.026316916570067406, 0.05827534198760986, -0.036466605961322784, -0.047070279717445374, -0.0739448219537735, 0.02196461521089077, 0.022120792418718338, -0.06789769232273102, -0.0466904491186142, 0.04626709222793579, -0.0369037464261055, 0.048105109483003616, 0.059682831168174744, -0.020718766376376152, -0.016970042139291763, -0.019383108243346214, 0.06738375127315521, -0.03649923577904701, 0.11595211923122406, -0.025725284591317177, 0.005832671653479338, -0.05243780463933945, 0.017127780243754387, -0.015192759223282337, -0.06385977566242218, -0.027299823239445686, 0.01926022581756115, -0.044433895498514175, 0.06353088468313217, 0.04364723339676857, -0.05244499444961548, 0.03640780970454216, -0.011134440079331398, -0.0108813950791955, 0.010735544376075268, 0.01798241399228573, 0.03916431590914726, -0.05176065117120743, 0.07389378547668457, -0.017263680696487427, -0.009077615104615688, 0.029050691053271294, -0.05987221375107765, -0.10506609827280045, -0.03123558685183525, -0.0009957704460248351, -0.03446616604924202, -0.01071024127304554, 0.03033335693180561, 0.012454777956008911, -0.07517489790916443, 0.10340216755867004, -0.0034418441355228424, 0.03938424214720726, -0.04733676090836525, 0.004711771849542856, 0.05633481219410896, 0.04468150809407234, 0.09031891077756882, -0.029286935925483704, -0.017571503296494484, -0.03514692559838295, 0.03433500602841377, -0.05306747928261757, 0.0674593523144722, -0.036271918565034866, -0.06063476949930191, -0.054584212601184845, 0.02209465578198433, -0.040376078337430954, 0.027880612760782242, -0.021780310198664665, -0.03591092303395271, -0.04013848304748535, 0.049794431775808334, -0.008351529948413372, -0.005459708161652088, -0.02943171188235283, 0.002388740424066782, -0.015756085515022278, 0.0037869757506996393, -0.022378340363502502, -0.06731122732162476, 0.0043562124483287334, -0.01783432811498642, -0.028099488466978073, 0.07115977257490158, -0.012244343757629395, -0.04865517467260361, 0.012054674327373505, 0.024157920852303505, 0.004413015209138393, 0.007655167020857334, -0.03433854132890701, 0.012591498903930187, 0.05237988382577896, 0.007168630138039589, -0.00029545367578975856, -0.0014237662544474006, -0.008719840086996555, -0.010722024366259575, 0.0008277484448626637, 0.009052249602973461, -0.06675705313682556, -0.0015091609675437212, -6.61026646753271e-08, -7.003021806895049e-08, -4.4464047732617473e-07, -1.3995381520359729e-09, 1.2360314372017456e-07, 1.7860635637134692e-07, 8.938077833420266e-09, -3.259722802795295e-08, 5.213049902863531e-08, 4.5363304224110834e-08, -0.03001002036035061, 0.014935740269720554, 0.16647572815418243, -0.028539542108774185, 0.015578952617943287, 0.028061356395483017, -0.043062105774879456, -0.09459985792636871, -0.0059446850791573524, 0.0628347173333168, -0.13888874650001526, -0.061051130294799805, -0.03704783320426941, -0.0249162744730711, 0.010320511646568775, -0.06202354282140732, 0.03203853592276573, 0.06967198103666306, -0.002761427778750658, 0.09725368767976761, 0.028882546350359917, 0.0018008087063208222, 0.026865093037486076, 0.00010023573122452945, 0.11270755529403687, 0.042373720556497574, 0.0859374850988388, 0.05653008446097374, -0.0063735079020261765, 0.019755465909838676, -0.040596459060907364, -0.05153551697731018, -0.05711042135953903, -0.03977155685424805, 0.051140278577804565, 0.06939464062452316, -0.004829958081245422, -0.14595746994018555, 0.010974394157528877, 0.11168502271175385, -0.019127655774354935, 0.05551573261618614, -0.03316625952720642, -0.06639809161424637, 0.014019695110619068, 0.11339546740055084, 0.0653630942106247, -0.014495455659925938, -0.01741190440952778, -0.0242205411195755, 0.019264182075858116, -0.026916196569800377, -0.04552340507507324, 0.05111256241798401, 0.007391573861241341, 0.07578843086957932, 0.039325982332229614, -0.009556526318192482, -0.04476675018668175, -0.02138523943722248, -0.017110668122768402, 0.12119811028242111, -0.04159187898039818, -0.020422564819455147, -0.08021195232868195, 0.002607735339552164, 0.05076592415571213, -0.08741185814142227, -0.009147752076387405, -0.03399759903550148, -0.023054007440805435, -0.04749888554215431, -0.02054050751030445, 0.040079426020383835, -0.010166439227759838, 0.02886725589632988, 0.043575551360845566, 0.0010871875565499067, -0.015973426401615143, -0.02795511484146118, -0.021313488483428955, -0.015255293808877468, -0.040915340185165405, 0.015497551299631596, -0.09382522106170654, 0.006398738827556372, 0.026016460731625557, -0.01894877478480339, -0.009571473114192486, -0.06855818629264832, 0.014877702109515667, -0.015180816873908043, -0.0019416738068684936, 0.04273884743452072, 0.010562093928456306, -0.01292942650616169, -0.041625168174505234, -0.0022774371318519115, 0.03066420927643776, -0.05107791721820831, -0.01382078230381012, -0.016668271273374557, 0.007234370335936546, -0.011840112507343292, -0.002072491915896535, 0.0033420927356928587, 0.011402130126953125, -0.011575207114219666, -0.03291711211204529, 0.029604997485876083, -0.04555477946996689, 0.0001716789265628904, 0.007564621511846781, -0.01765478029847145, -0.004949597641825676, 0.020503191277384758, -0.02109501138329506, -0.002528692129999399, 0.0008105040178634226, 0.0008202171302400529, -0.0035083796828985214, -0.015667274594306946, -0.002139662392437458, -0.025708049535751343, -0.006503797136247158, 0.010738089680671692, -0.03854763135313988, -0.0076755075715482235, -0.005010584369301796, -0.004376627504825592, 0.00902673788368702, -0.01671430468559265, -0.009301941841840744, -0.01068609207868576, -0.002625469584017992, -0.007749055977910757, 0.002720748772844672, 0.0010645379079505801, -0.0002497157547622919, -0.0022311655338853598, 0.002619858831167221, -0.002706983359530568, -0.0017716928850859404, 0.00024865640443749726, 0.0020721834152936935, -0.004610066767781973, -0.0002763555385172367, 0.0006570030236616731, -6.325805588858202e-05, -0.001744211302138865, -0.00018581756739877164, -0.0004735543334390968, 0.0003043442848138511, -4.1717099520610645e-05, 9.087644139071926e-05, -1.5865865066189144e-07, -3.434429274307149e-08, -1.1609770922405005e-07, 2.9596742479043314e-07, -2.168771473520792e-08, -5.378871392736073e-08, -2.6872998049043417e-08, -1.095833610520458e-07, -4.0476312079817944e-08, -2.2707779123720684e-07, -0.055906932801008224, -0.013134647160768509, -0.04403436928987503, 0.022877782583236694, -0.007663479540497065, 0.06430673599243164, -0.1650579422712326, 0.08158006519079208, 0.008026214316487312, 0.05900198966264725, 0.09150105714797974, -0.08072564750909805, -0.025853460654616356, -0.11395635455846786, 0.08053811639547348, -0.1557367444038391, -0.13239534199237823, -0.03861350938677788, -0.022010663524270058, -0.0449230782687664, 0.178145170211792, -0.14049838483333588, -0.09103339165449142, -0.07207035273313522, -0.05843140557408333, 0.023860547691583633, -0.02259557880461216, 0.1579924374818802, -0.05771695822477341, -0.06921162456274033, -0.03198980912566185, -0.014235188253223896, 0.030161937698721886, -0.016338402405381203, 0.0095452219247818, -0.1215997263789177, 0.11544441431760788, 0.10942323505878448, -0.06197468563914299, 0.044491957873106, 0.019463108852505684, -0.06448306888341904, 0.016619492322206497, 0.01695157028734684, 0.0002490365004632622, 0.062161754816770554, 0.1462329924106598, -0.09517031162977219, -0.062207192182540894, -0.06814154982566833, 0.011332669295370579, 0.01417246088385582, 0.06270413845777512, -0.002186176832765341, 0.0015470327343791723, -0.04771537333726883, -0.023000573739409447, 0.031451303511857986, -0.06137516349554062, 0.024856073781847954, 0.008735239505767822, -0.01322397030889988, -0.04830878973007202, 0.01333782821893692, -0.039625443518161774, 0.04316746070981026, 0.013690522871911526, -0.031180579215288162, 0.06088791415095329, -0.03809082880616188, 0.01594862900674343, 0.018553271889686584, 0.017954813316464424, -0.016550416126847267, -0.0014227271312847733, -0.005425065290182829, 0.013878261670470238, -0.05029613524675369, -0.02956102415919304, 0.022371776401996613, 0.003222882514819503, -0.04507194459438324, 0.004664524458348751, 0.07097382098436356, -0.013757763430476189, -0.031230397522449493, 0.03642549738287926, 0.028041662648320198, -0.06768140941858292, 0.04975314438343048, -0.08372768759727478, -0.011114941909909248, -0.05705194175243378, 0.017752423882484436, -0.10383179038763046, -0.01648862101137638, 0.0350632518529892, -0.03931558504700661, -0.009469442069530487, -0.013483067974448204, -0.03632069379091263, -0.04856976494193077, 0.03392292559146881, -0.05591506510972977, -0.008837684988975525, 0.0018839819822460413, -0.029205186292529106, -0.014594736509025097, 0.028363710269331932, 0.0073592206463217735, 0.02969403751194477, -0.0691111609339714, 0.010740675963461399, 0.006344289053231478, -0.012286544777452946, 0.0020851274020969868, 0.02870837226510048, -0.013259463012218475, -0.043019846081733704, -0.06430310755968094, -0.008142132312059402, -0.022518077865242958, -0.008307860232889652, -0.014311148785054684, 0.0176231749355793, 0.07746826112270355, 0.02791391871869564, -0.01116055529564619, 0.03084372729063034, 0.003403349779546261, -0.042965009808540344, -0.007935776375234127, 0.003821451449766755, -0.013398120179772377, 0.040288977324962616, 0.01025329902768135, 0.005341502837836742, 0.026103857904672623, -0.023456448689103127, -0.020294342190027237, -0.005655993241816759, -0.008832193911075592, -0.02626236528158188, 0.041271571069955826, 0.022251764312386513, -0.032246123999357224, 0.0076592410914599895, -0.0187696386128664, 0.006358111277222633, -0.002783081727102399, 0.010492484085261822, 0.016208641231060028, -0.00010637092782417312, -0.09108737856149673, 4.456297756405547e-05, -6.452939373957634e-07, 5.377892264846196e-08, -8.668753537222074e-08, -8.312019517120461e-09, 2.5116081658893563e-08, -1.6100827338050294e-08, 8.716773081118845e-09, -2.0971070568975847e-07, -4.606325276768075e-08, 7.932272438893051e-08, -0.0025753204245120287, 0.013218755833804607, 0.08247867971658707, 0.018972143530845642, -0.04567346349358559, -0.10099055618047714, -0.005417844280600548, 0.00587786128744483, -0.05992213636636734, 0.10624358057975769, -0.01938091777265072, 0.06884010136127472, 0.04310022294521332, 0.0889938473701477, -0.04071296751499176, 0.11225175112485886, -0.012695721350610256, -0.036217398941516876, 0.1813754439353943, -0.03916708007454872, -0.06856315582990646, -0.11005979031324387, -0.11345084011554718, -0.08668796718120575, -0.1134796142578125, 0.12152314931154251, 0.043410539627075195, -0.02849682793021202, 0.038363754749298096, 0.0651804581284523, 0.07285126298666, -0.019112303853034973, -0.011522355489432812, 0.027819711714982986, -0.0075784907676279545, 0.008249384351074696, -0.03137674927711487, -0.11204718798398972, 0.003946161828935146, -0.031170807778835297, 0.04889928549528122, 0.042864326387643814, 0.0430217869579792, -0.05557679012417793, 0.03377799317240715, 0.06895128637552261, 0.028443891555070877, -0.06600888073444366, -0.034295689314603806, -0.03180214762687683, -0.01508060097694397, -0.08751454204320908, -0.003585614264011383, -0.10520495474338531, 0.017941080033779144, 0.0384194552898407, 0.13335610926151276, -0.0680541917681694, 0.08945616334676743, 0.028939370065927505, -0.07983122766017914, 0.1160179004073143, 0.08471275866031647, 0.08716735243797302, -0.03771357238292694, 0.00778488302603364, -0.021488621830940247, -0.028377557173371315, 0.0037511305417865515, 0.04083184897899628, -0.04538454860448837, -0.08268041163682938, -0.08447054028511047, 0.09218844026327133, -0.014775522984564304, -0.016882430762052536, 0.01760288141667843, -0.017233962193131447, -0.050719939172267914, -0.021414801478385925, 0.01820330321788788, 0.008483213372528553, -0.04110259935259819, -0.03362010046839714, -0.09101004898548126, -0.016802417114377022, -0.07180716842412949, 0.03871377557516098, -0.05019501596689224, 0.05208307132124901, 0.02261543646454811, -0.058994077146053314, 0.02485218085348606, 0.046320363879203796, -0.034411922097206116, 0.014229845255613327, -0.09884217381477356, 0.02193070575594902, 0.09557598829269409, 0.0018696300685405731, 0.006893077399581671, 0.09629060328006744, -0.05706014484167099, 0.10444578528404236, 0.027107270434498787, 0.01923680119216442, -0.040641989558935165, -0.014071520417928696, -0.030367117375135422, 0.0001870848354883492, 0.05164682865142822, 0.02582879178225994, -0.05239191651344299, -0.004389341454952955, -0.011158526875078678, 0.06630536168813705, 0.016172483563423157, 0.059759464114904404, -0.0021394682116806507, -0.011867543682456017, -0.012399310246109962, -0.006739082280546427, -0.04930844530463219, -0.0360625721514225, 0.07714053988456726, 0.02795378863811493, -0.08008843660354614, -0.04206957295536995, 0.005938700400292873, -0.026299335062503815, -0.011801513843238354, -0.015415004454553127, 0.0009996460285037756, -0.0066802422516047955, 0.0035516235511749983, -0.014365509152412415, -0.01477132923901081, 0.007799046579748392, -0.004510083235800266, -0.012095392681658268, 0.013244112953543663, -0.0027380234096199274, 0.0065726665779948235, -0.005206345580518246, -0.002667016349732876, -0.002003089524805546, -0.00031741251586936414, 0.0006770238396711648, -0.001413665246218443, 0.005112366285175085, 0.001384519156999886, 0.0011017374927178025, 7.862475467845798e-05, 0.056981924921274185, -0.00011340536002535373, 5.355651069294254e-07, 3.9189245626403135e-08, 2.838091859302949e-07, -4.29593768558334e-07, 4.4810889221480465e-07, 2.1172155584281427e-07, 1.246178129576947e-07, 5.2704169917205945e-08, -1.428627172117558e-08, 1.3089027106616413e-07, -0.08708075433969498, 0.0877486914396286, -0.1562696248292923, -0.05444382503628731, -0.041181426495313644, -0.09568259119987488, -0.047770049422979355, 0.013291771523654461, 0.060226570814847946, 0.1446196287870407, 0.18443641066551208, 0.0045762802474200726, 0.07430612295866013, -0.10768274962902069, 0.15793462097644806, -0.0343795083463192, -0.0885961502790451, -0.10610365867614746, -0.025117667391896248, 0.03259090334177017, -0.12793950736522675, 0.13718876242637634, 0.08454436808824539, -0.026300448924303055, -0.057700999081134796, 0.015283159911632538, 0.025591779500246048, 0.05422435328364372, 0.1146254688501358, -0.03245555981993675, 0.0012939011212438345, 0.008251448161900043, 0.0552009679377079, 0.07457040995359421, -0.09104239195585251, -0.0036454256623983383, 0.07394781708717346, -0.04041672497987747, -0.11756560206413269, 0.0305637177079916, -0.04747941344976425, -0.04424920678138733, 0.03662308305501938, 0.015774022787809372, 0.04062366485595703, 0.09383316338062286, 0.07985367625951767, 0.02220306545495987, 0.04093312844634056, -0.009433301165699959, -0.014234030619263649, -0.010165137238800526, 0.03390925005078316, 0.00542545085772872, -0.031202342361211777, 0.0637301355600357, -0.03265386447310448, 0.05573628842830658, -0.02031460776925087, 0.035572536289691925, 0.05885717645287514, 0.03289126604795456, -0.025727029889822006, 0.017530715093016624, -0.06477487832307816, 0.06688278913497925, 0.023589355871081352, -0.029529379680752754, 0.07853087782859802, -0.031517501920461655, 0.014417346566915512, -0.006619672290980816, -0.018043601885437965, 0.012210183776915073, 0.008040552958846092, -0.02754572592675686, 0.06075563654303551, 0.0014277019072324038, -0.00644189678132534, -0.03532896190881729, -0.058192238211631775, 0.025838691741228104, 0.06398773938417435, 0.03814665973186493, -0.002788916230201721, -0.022291183471679688, 0.10653816908597946, -0.04149288311600685, 0.06809590756893158, -0.0069430493749678135, -0.03098047710955143, 0.0019358759745955467, -0.014417512342333794, -0.12222710996866226, -0.029695816338062286, -0.023889806121587753, 0.13693825900554657, -0.011446695774793625, 0.006992135662585497, 0.0460611991584301, -0.0746072456240654, 0.01865687035024166, -0.07931815832853317, -0.02518780156970024, 0.06825262308120728, 0.036679670214653015, 0.024003425613045692, -0.054512932896614075, 0.025237061083316803, -0.001858749077655375, -0.002511435654014349, 0.0004356641147751361, 0.01331127155572176, 0.06083006039261818, -0.008243650197982788, 0.0834292471408844, -0.004383936058729887, -0.039908356964588165, 0.02948863059282303, 0.08211380988359451, -0.0452912263572216, 0.03618993982672691, 0.052242912352085114, -0.10923875123262405, -0.036974698305130005, 0.014778676442801952, 0.03926282003521919, 0.049617256969213486, 0.03427058830857277, -0.07160882651805878, -0.003434705315157771, 0.02791750617325306, -0.06278354674577713, 0.018180755898356438, 0.025673195719718933, 0.009866868145763874, -0.0362657755613327, 0.01573099195957184, 0.0838155448436737, 0.018964188173413277, -0.004510956350713968, 0.01426386833190918, -0.02687610499560833, -0.01089401263743639, -0.00031378003768622875, -0.040080998092889786, -0.0005285036750137806, 3.0020688427612185e-05, 0.005790578667074442, -0.002444271929562092, 0.00402225973084569, -0.00296535762026906, 0.03848067671060562, -0.011197159066796303, -0.010379116050899029, 3.01539643032811e-07, 4.2096850449979684e-08, 1.65049236500181e-08, -4.069648618099109e-09, 7.635382992532413e-09, -1.6727781826375576e-07, -9.737265216358537e-09, 2.3338886379065116e-08, 1.6961305249196812e-08, 4.3927965265311286e-08, 0.06769201904535294, 0.038829248398542404, -0.013664884492754936, -0.07239935547113419, -0.1421688348054886, -0.028674457222223282, -0.04062793403863907, 0.0969231128692627, -0.141163170337677, -0.06468947231769562, -0.08928190171718597, 0.06328641623258591, 0.07203586399555206, 0.13771943747997284, -0.07252187281847, 0.029360827058553696, -0.011540986597537994, -0.027732472866773605, 0.011965038254857063, 0.021024413406848907, -0.055793218314647675, 0.0946822240948677, -0.04944121837615967, 0.028783699497580528, -0.0336877666413784, 0.04732444882392883, 0.05628390610218048, -0.07163736969232559, 0.08016221225261688, 0.0002975348033942282, -0.13537731766700745, -0.02688051387667656, 0.07874023914337158, 0.01074195560067892, -0.014343639835715294, -0.015081132762134075, 0.05325969308614731, 0.04190349951386452, 0.06937939673662186, -0.00033360967063345015, 0.00022271483612712473, 0.058601949363946915, 0.021165531128644943, 0.07491011917591095, -0.07077386230230331, -0.07748129963874817, -0.077755868434906, 0.004559154622256756, 0.04856943339109421, 0.03718705475330353, -0.06764417141675949, -0.021765608340501785, -0.0027986213099211454, 0.023519281297922134, -0.05763115733861923, -0.017797114327549934, -0.02239854447543621, -0.000611215247772634, -0.0053224205039441586, -0.06091286614537239, 0.009158574044704437, 0.023649295791983604, -0.02097654901444912, 0.05440418794751167, -0.03667127341032028, -0.05155476927757263, 0.013963223434984684, 0.00903779361397028, 0.05764548107981682, 0.010030893608927727, 0.016092458739876747, 0.03798309341073036, -0.07101426273584366, -9.860456339083612e-05, 0.016956228762865067, 0.07937884330749512, -0.01278696209192276, 0.07015041261911392, 0.028435049578547478, 0.03893482685089111, -0.051902394741773605, 0.00788036547601223, -0.010582583956420422, -0.060661327093839645, 0.05004974827170372, 0.002113303868100047, -0.05556609481573105, 0.08060381561517715, 0.0045311725698411465, -0.021439043805003166, -0.04822078347206116, 0.014506453648209572, 0.046625759452581406, -0.0559646375477314, 0.0631856694817543, -0.007019078824669123, 0.08881502598524094, 0.05075419694185257, -0.054396793246269226, -0.0016502109356224537, -0.005551145877689123, 0.05463177710771561, -0.03477293252944946, 0.05251013860106468, -0.04093678668141365, -0.026637064293026924, 0.00011408107820898294, 0.004478826653212309, 0.006282254587858915, -0.010441446676850319, -0.0031547113321721554, -0.015922101214528084, 0.024429624900221825, -0.04319160804152489, -0.011601019650697708, -0.024999398738145828, -0.0120301004499197, -0.006505800411105156, 0.010698736645281315, -0.01990005373954773, 0.010900412686169147, 0.003000839613378048, 0.01418106909841299, 0.00794497225433588, -0.043621644377708435, 0.018271304666996002, 0.03513390198349953, 0.012243459932506084, 0.027683941647410393, -0.04089803248643875, -0.001887988648377359, -0.0455571673810482, 0.0016773324459791183, 0.0025774806272238493, -0.02573372982442379, -0.02177876979112625, 0.04423130676150322, -0.04826745763421059, 0.009839914739131927, -2.903394488384947e-06, -0.022547174245119095, -0.01249642577022314, 0.0016923188231885433, -0.018595904111862183, -0.02034684829413891, -0.004550869110971689, 0.012599221430718899, 0.0009260204969905317, -0.01743181236088276, 0.01519897859543562, 0.0006450642831623554, 0.005407806020230055, 0.0002994545502588153, -3.705367271322757e-05, 9.866766049526632e-06, -2.420922555756988e-07, 1.3487039041137905e-08, -5.691357074510961e-08, -3.694306940360548e-07, 1.3704246271117881e-07, -4.2283829770894954e-08, 3.1575353887092206e-08, 7.548845815108507e-08, 1.9809897366940277e-07, -9.112142151934677e-09, -0.018552221357822418, 0.03651893511414528, -0.04340743646025658, -0.07583315670490265, -0.05252501368522644, -0.09280085563659668, -0.10485093295574188, 0.13296298682689667, -0.0476788729429245, -0.04608086869120598, -0.012445231899619102, 0.014143155887722969, -0.017081037163734436, -0.08717621117830276, 0.12905557453632355, 0.019169021397829056, -0.058394450694322586, -0.09693285077810287, -0.09669193625450134, -0.02486252784729004, -0.025771962478756905, 0.03555718809366226, -0.00218575750477612, -0.006421464495360851, -0.12372127920389175, 0.01848958246409893, 0.1289171725511551, 0.123365119099617, 0.12207990884780884, 0.006993938237428665, -0.04164261370897293, 0.004658352583646774, -0.010423502884805202, 0.06828292459249496, -0.10184166580438614, -0.09107116609811783, 0.03124750778079033, 0.05578588321805, -0.000805015442892909, 0.011241303756833076, -0.029355419799685478, 0.07658030092716217, -0.12330310046672821, 0.02133224345743656, 0.04356057569384575, -0.010951139032840729, -0.07868732511997223, 0.10063484311103821, -0.11257544904947281, 0.08776665478944778, -0.11217068880796432, 0.08257340639829636, 0.02543015405535698, 0.004450642969459295, 0.005294027738273144, -0.06908360868692398, 0.09355977177619934, -0.00600466737523675, 0.06415099650621414, -0.034461263567209244, 0.10366896539926529, 0.013896091841161251, -0.040159787982702255, -0.05228906124830246, 0.002771978499367833, -0.09700152277946472, -5.821669765282422e-05, -0.021593883633613586, 0.025193195790052414, -0.056810732930898666, -0.015096046961843967, 0.021067112684249878, -0.14562247693538666, 0.008341862820088863, -0.015725597739219666, -0.005466802511364222, -0.00849901232868433, 0.005261702928692102, -0.10519864410161972, 0.00476620439440012, 0.016074491664767265, -0.034056469798088074, 0.01948494091629982, -0.04869576543569565, 0.02940882183611393, -0.0659741759300232, -0.06082405522465706, 0.11228101700544357, 0.10325180739164352, 0.020636864006519318, 0.025285527110099792, -0.08665492385625839, 0.0187991950660944, -0.004403207916766405, 0.011083620600402355, 0.06775494664907455, 0.03272436186671257, -0.005552380811423063, -0.024887820705771446, 0.08334600925445557, -0.03217841684818268, 0.056836552917957306, -0.02208728902041912, -0.011200673878192902, 0.0037721304688602686, -0.045428864657878876, 0.021470364183187485, -0.008063971996307373, -0.03377287834882736, 0.013536687940359116, 0.07362397760152817, 0.02876581810414791, 0.09949669241905212, 0.0014073417987674475, -0.010845055803656578, 0.02775736153125763, -0.003408521879464388, 0.02267046459019184, 0.052128203213214874, 0.018818005919456482, 0.006257297936826944, -0.04711407050490379, 0.008159775286912918, -0.04849756509065628, -0.012420155107975006, 0.08508200198411942, 0.04707319661974907, 0.03664650022983551, 0.01957942545413971, -0.060159601271152496, -0.012784433551132679, 0.03148786351084709, 0.03320486843585968, -0.0015444231685250998, -0.01760338433086872, -0.08991966396570206, 0.016835039481520653, -0.03223222866654396, 0.02414196915924549, -0.004009099677205086, -0.03237452730536461, 0.02052624709904194, 0.0036224594805389643, -0.03357788175344467, 0.0020247534848749638, -0.0066080596297979355, 0.00015694412286393344, 1.1280797480139881e-05, -0.012970230542123318, 0.015990000218153, -0.0001367408112855628, -0.0042421529069542885, 0.002166884019970894, -0.04679984226822853, 1.8965114577440545e-05, 5.696205107597052e-08, 7.526276135649823e-08, -4.0674354551129e-08, 1.13527596212748e-08, 8.458236067099278e-08, 2.1203979017059282e-08, 5.907011324524092e-09, -4.286074783976801e-08, 6.188966494846682e-08, -4.4707583413128305e-08, 0.05497990548610687, -0.06349320709705353, 0.17117808759212494, 0.053834252059459686, -0.0018722213571891189, 0.09448319673538208, 0.02221607230603695, -0.0915534496307373, 0.08197501301765442, -0.150201216340065, 0.04468473047018051, -0.015111254528164864, 0.04341106116771698, 0.07926537841558456, 0.04843803867697716, 0.04739081859588623, 0.05967283621430397, 0.07806092500686646, 0.004197343718260527, 0.011763394810259342, -0.1993073970079422, 0.04873500019311905, 0.0615500845015049, 0.048872582614421844, 0.029422929510474205, -0.009532053023576736, 0.026692308485507965, -0.0578518845140934, -0.016354596242308617, -0.002937894780188799, 0.024763932451605797, 0.0480562299489975, 0.06968578696250916, 0.013909132219851017, -0.06082983314990997, -0.05397719889879227, -0.07508774101734161, -0.0023318089079111814, 0.04156460240483284, 0.020951498299837112, -0.043271590024232864, -0.014646182768046856, 0.013411473482847214, -0.042013365775346756, -0.117625392973423, -0.05270541459321976, -0.06846606731414795, 0.007424625102430582, -0.011590860784053802, -0.034672580659389496, 0.02285073697566986, 0.004397350363433361, -0.09202202409505844, -0.07225646823644638, -0.011214970611035824, -0.07984519004821777, -0.041045233607292175, -0.008373189717531204, 0.0466935895383358, -0.040316056460142136, -0.02714596875011921, -0.04138023033738136, -0.03438230976462364, -0.03921929746866226, 0.03654831647872925, 0.009365567937493324, -0.08956597745418549, 0.04338281601667404, -0.044203020632267, -0.0025147630367428064, -0.0729936882853508, 0.012162405997514725, 0.03541455790400505, -0.0034237585496157408, -0.03484449163079262, -0.026263242587447166, -0.014386325143277645, 0.0026111099869012833, 0.003302785800769925, 0.011208096519112587, -0.0223455298691988, -0.008101660758256912, -0.056586116552352905, -0.04199672490358353, 0.02651677466928959, -0.010827751830220222, 0.023709362372756004, -0.01279668603092432, 0.03988019749522209, -0.014505917206406593, 0.07682061940431595, -0.04382798448204994, 0.016623251140117645, -0.004980354569852352, 0.09128794074058533, -0.05433761700987816, -0.007986180484294891, -0.03316609933972359, -0.02118285931646824, 0.02531115710735321, -0.012104261666536331, -0.09421548992395401, 0.02866501547396183, 0.0014345868257805705, 0.005220335442572832, -0.04513449966907501, -0.061676230281591415, 0.05092243477702141, -0.002314051380380988, 0.02222765050828457, -0.01550278626382351, 0.03084317222237587, -0.01190245896577835, 0.004891652148216963, -0.074180968105793, -0.0008899520616978407, 0.04331105947494507, 0.027215348556637764, -0.06142553687095642, -0.014953541569411755, -0.035725824534893036, -0.06373169273138046, 0.020958827808499336, 0.07359521090984344, -0.020689165219664574, -0.012977817095816135, 0.03199315443634987, 0.030474718660116196, -0.032890867441892624, 0.024142475798726082, -0.0006464686011895537, 0.0040885950438678265, -0.02876584604382515, 0.03593330457806587, 0.00036547379568219185, -0.018652627244591713, -0.0227458905428648, -0.016800623387098312, 0.022417528554797173, 0.005003599915653467, 0.013399521820247173, -0.02416311763226986, -0.0035901961382478476, 0.0006454390822909772, -0.0023811976425349712, 0.011048773303627968, 0.008764956146478653, 0.013150709681212902, -0.0010650648036971688, 0.023496920242905617, 0.0006972962873987854, -0.0004427185049280524, -0.0002423879486741498, 0.05884810909628868, -0.00015702235396020114, 5.4131614888319746e-06, 3.2752546985648223e-07, 7.554560284006584e-07, -1.1825585488622892e-07, 4.678806249103218e-07, -2.050116734153562e-07, 2.3622018829883018e-07, -3.0938032580252184e-08, 3.4574372875795234e-07, 6.009621529301512e-07, -0.003154100151732564, 0.04729263484477997, 0.12687678635120392, -0.06956713646650314, -0.06469930708408356, -0.0001639225665712729, 0.0196076687425375, -0.14818830788135529, 0.02323727309703827, -0.1475846916437149, 0.07460460811853409, -0.018905378878116608, -0.0031673996709287167, -0.15102408826351166, 0.034740786999464035, -0.024745289236307144, 0.024002010002732277, -0.02806077152490616, -0.06141999363899231, -0.0009367563761770725, -0.1034456267952919, 0.12978456914424896, 0.013559550978243351, 0.026879500597715378, 0.010324235074222088, -0.05776097998023033, 0.0458407923579216, -0.033827297389507294, 0.029646653681993484, -0.03686964511871338, -0.05622337386012077, 0.014111637137830257, -0.07918774336576462, 0.12402840703725815, -0.012330868281424046, -0.01616772823035717, -0.043341364711523056, -0.038067951798439026, 0.048844464123249054, 0.007894439622759819, 0.012073424644768238, 0.030757823958992958, -0.029237421229481697, -0.0013803503243252635, -0.012859128415584564, 0.06787162274122238, -0.06163276359438896, -0.04141610115766525, 0.0615062341094017, 0.05364004150032997, -0.018728535622358322, 0.02386552281677723, 0.03373326361179352, -0.02984318882226944, -0.04701049253344536, -0.0021801157854497433, 0.019986409693956375, 0.020052077248692513, -0.01449037529528141, 0.0134409349411726, -0.03418288007378578, -0.03883720189332962, -0.07686123251914978, -0.03297137841582298, -0.007599829230457544, 0.030507000163197517, -0.022368812933564186, 0.046576354652643204, 0.021745458245277405, 0.03113257884979248, -0.06788773089647293, -0.029745575040578842, 0.03156184405088425, 0.06412667781114578, 0.09038759022951126, 0.0005178824067115784, -0.011201949790120125, 0.014781414531171322, 0.021326305344700813, -0.0003890970256179571, -0.02500465139746666, 0.04357609152793884, -0.0364430695772171, 0.0367916077375412, 0.03137992322444916, 0.018827704712748528, -0.006148581393063068, -0.026840290054678917, -0.053693026304244995, -0.03723294287919998, -0.06360441446304321, -0.04387298971414566, -0.08153750002384186, 0.011683340184390545, -0.028929919004440308, -0.07504720240831375, -0.02757803536951542, -0.016988057643175125, 0.024515895172953606, 0.010664565488696098, 0.0022350649815052748, 0.04086219519376755, 0.030922889709472656, 0.027024919167160988, 0.009656247682869434, 0.03981652110815048, -0.036340292543172836, 0.0723840594291687, 0.0023415719624608755, -0.004054198507219553, -0.029445230960845947, 0.0020496873185038567, 0.021646888926625252, 0.019873712211847305, 0.012657184153795242, 0.011578111909329891, 0.002499892609193921, -0.007944452576339245, 0.012422386556863785, 0.030109073966741562, -0.01919669657945633, -0.004804197233170271, -0.0027088536880910397, -0.016841793432831764, -0.04146990180015564, -0.007769755553454161, -0.029685353860259056, -0.017018454149365425, 0.006257455796003342, -0.01723376102745533, 0.007738861255347729, 0.019700175151228905, 0.0041055805049836636, 0.022221289575099945, 0.00017149982159025967, 0.002927035791799426, -0.0008068591123446822, 0.0030569173395633698, 0.0007216216181404889, 0.009665570221841335, 0.0021292492747306824, 0.00376769807189703, 0.013046235777437687, 0.0010297441622242332, 0.0024395461659878492, 0.0015540719032287598, -0.0013085176469758153, 0.0006799106486141682, -0.0053987461142241955, 0.005756179336458445, -0.0010773137910291553, -0.01684841513633728, -9.158600732916966e-05, -0.00023609079653397202, -1.1225771231693216e-05, -1.4000943338032812e-07, 1.6897064369914006e-07, -4.559776130008686e-07, 1.7439407429264975e-07, -2.0093568764423253e-07, 2.8109745642268535e-08, -1.9930535444245834e-08, -1.4181671303958865e-07, 9.416089596925303e-08, -2.152436451297035e-08, -0.052031856030225754, 0.004794733598828316, 0.10385213792324066, -0.0035703948233276606, -0.12268000841140747, -0.087553970515728, -0.15362071990966797, -0.03899994492530823, -0.05487465858459473, 0.002825334435328841, -0.12571366131305695, 0.0741441622376442, -0.019646568223834038, 0.022083673626184464, -0.041170936077833176, -0.003996994812041521, -0.038280829787254333, -0.16232885420322418, -0.016154175624251366, 0.011904078535735607, -0.030438555404543877, -0.0704125463962555, -0.04150339588522911, 0.03493521362543106, -0.014705592766404152, 0.060755547136068344, 0.0196387842297554, 0.10789427906274796, 0.07362139970064163, 0.04994678869843483, -0.054645273834466934, -0.15311895310878754, -0.07540705054998398, -0.05351290479302406, 0.06452560424804688, 0.03767227381467819, 0.12214863300323486, -0.04189789295196533, 0.04145984351634979, 0.05269641801714897, 0.07874669134616852, 0.13395211100578308, 0.1372072398662567, -0.006314079277217388, -0.022842232137918472, 0.1497940570116043, 0.04019215330481529, 0.016398239880800247, 0.017123492434620857, 0.01098539400845766, -0.01016684714704752, -0.06149270012974739, -0.05978847295045853, -0.08547090739011765, 0.04131222516298294, 0.12986688315868378, 0.041237104684114456, -0.05131432041525841, 0.003349322360008955, 0.01647072471678257, 0.029731424525380135, 0.10900602489709854, 0.029946064576506615, 0.040172286331653595, -0.03091750293970108, 0.07789462059736252, 0.025858623906970024, -0.015649208799004555, 0.05872721970081329, -0.03113803081214428, 0.04271947219967842, -0.01061964500695467, -0.10448271781206131, 0.05893722549080849, -0.05799200013279915, -0.022553380578756332, 0.11517549306154251, 0.07757504284381866, 0.049210190773010254, -0.02001098170876503, 0.027522273361682892, -0.10188211500644684, -0.02034098096191883, 0.02669740840792656, -0.07693415135145187, 0.05681585893034935, 0.018780779093503952, 0.1095210462808609, -0.055815525352954865, -0.013820195570588112, 0.030445873737335205, -0.01683228835463524, 0.011707434430718422, 0.0519462488591671, -0.017975350841879845, 0.005922431126236916, 0.03543582931160927, 0.09543424844741821, 0.06161750108003616, -0.08148832619190216, -0.08205864578485489, 0.009413335472345352, -0.0075246174819767475, 0.10802987217903137, -0.034674499183893204, 0.019331684336066246, 0.05646916478872299, -0.0356665775179863, -0.021172894164919853, 0.014706015586853027, -0.022944435477256775, 0.007087223697453737, -0.10521624237298965, -0.0006204514065757394, 0.05906553938984871, 0.01599998213350773, -0.013180459849536419, 0.01814173348248005, 0.03301533684134483, -0.026534972712397575, 0.014879729598760605, 0.0037664284463971853, 0.01099148765206337, -0.02742217294871807, 0.007950874045491219, 0.007525803055614233, -0.01601894572377205, -0.0138634592294693, 0.05430935323238373, -0.06607119739055634, 0.022381916642189026, -0.010855060070753098, 0.0028176703490316868, -0.02357230894267559, 0.009836062788963318, -0.030805684626102448, -0.014024860225617886, 0.0035796265583485365, 0.022681808099150658, 0.019420264288783073, 0.003491330426186323, 0.005542032886296511, 0.0019137744093313813, -0.01271000038832426, 0.00019469815015327185, -0.0005877005169168115, 0.016191033646464348, -0.0015591655392199755, -0.005578677169978619, -0.0019889934919774532, 0.00034564558882266283, 0.0005324124358594418, 0.0006243896204978228, 2.7108188078273088e-05, 0.00016039428010117263, 7.19093918633007e-07, 1.8105751564689854e-07, 1.900896222650772e-07, 1.8398918655293528e-07, -8.655334227114508e-08, 6.546815711772069e-08, -3.1525093646678215e-09, -9.620158891721076e-09, -4.082845705966065e-08, -1.4223034838778403e-07, -0.09445535391569138, 0.09676126390695572, -0.007016346324235201, 0.016537893563508987, -0.12381637841463089, 0.09544992446899414, 0.11671735346317291, 0.018986055627465248, -0.024869099259376526, 0.12381795793771744, 0.046404168009757996, 0.0560467503964901, 0.02796626091003418, 0.0812462642788887, -0.05767272040247917, -0.05115824192762375, 0.08333279192447662, 0.15050069987773895, 0.023399358615279198, 0.06282288581132889, -0.058996621519327164, 0.06871653348207474, -0.05601373687386513, -0.04643908515572548, 0.11316753923892975, 0.06251505017280579, -0.10544823110103607, -0.09790278971195221, 0.014956267550587654, 0.14502432942390442, -0.04206680878996849, -0.03526966646313667, -0.0816347748041153, 0.04572122171521187, 0.016369514167308807, 0.05308115854859352, 0.1084069237112999, -0.019561687484383583, -0.04567604511976242, 0.018394624814391136, 0.10102100670337677, 0.028258085250854492, 0.033461932092905045, 0.002660769270732999, 0.15366694331169128, 0.08550947159528732, 0.038564011454582214, -0.03297584876418114, 0.137522891163826, -0.006284921895712614, -0.06824475526809692, -0.0384824238717556, -0.015901507809758186, -0.056798145174980164, -0.04355044290423393, 0.04778723046183586, -0.01890174113214016, -0.03531239554286003, -0.07898319512605667, 0.06137973815202713, -0.06734113395214081, 0.09007126092910767, 0.04705682024359703, -0.02851947583258152, 0.05800853297114372, 0.03938967362046242, 0.05510350316762924, 0.006677453871816397, 0.08503532409667969, -0.004701605997979641, 0.06465710699558258, -0.10578736662864685, -0.05782061070203781, 0.11065716296434402, -0.02651577815413475, -0.04280421882867813, 0.14268164336681366, 0.0023618261329829693, 0.11376906931400299, 0.06735331565141678, 0.04394945502281189, -0.022376636043190956, -0.030567694455385208, -0.026322683319449425, -0.02021484076976776, 0.05666525661945343, 0.003571480279788375, 0.04091554880142212, -0.10069674253463745, -0.016290191560983658, 0.01720026694238186, -0.07529398053884506, -0.017843257635831833, -0.03527441248297691, 0.018769090995192528, -0.09019051492214203, -0.07139331102371216, 0.1229245513677597, 0.07491879165172577, -0.07490676641464233, 0.005097412038594484, 0.02648385986685753, -0.059830550104379654, 0.01171435508877039, -0.04701685905456543, -0.1079801619052887, 0.055222101509571075, -0.00997375138103962, 0.06341444700956345, 0.04262227937579155, -0.01246583927422762, -0.07567780464887619, 0.021852582693099976, -0.10445486754179001, 0.11893640458583832, -0.05199640616774559, -0.0077756536193192005, -0.029800157994031906, 0.004025546368211508, 0.0005867077852599323, 0.11986332386732101, 0.054505061358213425, -0.007973951287567616, 0.06006636098027229, 0.10883457213640213, -0.03551482409238815, -0.09781298041343689, -0.0430263914167881, 0.0061645773239433765, 0.04336169362068176, 0.029292311519384384, -0.03593267500400543, -0.03693920001387596, 0.06592559069395065, -0.013007747940719128, -0.03588750958442688, 0.037718888372182846, 0.01063385047018528, -0.060864485800266266, 0.036035485565662384, 0.003912078682333231, 0.0035363747738301754, 0.030462248250842094, -0.014625117182731628, 0.008024132810533047, 0.07944412529468536, 0.018568113446235657, 3.73162874893751e-05, 0.008240655064582825, -0.0011066282168030739, -0.00868908129632473, 0.0004493792075663805, 0.00017119068070314825, 0.0002895778161473572, 0.0001353102852590382, 7.505498729187821e-07, -3.798356118522861e-08, 2.356395896185859e-07, -2.031635304433621e-08, -5.936643532322705e-08, 2.2550818812305806e-07, 1.886049361132791e-08, 3.986503571695721e-08, 2.1301834962628163e-08, -1.105310776239321e-08, -0.024753600358963013, -0.035337381064891815, 0.1604815125465393, -0.005447122734040022, -0.009111976251006126, 0.016300896182656288, 0.11436228454113007, -0.08677272498607635, 0.006398591212928295, 0.03202520310878754, -0.021412502974271774, 0.009851248003542423, 0.008876855485141277, -0.06485138833522797, -0.051987092941999435, -0.10553932934999466, 0.04787740483880043, 0.07843278348445892, -0.1272723525762558, 0.02011501044034958, -0.15690672397613525, 0.049553703516721725, -0.028475360944867134, 0.10766623169183731, 0.01694299653172493, 0.06875304132699966, 0.06564071774482727, -0.01857883483171463, 0.03528786450624466, 0.12608763575553894, 0.06325756013393402, -0.020765360444784164, -0.11113016307353973, 0.08742597699165344, 0.12295135110616684, 0.11207340657711029, -0.08034750819206238, 0.018086213618516922, 0.02947596088051796, 0.04084097966551781, 0.10060179978609085, 0.009375483728945255, -0.02951480820775032, -0.011582320556044579, 0.007667351979762316, 0.08566945791244507, 0.040156204253435135, -0.006405421532690525, 0.009745531715452671, -0.005831616465002298, 0.06549252569675446, -0.09776116162538528, 0.055497102439403534, 0.0100517887622118, -0.028942011296749115, 0.055185362696647644, -0.009534809738397598, 0.04172450676560402, -0.03004860319197178, 0.047441087663173676, 0.01794852875173092, 0.053284529596567154, 0.060664933174848557, 0.016353506594896317, -0.07682517915964127, 0.03129354119300842, 0.007409835234284401, 0.007556471042335033, 0.013436831533908844, 0.02621319331228733, -0.06399383395910263, -0.0025907710660248995, -0.0893179252743721, 0.0491982102394104, -0.023854108527302742, 0.0188694279640913, 0.014425023458898067, 0.022212808951735497, 0.05983639135956764, 0.03844751790165901, 0.05163663625717163, -0.032043781131505966, 0.003688352880999446, -0.009725774638354778, -0.09326111525297165, 0.10100764036178589, -0.00646246736869216, 0.01886921189725399, 0.011707018129527569, -0.03508632257580757, 0.03545309230685234, 0.02344079501926899, -0.0007157601648941636, 0.021380389109253883, -0.04230240732431412, -0.014972646720707417, 0.0063859340734779835, 0.01442401111125946, 0.06114378944039345, 0.007433799561113119, -0.06707634776830673, 0.034630730748176575, -0.0817781537771225, 0.10372748225927353, -0.06373012810945511, 0.01237570308148861, 0.015600680373609066, -0.008004149422049522, -0.023749811574816704, 0.01728450134396553, -0.005566327832639217, 0.022502020001411438, -0.03912164270877838, 0.007405821233987808, 0.11429281532764435, 0.01033153384923935, 0.020118018612265587, -0.032649993896484375, 0.026277238503098488, 0.003330523381009698, 0.008481529541313648, 0.01276484690606594, -0.03329528123140335, -0.027844158932566643, -0.009480379521846771, 0.0062096300534904, -0.013711248524487019, -0.008419346995651722, 0.0004816248547285795, -0.006066175177693367, 0.05704434961080551, 0.016021184623241425, 0.0005425011040642858, -0.027205821126699448, -0.0024651074782013893, 0.035118844360113144, 0.018481144681572914, 0.02702927403151989, -0.003909931052476168, 0.009660878218710423, 0.0215727761387825, 0.003605926176533103, 0.01254194974899292, -0.006586882751435041, 0.0028456547297537327, 0.014172388240695, 0.002211551647633314, 0.000784663250669837, -0.005647966172546148, 0.004561906680464745, 0.0003924941411241889, -0.00826399028301239, -0.00010811144602485001, 0.004826104734092951, -2.8065447622793727e-05, 1.0300311714672716e-06, 9.184078919588501e-08, -8.361075742868707e-08, 3.204821723556961e-07, 7.862703377270464e-09, 7.996356288231254e-08, -1.842830421594499e-08, 8.594092548719345e-08, 4.331266723056615e-08, -8.18381238332222e-08, 0.04582962021231651, 0.0038910037837922573, -0.028492992743849754, 0.04965545982122421, 0.10870249569416046, -0.14760330319404602, 0.04888179898262024, 0.0007701328140683472, 0.07054612785577774, -0.015270004980266094, 0.15524744987487793, 0.09375333786010742, -0.03503107279539108, 0.00037288747262209654, -0.1545880287885666, 0.008192515932023525, 0.05311606451869011, -0.1045098677277565, 0.05518529564142227, -0.10390596091747284, -0.041484005749225616, -0.04925569146871567, 0.018358217552304268, 0.12700305879116058, -0.06937609612941742, 0.02701503410935402, 0.07336358726024628, -0.0964307188987732, 0.02803419902920723, 0.048839036375284195, -0.018473852425813675, 0.008272353559732437, -0.013775857165455818, 0.061517972499132156, 0.024876980111002922, -0.03212837874889374, -0.09574341028928757, 0.08312393724918365, 0.04029680788516998, -0.04274367913603783, -0.04647408425807953, -0.015520825982093811, -0.016592804342508316, -0.004127519205212593, 0.04889782518148422, 0.04927797615528107, 0.0009906806517392397, -0.03840653598308563, 0.04949161037802696, -0.021613841876387596, -0.034326717257499695, -0.06870264559984207, 0.015592887997627258, 0.0813906267285347, 0.026163190603256226, -0.03484426438808441, 0.007405452895909548, -0.023509163409471512, -0.019165709614753723, 0.08951665461063385, 0.022368095815181732, 0.007459321524947882, 0.038476135581731796, -0.00010966006084345281, -0.06430287659168243, 0.031902626156806946, -0.02148989401757717, -0.07618729770183563, 0.007243565749377012, -0.0400511734187603, -0.07192572951316833, 0.006696519907563925, 0.02443241886794567, -0.01179593987762928, 0.006440001539885998, 0.037004757672548294, 0.048677120357751846, 0.019911792129278183, 0.031375885009765625, -0.0038650992792099714, -0.011453677900135517, 0.0387563481926918, -0.03772355988621712, 0.00841480027884245, -0.029725326225161552, -0.013934867456555367, -0.0022131046280264854, -0.014427239075303078, 0.02676665410399437, -0.013036546297371387, 0.009125283919274807, 0.036533087491989136, -0.008882282301783562, -0.01449128519743681, 0.02203967608511448, 0.046910498291254044, 0.03678431361913681, 0.021785534918308258, 0.008054151199758053, 0.027508782222867012, -0.0016489488771185279, -0.014958241954445839, -0.029263002797961235, -0.012434851378202438, 0.008803806267678738, -0.014538395218551159, 0.07261618226766586, -0.02474823407828808, 0.0152205191552639, -0.018467657268047333, 0.008873732760548592, 0.0386967658996582, -0.011860168538987637, -0.0019583741668611765, 0.01180248148739338, 0.02890712395310402, -0.004052780102938414, 0.0013554389588534832, 0.004700057208538055, 0.002869116375222802, 0.01710956171154976, 0.02985985390841961, -0.0036256248131394386, 0.008954369463026524, 0.03168796747922897, 0.009869168512523174, 0.0022183735854923725, 0.004818157758563757, -0.01785024255514145, 0.0013562788954004645, -0.009408863261342049, 0.008952277712523937, -0.009036100469529629, -0.013017550110816956, -0.01703720912337303, -0.007902861572802067, 0.001390382880344987, 0.008947750553488731, 0.005764876026660204, -0.0006437422707676888, 0.001255045528523624, -0.001876455033197999, -0.0021415804512798786, -0.0008075037621892989, -0.0016387234209105372, 0.0024950120132416487, 0.0022720322012901306, -0.002796958200633526, -0.0024255167227238417, -0.0021888043265789747, -0.0014229301596060395, 0.00041607226012274623, 2.553359081503004e-05, 1.0344583643018268e-06, -1.994539525185246e-05, -2.9732075290667126e-06, -1.887343614725978e-10, -3.22893697557447e-07, -3.965377857184649e-07, -1.66971432236096e-07, -3.9743518698287517e-08, -6.286487064244284e-08, 4.743376180726955e-08, 6.547747233298651e-08, -1.0339525715608033e-06, 0.023716384544968605, 0.008171966299414635, -0.014370922930538654, 0.100199393928051, -0.07125578075647354, 0.012429687194526196, -0.030203083530068398, -0.06473236531019211, 0.04654427617788315, -0.1061658039689064, -0.005375642795115709, -0.0934976190328598, -0.03498895466327667, -0.08249089121818542, -0.001353302737697959, -0.03240947052836418, 0.10586331784725189, 0.10973227769136429, -0.04320858046412468, -0.025090131908655167, 0.0946044996380806, 0.13596490025520325, -0.03983861207962036, -0.09944913536310196, 0.1690925806760788, -0.11886032670736313, -0.005352111998945475, 0.01969998888671398, 0.006369987037032843, -0.07468666136264801, -0.04125122353434563, 0.06670892983675003, 0.03433224558830261, -0.0010824078926816583, 0.10194884240627289, 0.001730284420773387, 0.07643725723028183, 0.10575973242521286, -0.07820639759302139, 0.02664208598434925, -0.007317949552088976, -0.11718099564313889, 0.035240352153778076, 0.049980804324150085, -0.050831928849220276, 0.01203987654298544, -0.0364115871489048, -0.03203738108277321, -0.0003717114741448313, 0.04876905679702759, 0.13969191908836365, 0.11162246018648148, 0.01584530621767044, 0.0514969602227211, -0.07894780486822128, -0.08201468735933304, -0.037719521671533585, -0.026305733248591423, -0.031716808676719666, 0.015872972086071968, -0.06959600746631622, 0.012991064228117466, -0.08297372609376907, -0.07911840826272964, 0.07489804923534393, 0.049774978309869766, 0.12164568156003952, 0.03613122180104256, 0.06487292051315308, 0.11362671852111816, -0.011304686777293682, -0.021503565832972527, 0.11106076091527939, 0.06494735926389694, 0.03111979179084301, -0.03672202676534653, 0.030088581144809723, 0.00457676500082016, 0.07878001779317856, 0.013960734009742737, -0.00268242578022182, 0.03212621808052063, -0.031082231551408768, 0.024447789415717125, 0.032699938863515854, 0.07846245169639587, 0.026225745677947998, 0.009880304336547852, -0.027059990912675858, -0.0056191543117165565, -0.11039964109659195, -0.021231036633253098, -0.03201602026820183, -0.0097325649112463, 0.12338487058877945, -0.0195637010037899, -0.1091952919960022, -0.005573043134063482, -0.0027738839853554964, 0.06259351968765259, 0.021492095664143562, -0.0754922553896904, -0.025698885321617126, 0.025107698515057564, -0.0030919068958610296, -0.10271938890218735, -0.03303663805127144, 0.04808858409523964, 0.02907695807516575, -0.034621890634298325, -0.14119648933410645, -0.09739158302545547, 0.07229083776473999, -0.05766966566443443, 0.01857263594865799, -0.041484534740448, -0.08933128416538239, -0.011705176904797554, 0.015185924246907234, 0.00206167995929718, 0.03038671985268593, 0.00762640405446291, -0.03309764713048935, -0.0020504568237811327, 0.056543126702308655, 0.007141862064599991, 0.003803109982982278, -0.051139600574970245, 0.008466999977827072, 0.029322026297450066, -0.018612448126077652, 0.03688792139291763, 0.052266087383031845, 0.004968954715877771, -0.03457479178905487, 0.01368999108672142, 0.017849678173661232, -0.012078492902219296, -0.032672300934791565, 0.013757742010056973, -0.0017731731059029698, -0.0015840718988329172, 0.023440608754754066, 0.0004318243300076574, -0.0010665010195225477, 0.0030843073036521673, 0.002148096449673176, -0.0010634211357682943, -0.0015622442588210106, -0.009243670850992203, -0.0028989657294005156, -0.0019194482592865825, -0.0002269404212711379, -8.701787737663835e-05, -0.00011684520723065361, 1.217844442180649e-06, 1.0038404241186072e-07, -2.769569107385905e-07, 3.554117000703627e-09, 1.6149964210399048e-07, -3.9356535808110493e-07, 4.5599364284498733e-08, 6.2761074559603e-08, 6.154014187131907e-08, 2.0165700220786675e-08, 0.04309616610407829, -0.016911527141928673, 0.04057987406849861, -0.019274689257144928, 0.029254555702209473, 0.14489349722862244, 0.07991120219230652, -0.024166444316506386, -0.020109053701162338, -0.09983251243829727, 0.16319140791893005, 0.09611590951681137, -0.04760989546775818, -0.01037502009421587, 0.04836903512477875, 0.053150832653045654, 0.019650785252451897, 0.0057249534875154495, 0.07421530038118362, -0.03342784568667412, 0.09644334018230438, 0.09838438034057617, -0.04651661962270737, 0.0825914666056633, -0.06260320544242859, -0.01089866366237402, -0.030458716675639153, 0.01749948412179947, -0.12373244017362595, -0.0508606880903244, 0.1199745461344719, 0.038671404123306274, 0.01057460717856884, -0.041554760187864304, 0.0013045669766142964, 0.03516116738319397, -0.01119621004909277, 0.05327405035495758, 0.10278323292732239, -0.03564375266432762, -0.009961435571312904, 0.035001013427972794, 0.040121883153915405, 0.02598254196345806, -0.03609266132116318, -0.0647626519203186, -0.07717485725879669, 0.06726213544607162, -0.028746917843818665, 0.04615556821227074, 0.003142401808872819, 0.06505469977855682, -0.0987619087100029, 0.0014223734615370631, 0.07672909647226334, -0.036994874477386475, 0.005589354317635298, 0.05039622634649277, 0.09329274296760559, -0.04245906323194504, 0.01601661555469036, -0.02617073431611061, -0.0781911313533783, -0.06952936947345734, 0.03224894404411316, -0.08629589527845383, -0.039703868329524994, 0.017389794811606407, -0.07650821655988693, -0.05322377011179924, 0.030023625120520592, 0.09713777154684067, 0.10333001613616943, -0.03220105171203613, -0.0051993029192090034, 0.008093752898275852, -0.07197248935699463, -0.00927543081343174, 0.03766074776649475, -0.02807334065437317, -0.05778050050139427, 0.010814076289534569, 0.026327548548579216, -0.009406745433807373, 0.0638711228966713, -0.05040542036294937, 0.0012675435282289982, 0.0238266009837389, -0.009106026962399483, 0.058107636868953705, -0.03412305563688278, 0.06440473347902298, 0.04512837156653404, 0.05943109095096588, 0.03121611662209034, 0.005305856466293335, 0.029239589348435402, -0.03062099777162075, -0.07484535872936249, 0.08062474429607391, 0.06114521622657776, -0.012407816015183926, 0.0063627418130636215, 0.00932361464947462, 0.011683650314807892, 0.01190873607993126, -0.06259679794311523, 0.016949959099292755, -0.019746728241443634, 0.010504946112632751, 0.03695113584399223, -0.010173042304813862, -0.003914547152817249, 0.03664049878716469, 0.01103409007191658, -0.05105918273329735, 0.011937056668102741, 0.011979867704212666, -0.0019108940614387393, -0.005722853355109692, 0.002153098350390792, 0.010451072826981544, 0.026959264650940895, -0.018833648413419724, 0.0003129081742372364, -0.0005067395395599306, 0.007341259624809027, 0.03409862518310547, -0.006286646239459515, 0.05984431505203247, 0.007348209619522095, 0.000764965545386076, -0.0033057192340493202, 0.049079667776823044, 0.004258937202394009, 0.01946953870356083, -0.024171452969312668, -0.0010559448273852468, 0.01348706241697073, -0.0015612123534083366, -0.01649501360952854, -0.003296551527455449, -0.006000264547765255, 0.017287278547883034, -0.0016422064509242773, 0.0006750669563189149, -0.0002466496080160141, -1.5187644748948514e-05, 0.0008834080654196441, 0.0018288078717887402, 0.0005262676859274507, 5.246252112556249e-05, -0.00011058905511163175, -0.00015967983927112073, 2.0563782527460717e-05, 1.4252628943722812e-07, -1.32279438957994e-07, 5.032229637436103e-07, 3.6703852401842596e-08, -1.00146962722647e-07, -1.9929692030018487e-07, 1.9798431338813316e-08, -1.0086290025412836e-08, -8.585536193095322e-08, 9.392212518832821e-08, 0.11534813046455383, 0.025742802768945694, -0.11086400598287582, 0.001313871005550027, -0.12831392884254456, 0.0020006615668535233, -0.018186097964644432, -0.050714533776044846, -0.15144695341587067, 0.005437140353024006, -0.010911481454968452, 0.06745395064353943, -0.014333687722682953, 0.0039483471773564816, 0.0005906497244723141, -0.10130396485328674, 0.042251743376255035, -0.04971780255436897, 0.015995807945728302, 0.008229081518948078, -0.029453160241246223, 0.11478248238563538, 0.10780060291290283, 0.04638448730111122, 0.05975797772407532, -0.04575098305940628, -0.16198280453681946, 0.09816126525402069, -0.008085823617875576, 0.07807673513889313, 0.012862498871982098, -0.05621746554970741, 0.011234902776777744, -0.07598510384559631, -0.07701054215431213, 0.06290103495121002, 0.0917217954993248, 0.04525335505604744, -0.020623931661248207, -0.03610813617706299, 0.007641300559043884, 0.10176774114370346, -0.032120849937200546, -0.018229054287075996, -0.009448627941310406, 0.001645708573050797, -0.0850442498922348, 0.019342893734574318, -0.04094003513455391, -0.008379802107810974, 0.003136279759928584, -0.035118333995342255, -0.008166874758899212, -0.00812038965523243, -0.00999085046350956, -0.018696647137403488, 0.04276426136493683, 0.024033518508076668, 0.0016172522446140647, -0.019186068326234818, 0.060146961361169815, 0.11494380235671997, -0.01379407662898302, 0.023289863020181656, 0.02004258520901203, -0.02475581131875515, 0.052898261696100235, -0.030588049441576004, -0.028198866173624992, -0.009016833268105984, 0.0723821148276329, -0.0046942695043981075, -0.013462260365486145, -0.026616815477609634, 0.08249311149120331, -0.0036545447073876858, -0.003709494834765792, -0.021223656833171844, 0.005282350815832615, -0.008193722926080227, 0.03899059444665909, 0.060996003448963165, -0.0040726494044065475, -0.021976955235004425, -0.017470713704824448, -0.012175933457911015, -0.019517356529831886, -0.06510403007268906, -0.00401449715718627, -0.02792525663971901, 0.00011407811689423397, -0.004107178188860416, -0.03748750314116478, 0.011800844222307205, 0.021160215139389038, -0.02036670595407486, -0.001799187739379704, -0.01798865757882595, 0.001843936275690794, -0.012971494346857071, -0.011885534971952438, -0.04634951800107956, -0.0019754869863390923, -0.006768941879272461, -0.025827990844845772, -0.008316919207572937, -0.04586894437670708, -0.013332346454262733, 0.007596410810947418, 0.010721372440457344, -0.008340186439454556, 0.005705965682864189, -0.0085417740046978, 0.012195546180009842, 0.0066124629229307175, -0.015828732401132584, -0.01763221062719822, -0.0022771621588617563, -0.00043857787386514246, -0.023712394759058952, -0.01735765114426613, 0.010134739801287651, 0.03245961293578148, -0.0513409860432148, 0.0005871444591321051, 0.0006798687390983105, -0.004334264900535345, 0.0012894972460344434, 0.0015368621097877622, 0.004160256125032902, -2.3251090169651434e-05, 0.0022746403701603413, -0.0009285637643188238, 0.006371054332703352, -0.004447093699127436, 0.0003636409528553486, -0.002792240586131811, -0.0007641182164661586, 0.0030054941307753325, -0.00931895337998867, -0.002976904856041074, -0.0010421526385471225, -0.0005096847889944911, -0.0022838811855763197, 0.002708948217332363, -0.00019193744810763747, 0.0008765466045588255, -0.0015242553781718016, -0.0028986898250877857, -0.0022724298760294914, 0.000338206795277074, 0.00015643062943127006, 0.00018894470122177154, 0.00042505620513111353, 9.316509385826066e-05, 2.7614720465862774e-07, 3.4147589644817344e-08, -5.674451131199021e-07, 1.1850231373955467e-07, -1.3071229432171094e-08, -1.3138151189195924e-07, -3.2468914668015714e-08, -1.396052198288089e-07, -3.856585095718401e-08, 2.3139739369071322e-07, 0.00723230792209506, 0.12131668627262115, -0.026328658685088158, 0.059996455907821655, -0.06437482684850693, 0.031464677304029465, -0.0449623242020607, -0.07779265940189362, -0.11932329088449478, -0.03245436027646065, -0.013812044635415077, 0.010101457126438618, 0.06300783157348633, 0.14362971484661102, -0.010617511346936226, 0.03228886052966118, 0.027541199699044228, 0.14975355565547943, 0.08036068826913834, 0.03827419877052307, 0.047730542719364166, -0.082618847489357, 0.07252972573041916, -0.10123636573553085, -0.015747688710689545, 0.06527642905712128, 0.10867393761873245, -0.06763976812362671, -0.02951490506529808, 0.03863517567515373, -0.0065026599913835526, 0.10992339998483658, -0.00803312472999096, 0.053891655057668686, 0.012941433116793633, 0.06462858617305756, 0.024446971714496613, 0.009282614104449749, 0.0696263313293457, 0.11452407389879227, 0.06429526954889297, 0.10792076587677002, 0.11691948771476746, 0.04093063622713089, 0.032212674617767334, 0.07257287204265594, 0.06850683689117432, 0.015102889388799667, 0.034856390208005905, -0.048228804022073746, 0.020663969218730927, -0.09100031852722168, 0.07888855040073395, -0.010716515593230724, -0.049310315400362015, 0.033528074622154236, 0.05739813670516014, -0.05938258394598961, -0.03456415608525276, -0.021052878350019455, -0.04872537776827812, -0.02504659630358219, -0.060233913362026215, -0.05054319649934769, -0.11772829294204712, 0.05499517545104027, -0.059269439429044724, -0.06946245580911636, 0.04429618641734123, 0.031822074204683304, -0.023830361664295197, -0.1123218759894371, -0.051423944532871246, -0.0013643335551023483, -0.07438044250011444, -0.010635929182171822, 0.0655849426984787, -0.021385159343481064, 0.025876177474856377, -0.10695233196020126, -0.0263429693877697, -0.05406317114830017, -0.05077856779098511, -0.018327930942177773, -0.018568577244877815, -0.09147529304027557, -0.09126397967338562, 0.0825519934296608, 0.07620369642972946, -0.0037348796613514423, 0.00126756657846272, -0.045601531863212585, 0.07050838321447372, -0.13362544775009155, 0.01670415885746479, -0.02845892123878002, 0.015243789181113243, 0.07428672909736633, -0.017054280266165733, -0.035538554191589355, -0.04042919725179672, -0.0019206124125048518, -0.05713453143835068, 0.032575901597738266, -0.0661526471376419, 0.011937662027776241, 0.004481212701648474, -0.015516730956733227, -0.03195147588849068, -0.0018139589810743928, -0.06512884050607681, -0.054163917899131775, -0.011845067143440247, -0.027843346819281578, 0.06674331426620483, 0.001465765293687582, -0.08081968128681183, 0.027837026864290237, 0.05980539694428444, -0.00843483954668045, -0.004218934569507837, 0.016371823847293854, 0.0026354033034294844, -0.04862740635871887, 0.023155488073825836, 0.06133262440562248, -0.07937117666006088, 0.008592040278017521, 0.013422493822872639, 0.020505888387560844, 0.02618514560163021, -0.01471409760415554, -0.02703416347503662, -0.026696940883994102, -0.0456809401512146, 0.016635196283459663, 0.05840263515710831, -0.008761060424149036, -0.001983208814635873, 0.010933703742921352, -0.009672409854829311, -0.015453106723725796, -0.006225117947906256, -0.0570768266916275, 0.0017594762612134218, 0.0023751191329210997, 0.0005855889176018536, 0.0009846404427662492, -0.02383662946522236, 0.03916868939995766, -0.018868915736675262, 0.018033422529697418, 0.008993372321128845, -5.370850703911856e-05, -0.0002478280512150377, -1.1571382856345735e-06, 3.690518113330654e-08, 1.168742898016717e-07, -1.9937553830118304e-08, 2.1025287821885286e-07, 1.779169167548389e-08, 5.99290729041968e-07, 4.5202895648799313e-07, 3.899288358866215e-08, -3.605922671567896e-08, 0.04070807993412018, 0.06096960976719856, -0.09675738960504532, 0.026813067495822906, -0.11218350380659103, -0.1378810852766037, -0.05912226438522339, 0.04938006401062012, -0.01995961181819439, 0.06308036297559738, 0.08790440112352371, 0.06287828832864761, 0.17267121374607086, -0.05051940307021141, 0.027599666267633438, 0.036989856511354446, -0.028565481305122375, -0.14416943490505219, -0.07366877794265747, 0.00893261656165123, 0.1305357962846756, -0.05350404232740402, -0.09553270041942596, 0.08725675940513611, -0.14736361801624298, -0.015449012629687786, 0.013099669478833675, -0.016650138422846794, -0.03866410627961159, -0.027676193043589592, -0.05689126253128052, -0.043485499918460846, -0.059252314269542694, -0.06315524876117706, -0.0009404680458828807, -0.085586778819561, -0.020465092733502388, 0.11914703249931335, -0.012827836908400059, -0.11685525625944138, -0.02531074360013008, -0.008688210509717464, 0.010945329442620277, -0.07217133790254593, 0.008636866696178913, 0.0041092270985245705, -0.00031867236248217523, -0.060801684856414795, 0.04636038467288017, -0.0642000362277031, -0.04800257831811905, 0.04076813906431198, 0.009201527573168278, -0.0020813781302422285, -0.013261097483336926, 0.045363493263721466, -0.010149914771318436, 0.013571367599070072, -0.045990634709596634, 0.008435779251158237, 0.014790558256208897, 0.04086717963218689, 0.018639085814356804, -0.058570388704538345, -0.023861171677708626, -0.02110883593559265, 0.015932613983750343, -0.04607909545302391, 0.015885671600699425, 0.05664712190628052, 0.0353458970785141, -0.003407829673960805, 0.0017512573394924402, -0.0014096584636718035, -0.014177110977470875, 0.04357907921075821, -0.02518218196928501, -0.03161672502756119, 0.054902996867895126, 0.03214283287525177, -0.004571682307869196, 0.07922344654798508, -0.010618118569254875, 0.039367228746414185, 0.029597697779536247, -0.031302276998758316, 0.017484785988926888, -0.0176609605550766, 0.0044439067132771015, 0.0012625772505998611, -0.03401908650994301, 0.07891276478767395, -0.05132167786359787, 0.0470954068005085, -0.015385802835226059, 0.0046726916916668415, 0.014592905528843403, -0.006440944038331509, 0.008395562879741192, -0.011113244108855724, -0.021072421222925186, -0.02446877211332321, 0.04410174489021301, -0.028848428279161453, 0.013376574963331223, 0.02294815331697464, -0.006695810705423355, -0.01542580034583807, 0.029245615005493164, -0.005351163446903229, 0.018877625465393066, -0.04815272241830826, 0.011586777865886688, -0.015081445686519146, -0.039194509387016296, -0.04741590470075607, -0.03129662573337555, 0.006639367435127497, 0.0017031652387231588, -0.020620072260499, -0.001073424587957561, 0.021650658920407295, -0.015171356499195099, -0.012297864072024822, -0.033971402794122696, 0.013045866042375565, -0.019082525745034218, -0.01867949403822422, 0.01145502645522356, -0.0019047369714826345, 0.010888081975281239, -0.0012397858081385493, -0.0023853841703385115, 0.0019623020198196173, 0.008867720142006874, -0.001172760152257979, -0.026528792455792427, 0.022331133484840393, 0.015326213091611862, -0.0024064367171376944, 0.0006701254169456661, 0.009023718535900116, 0.004202704411000013, 0.009880509227514267, -0.0009958449518308043, -0.0019617024809122086, 0.001048663049004972, -0.0008403722895309329, 0.0012277814093977213, -0.0004494754539337009, -0.006328541319817305, 0.0002625834895297885, -0.00011680925672408193, -0.08195092529058456, -1.6643032722640783e-05, -3.5037999168707756e-07, 8.591059241780385e-08, 1.1413927580861127e-07, 5.258228839011281e-07, 2.5898266642343515e-08, -9.213299279053899e-08, 6.828008736192714e-08, 1.769426631881288e-07, 1.5865475688769948e-07, -1.0923656645900337e-06, 0.05325378477573395, 0.0355452299118042, 0.1387256383895874, -0.058051615953445435, -0.09405090659856796, 0.13657423853874207, 0.07213682681322098, -0.030712243169546127, 0.08206789940595627, 0.16409271955490112, 0.015762243419885635, -0.007335011847317219, -0.02497677505016327, 0.012843259610235691, 0.015310315415263176, -0.023640839383006096, 0.010791308246552944, 0.10764420032501221, 0.05460764840245247, 0.02570292167365551, 0.025503968819975853, 0.0930946096777916, 0.07794833183288574, 0.15427540242671967, 0.07996156811714172, -0.03887642174959183, 0.09351998567581177, 0.04524904489517212, 0.01765621080994606, -0.0860285684466362, 0.053272794932127, 0.04533444717526436, 0.007526160683482885, 0.03869878128170967, 0.047959428280591965, 0.021477054804563522, -0.011046958155930042, -0.09194168448448181, 0.0011120990384370089, 0.0033324977848678827, -0.02197963371872902, -0.032618068158626556, -0.04961445555090904, 0.022826069965958595, 0.012727729976177216, 0.015266616828739643, -0.033213164657354355, -0.04271760210394859, -0.16118353605270386, -0.08988513052463531, 0.08693035691976547, 0.025550279766321182, 0.0334465354681015, 0.018763113766908646, -0.029201537370681763, -0.01678927056491375, 0.08084528148174286, 0.043829865753650665, -0.023765331134200096, 0.06567591428756714, -0.014482643455266953, -0.03458467870950699, -0.03056490048766136, 0.006026498973369598, 0.025003785267472267, 0.02294551394879818, -0.022438576444983482, 0.052623506635427475, 0.006712836679071188, -0.002323864959180355, 0.001628030207939446, -0.02780330739915371, 0.007110379170626402, -0.058628588914871216, -0.00925985723733902, 0.008542141877114773, 0.014382490888237953, 0.04540414735674858, 0.020652197301387787, -0.0633729100227356, -0.05064287409186363, -0.009587944485247135, -0.02121109515428543, -0.04152142256498337, 0.021665016189217567, -0.02500220388174057, 0.02231329306960106, -0.002093137241899967, 0.06053735688328743, 0.007367598358541727, -0.0438217967748642, 0.04708871245384216, 0.003586448496207595, -0.02141672372817993, 0.0031565302051603794, 0.011049116961658001, -0.00912353303283453, -0.025971055030822754, 0.04437555745244026, -0.011601889505982399, 0.007015257142484188, 0.0029704913031309843, -0.034568555653095245, -0.06198326498270035, 0.01721399463713169, 0.02037752978503704, 0.013847548514604568, -0.013156450353562832, 0.03871584311127663, -0.004510670434683561, 0.01450653001666069, -0.017292914912104607, 0.014636946842074394, 0.01726297289133072, 0.02640286274254322, 0.022389991208910942, -0.020503632724285126, 0.0076144482009112835, -0.007448404096066952, 0.03936714306473732, -0.004383660852909088, 0.006951758172363043, 0.0028307598549872637, -0.016456998884677887, -0.023540740832686424, 0.008119160309433937, -0.007328540086746216, 0.0006119540776126087, 0.0073088472709059715, -0.004520141053944826, -0.008507895283401012, 0.007334328722208738, -0.002515410305932164, -0.017687741667032242, 0.0024024073500186205, -0.002498129615560174, 0.002317694714292884, 0.011526978574693203, -0.00997643731534481, -0.0019483418436720967, 0.002576841041445732, -0.00022584586986340582, 0.0033176362048834562, -0.0005204476183280349, -0.0011470841709524393, 0.0010839563328772783, -0.0038528654258698225, 8.63632230903022e-05, 0.002522851573303342, 0.0007642756099812686, 0.0005831278976984322, -0.0002865187416318804, -0.0006910742959007621, 0.001023522694595158, -0.00024769274750724435, -5.302936187945306e-07, 4.932044816996495e-08, 1.1324613069518819e-07, -1.9260316719282855e-07, 1.3074340188268252e-07, -6.386072470832005e-08, 1.0434999353492458e-07, 2.1706054553760623e-07, -9.1389786405216e-08, 2.9237284593364166e-08, -0.047084320336580276, -0.10981087386608124, -0.08595196902751923, -0.14221929013729095, 0.003168206661939621, 0.09738827496767044, -0.06579556316137314, -0.043236877769231796, -0.052626535296440125, -0.03088214620947838, -0.11102956533432007, 0.05269741266965866, -0.1957383155822754, 0.1438838690519333, 0.05776152014732361, 0.1062244176864624, -0.19165293872356415, -0.09805141389369965, -0.009229387156665325, 0.04545823112130165, 0.01926933415234089, -0.0371263362467289, 0.15144261717796326, 0.0733916386961937, -0.06204916536808014, 0.14851677417755127, 0.062020812183618546, 0.033160749822854996, -0.009312856942415237, -0.04295184835791588, -0.03255153074860573, 0.013541826978325844, 0.08642750233411789, 0.07442045956850052, -0.10065095871686935, 0.01662798784673214, 0.06562668085098267, 0.044266242533922195, -0.014429837465286255, 0.009589954279363155, -0.0408407486975193, 0.08788511157035828, -0.04808465391397476, 0.048483118414878845, -0.13602645695209503, -0.0463164746761322, 0.03745012730360031, -0.004401022102683783, -0.08707747608423233, -0.005315616726875305, -0.07296744734048843, -0.013136180117726326, 0.008110806345939636, -0.022813040763139725, 0.04765516147017479, 0.017231523990631104, -0.014075133949518204, -0.05017884075641632, 0.012941586785018444, -0.08656302839517593, 0.009850045666098595, 0.017080968245863914, -0.03514925017952919, -0.0418255515396595, -0.006033818703144789, 0.034165751188993454, 0.007007394451647997, -0.03438447788357735, 0.009272673167288303, 0.030016668140888214, 0.013140699826180935, 0.03412635624408722, -0.03950893133878708, 0.08840331435203552, 0.030924944207072258, 0.049740470945835114, 0.052738264203071594, -0.002730811247602105, -0.016285590827465057, 0.02110813371837139, -0.07625433802604675, -0.018668824806809425, 0.020994480699300766, -0.010115186683833599, -0.004938079975545406, 0.02410290390253067, -0.035968028008937836, 0.11838901042938232, -0.0030956671107560396, -0.0941932201385498, -0.03349798917770386, -0.021384166553616524, 0.06388045847415924, -0.12641578912734985, 0.06997531652450562, 0.07331451773643494, 0.11345889419317245, 0.017015788704156876, -0.13295161724090576, 0.006623780354857445, -0.051543522626161575, 0.07086832076311111, -0.007775906007736921, 0.06721773743629456, -0.029370296746492386, -0.02929527498781681, -0.012088081799447536, -0.01515356544405222, -0.09744434058666229, 0.023169836029410362, 0.007296012248843908, 0.12180091440677643, -0.03996814787387848, 0.023052727803587914, -0.01590062864124775, 0.0008515570079907775, -0.0393393374979496, 0.051114365458488464, 0.052137453109025955, -0.0021794012282043695, 0.001398172928020358, -0.10270363092422485, -0.03397742286324501, -0.07885988801717758, -0.131678506731987, -0.018543589860200882, 0.00767886359244585, 0.06530032306909561, -0.007847189903259277, -0.07618969678878784, -0.055729206651449203, 0.021237812936306, -0.008444354869425297, 0.005551761947572231, -0.032287199050188065, 0.00032395627931691706, 0.06393563002347946, -0.055878981947898865, 0.03956017643213272, 0.00787231046706438, -0.012576903216540813, 0.08596327155828476, -0.07246201485395432, -0.027897458523511887, 0.007157791871577501, -0.018282616510987282, -0.012765873223543167, -0.0004879353800788522, 0.01611054502427578, -0.0018233098089694977, -0.030277226120233536, -0.008037898689508438, 0.06995741277933121, 0.00017599196871742606, -0.0038880989886820316, 5.8862646312718425e-08, 1.134022742377283e-08, 4.123897312524605e-08, 5.345996534344977e-09, -2.5812521897705665e-08, 2.4125395015062168e-09, 3.1191176308453805e-09, 1.4765198841359961e-08, -4.951850485213072e-09, 1.3010090782472616e-08, 0.004066145047545433, -0.10236094146966934, 0.05281878262758255, 0.020704032853245735, 0.14445918798446655, -0.011259686201810837, 0.029906140640378, -0.019272414967417717, -0.008390900678932667, -0.02144373022019863, 0.1293542981147766, -0.10137425363063812, 0.026638703420758247, -0.06063980609178543, -0.04187279939651489, -0.09286925941705704, 0.08095121383666992, -0.10341817140579224, 0.11003316193819046, -0.13272155821323395, 0.11564268171787262, -0.05316366255283356, -0.08646285533905029, 0.08830249309539795, -0.04420684278011322, -0.018356356769800186, 0.012961887754499912, 0.07431022822856903, 0.0031078143510967493, -0.0808013305068016, -0.012909541837871075, -0.08514362573623657, 0.008896925486624241, -0.04971424117684364, -0.09377443790435791, -0.1050596535205841, 0.021781209856271744, 0.07089827209711075, -0.03951731324195862, -0.056524068117141724, 0.0986110270023346, -0.07719821482896805, -0.04584139585494995, 0.0706486850976944, 0.0256150271743536, -0.09672130644321442, 0.07069828361272812, 0.08577758818864822, -0.10454390943050385, -0.03186653181910515, -0.008786557242274284, -0.10163521021604538, -0.004278420936316252, -0.03662839159369469, 0.1341756284236908, -0.02474157325923443, -0.06847497820854187, 0.07374773919582367, 0.023213231936097145, -0.05040701851248741, 0.029334522783756256, 0.031430684030056, 0.05993546172976494, 0.06782005727291107, 0.026493506506085396, -0.028394443914294243, -0.007885605096817017, 0.03024706244468689, -0.07889638096094131, -0.027267994359135628, 0.025596799328923225, 0.08905064314603806, 0.0627104789018631, -0.06365782767534256, 0.01939886249601841, 0.0009425502503290772, 0.025246983394026756, -0.022510504350066185, -0.01900160126388073, -0.020068198442459106, 0.06816768646240234, -0.06074482202529907, 0.020773891359567642, 0.03483520820736885, -0.015311463735997677, 0.04364737868309021, 0.12236358970403671, -0.08961963653564453, -0.08118827641010284, 0.05965549498796463, -0.017586586996912956, -0.005827486515045166, -0.04791559651494026, 0.03625897690653801, -0.025852449238300323, -0.021574940532445908, -0.02432025410234928, -0.028007185086607933, 0.006970021408051252, -0.01891278475522995, 0.1094609946012497, -0.056735917925834656, 0.060490623116493225, -0.02373647131025791, -0.01615755818784237, 0.05515610799193382, -0.01840236969292164, 0.0038837804459035397, -0.06738939136266708, -0.044526051729917526, 0.026042211800813675, -0.10156715661287308, -0.07033656537532806, 0.02705715224146843, -0.05569052696228027, 0.0004306148912291974, 0.005714144092053175, 0.02790370211005211, -0.0065339794382452965, -0.0337115153670311, -0.048902254551649094, -0.044864606112241745, 0.10701940208673477, 0.0034615397453308105, 0.04712384194135666, 0.02452368102967739, 0.01564110442996025, 0.01217204611748457, -0.06491547077894211, 0.028894996270537376, -0.017390387132763863, -0.000961135549005121, 0.06495488435029984, 0.0076675876043736935, 0.053529292345047, 0.005313455127179623, -0.02901143953204155, 0.06168828904628754, -0.018294785171747208, -0.02927757054567337, 0.025334391742944717, -0.022467775270342827, -0.030261294916272163, 0.032630547881126404, 0.006982645019888878, -0.026727939024567604, -0.0022655415814369917, -0.005335760768502951, 0.031971462070941925, -0.004407805856317282, 0.019478166475892067, 9.863356535788625e-05, -0.0009689357248134911, -0.021902168169617653, 0.0005297802272252738, -4.938098072670982e-07, 1.7013093156492687e-07, 1.9870843459557364e-07, 1.1558367418729176e-07, 7.976736071668711e-08, 4.780570179718779e-07, 8.802932427443011e-08, 5.687756043926129e-08, 7.346656616391556e-08, -1.1709791891689747e-07, 0.04627213254570961, 0.052749570459127426, 0.07999982684850693, 0.027454068884253502, -0.025737812742590904, 0.08748362958431244, 0.0445236973464489, 0.01701383665204048, 0.052797798067331314, 0.17620201408863068, 0.038324084132909775, -0.03681224212050438, 0.021444348618388176, -0.07675967365503311, 0.06801551580429077, -0.04162924364209175, 0.06056574359536171, -0.09061001986265182, -0.037842120975255966, 0.006144379731267691, -0.015187997370958328, 0.006379966624081135, 0.05305275321006775, -0.039275363087654114, -0.026553282514214516, -0.06304225325584412, -0.060247618705034256, 0.030716704204678535, -0.04068213701248169, -0.049739375710487366, 0.05011066421866417, -0.05605696141719818, -0.06645308434963226, 0.060634076595306396, 0.06979574263095856, 0.04354250803589821, -0.09016997367143631, -0.04047166928648949, 0.0417415052652359, -0.09077879786491394, -0.03945574536919594, -0.007423763629049063, 0.0593128427863121, -0.09012270718812943, 0.030447734519839287, 0.03621535003185272, -0.03575428947806358, -0.10029236972332001, -0.00537788076326251, -0.040999650955200195, -0.0006302784895524383, -0.072193443775177, 0.07168073952198029, 0.009611518122255802, 0.04860277101397514, 0.020428286865353584, -0.0802893191576004, 0.0740673840045929, 0.018707821145653725, 0.020128289237618446, -0.0007884050137363374, 0.06663748621940613, -0.020565496757626534, -0.018995271995663643, -0.04459177330136299, 0.013695254921913147, 0.045709140598773956, -0.05131291598081589, 0.0031125990208238363, 0.089450903236866, 0.007596079260110855, 0.054806411266326904, 0.08488183468580246, -0.019960425794124603, -0.027223356068134308, 0.01087747048586607, 0.02469954639673233, -0.07586079835891724, -0.006989896763116121, 0.02879139594733715, 0.05385292321443558, -0.035751257091760635, 0.024709295481443405, -0.02282094769179821, -0.005591485649347305, 0.08531282097101212, 0.052724771201610565, -0.03626929223537445, -0.031744152307510376, 0.02654654160141945, 0.019480952993035316, 0.07321437448263168, 0.044411152601242065, -0.03717157989740372, 0.015147853642702103, 0.0025109732523560524, -0.03210042789578438, 0.060366902500391006, 0.020030448213219643, -0.0664764940738678, 0.005900957155972719, -0.06887293606996536, 0.024152271449565887, -0.09805990010499954, 0.08255167305469513, 0.06361180543899536, 0.03207380324602127, 0.03272354602813721, 0.0627782866358757, -0.016260970383882523, 0.003487822599709034, -0.0008029090240597725, 0.03555956482887268, 0.05861285328865051, 0.003787318477407098, -0.0019016070291399956, -0.024676697328686714, 0.00025439501041546464, -0.006720724981278181, 0.0224122516810894, -0.028346695005893707, 0.012601811438798904, 0.0084824338555336, 0.006381522864103317, 0.019708024337887764, -0.032184965908527374, 0.020250318571925163, 0.06329295039176941, -0.01726805604994297, 0.01581677421927452, -0.0027399277314543724, 0.01731640286743641, -0.005173360463231802, 0.0026149097830057144, -0.0030221675988286734, -0.005386838689446449, -0.03558938577771187, 0.06130851060152054, -0.001498810830526054, 0.02343355305492878, 0.019105440005660057, 0.004241059068590403, 0.040661782026290894, 0.002235707128420472, 0.006070065777748823, -0.001591809093952179, 0.02030329778790474, -0.0021495213732123375, 0.016911137849092484, -0.011478994973003864, -0.0008285760995931923, 9.13656476768665e-05, -0.0002982899022754282, 0.004249351564794779, -7.86273358244216e-06, 1.9705048259766045e-07, -2.853780500799985e-08, 1.4905555900668332e-08, 3.873624621064664e-08, -4.7568711636358785e-08, -3.597112296915839e-08, -6.597936419439066e-08, 7.329109052989224e-08, 1.982178510218091e-08, 1.2033513030473841e-07, 0.04454367607831955, -0.01212763600051403, 0.036626581102609634, 0.00968057569116354, -0.0965353399515152, -0.0790005698800087, 0.08148133009672165, -0.0845862552523613, -0.14954164624214172, -0.04668109863996506, 0.04962809383869171, -0.06423164159059525, 0.12076659500598907, 0.10674096643924713, -0.09869278222322464, 0.07494521141052246, -0.028335893526673317, 0.05428202450275421, 0.18821412324905396, -0.06477586179971695, -0.06040133163332939, -0.10690280050039291, 0.012475616298615932, -0.043691061437129974, 0.0634089857339859, 0.09869155287742615, -0.10784532129764557, 0.03743889927864075, -0.03106800839304924, -0.05293591693043709, -0.03845860809087753, 0.06523189693689346, 0.04947013780474663, -0.014279782772064209, 0.0030608559027314186, 0.0737781673669815, -0.05035650357604027, 0.08618360012769699, 0.061582472175359726, -0.1172962486743927, 0.0032881239894777536, 0.026589542627334595, 0.07484660297632217, 0.051894109696149826, 0.005068501923233271, 0.018902696669101715, -0.054809655994176865, 0.08215320110321045, -0.07924387603998184, -0.08592144399881363, 0.012992782518267632, -0.11958713829517365, -0.024259015917778015, -0.07407768815755844, 0.037444353103637695, 0.0008395575569011271, 0.021810825914144516, -0.03310971334576607, 0.06124977394938469, 0.056576117873191833, -0.019606927409768105, 0.016164349392056465, -0.06158680468797684, -0.02700820565223694, -0.038395415991544724, 0.0021554185077548027, 0.016955982893705368, -0.005541681312024593, -0.005655848886817694, -0.06381901353597641, -0.015014897100627422, -0.025987176224589348, 0.048272985965013504, -0.018317705020308495, -0.06406291574239731, 0.07599262148141861, 0.06241146847605705, 0.019032886251807213, 0.009883702732622623, -0.024993781000375748, -0.03372183442115784, -0.09209362417459488, 0.010853619314730167, -0.017283866181969643, 0.036970097571611404, -0.05084574222564697, -0.02189243584871292, -0.006603352725505829, -0.03707336634397507, 0.08116346597671509, -0.032548267394304276, -0.018456287682056427, 0.04111328348517418, 0.04044786095619202, -0.054819729179143906, 0.0008263297495432198, -0.033138565719127655, 0.02232217974960804, 0.01190260611474514, 0.0113838417455554, 0.0344385989010334, 0.029460487887263298, -0.04111363738775253, 0.021201342344284058, 0.024465078487992287, 0.0395207405090332, -0.0033287329133599997, -0.05025215819478035, -0.029701774939894676, -0.029955241829156876, -0.002379343379288912, 0.02146918699145317, -0.004185974597930908, 0.012455720454454422, -0.005346840713173151, -0.018916215747594833, 0.0001843104837462306, 0.03854530304670334, -0.00891302153468132, -0.017134318128228188, -0.000435843103332445, 0.017065800726413727, 0.03458318114280701, 0.02158920094370842, -0.01673630066215992, 0.0019978475756943226, -0.0242674108594656, -0.0033666882663965225, 0.0031604471150785685, -0.006342986598610878, 0.0003075732965953648, 0.0035846245009452105, -0.0007306248880922794, -0.0002392586029600352, 0.002915065037086606, -0.0026136310771107674, -0.005178140476346016, 0.008789034560322762, -0.00013308024790603667, -0.0010476603638380766, -0.0001192218842334114, -0.0002785495016723871, 0.008615579456090927, 0.0005088647594675422, -0.020182622596621513, 0.00931065995246172, -0.03189149126410484, 0.0019277508836239576, 0.002555092331022024, 0.013114881701767445, 0.0012048376956954598, 0.0005897213704884052, 0.00045920888078399, -0.0001966476411325857, -3.047993959626183e-05, 1.0936962553387275e-06, 1.1353165518812602e-07, -1.1466525506875769e-07, 1.062775680793493e-07, 2.2152651126816636e-06, -1.0277600637209616e-07, 9.814117873929717e-08, 5.350876222109946e-07, -3.227717115805717e-08, -2.3499630685819284e-08, 0.023709828034043312, -0.1620185524225235, 0.019893992692232132, 0.02702595479786396, 0.029846377670764923, -0.003352458355948329, -0.10328846424818039, -0.009437726810574532, -0.11074016988277435, 0.1578504741191864, 0.12774565815925598, 0.09398885071277618, -0.14362162351608276, 0.031021922826766968, -0.023185955360531807, -0.0175823662430048, -0.04153725877404213, -0.05190367251634598, 0.03444766253232956, 0.03439832478761673, 0.0788983404636383, -0.032784733921289444, 0.06337188184261322, -0.02688584476709366, -0.001040380448102951, 0.02557995170354843, -0.0050122095271945, 0.04464960843324661, -0.024954112246632576, 0.0639340877532959, 0.06922976672649384, -0.06690135598182678, 0.05149833485484123, 0.006819598842412233, -0.00881192646920681, 0.06639628112316132, -0.05840137600898743, 0.04111523926258087, -0.04498221352696419, -0.02595815435051918, 0.0706690326333046, 0.025789974257349968, -0.03538110852241516, -0.05770047381520271, -0.01290643960237503, 0.005893392022699118, 0.08975724875926971, -0.01604687049984932, -0.11501183360815048, -0.05647781863808632, 0.03364746272563934, -0.011806284077465534, -0.06154448166489601, -0.07743219286203384, -0.0031016452703624964, -0.003827013773843646, 0.04638063535094261, 0.0004285036993678659, -0.03928913548588753, -0.08420306444168091, 0.06556640565395355, 0.08009510487318039, -0.03531601279973984, 0.0021997985895723104, 0.0500265471637249, 0.02875422313809395, 0.046559251844882965, 0.0440107062458992, -0.0853690579533577, -0.02242334373295307, 0.041615188121795654, -0.013644618913531303, -0.10251443088054657, -0.09914134442806244, -0.007414175663143396, 0.01691729947924614, -0.01930980756878853, -0.01990201510488987, -0.0319836400449276, -0.05761018395423889, 0.028032992035150528, -0.04500742256641388, -0.028223533183336258, 0.012564395554363728, -0.014099153690040112, 0.03113257884979248, 0.003204573877155781, 0.03526301309466362, -0.05514463409781456, 0.00033965834882110357, 0.06597071886062622, 0.0015601895283907652, 0.0431809164583683, 0.011317462660372257, 0.028845012187957764, 0.002732877153903246, 0.017432548105716705, -0.007170295342803001, -0.010810469277203083, -0.073646679520607, -0.00914120115339756, 0.025176264345645905, -0.0003907456703018397, -0.01769641600549221, -0.042518019676208496, 0.024601906538009644, 0.004977254197001457, -0.024836773052811623, -0.019189000129699707, 0.06338797509670258, 0.015399322845041752, 0.03602728620171547, -0.012933673337101936, -0.00914051290601492, 0.019755879417061806, -0.011652115732431412, 0.0019377213902771473, 0.011337917298078537, -0.012669157236814499, 0.015973646193742752, -0.006879809778183699, -0.011073067784309387, 0.013084085658192635, -0.008085870184004307, 0.0005710230907425284, -0.014983040280640125, -0.008498858660459518, -0.022677214816212654, -0.011693190783262253, 0.003827545326203108, -0.0009192648576572537, -0.006806382443755865, -0.01233949139714241, -0.005739644635468721, 0.014562086202204227, -0.0469849593937397, -7.890720735304058e-05, -0.0018060607835650444, 0.012699662707746029, -0.029743919149041176, 0.0077955941669642925, -0.02570713311433792, -0.06453654170036316, -0.0014820861397311091, -0.00334063358604908, -0.055978018790483475, -0.009983456693589687, -0.0005590060609392822, -0.00022468103270512074, 0.019679486751556396, 0.0009928097715601325, -0.01311731431633234, 0.0002542503352742642, 0.00042879616376012564, 0.0001670009078225121, -4.080798987615708e-08, -5.207466529100202e-07, -1.2377068259183943e-09, -1.1796643661909911e-07, 1.5115304563551035e-08, -3.6126124314250774e-09, 7.238078580940055e-09, 2.6271431252666844e-08, -5.341789233170857e-08, -1.776879621218086e-08, 0.020388612523674965, 0.13486436009407043, -0.06948555260896683, 0.11099106073379517, 0.004045459441840649, 0.08134923130273819, 0.017677387222647667, -0.011936387978494167, 0.038858652114868164, -0.10344592481851578, 0.08412095904350281, -0.0918533056974411, 0.14456912875175476, 0.037507232278585434, -0.18270115554332733, -0.19244040548801422, 0.12756244838237762, 0.10968811810016632, 0.07212178409099579, -0.16707654297351837, -0.021030748263001442, 0.03928234055638313, -0.1727248579263687, -0.06884239614009857, 0.09249293059110641, -0.12469951063394547, 0.04319942370057106, -0.1270199567079544, -0.08463933318853378, 0.07447491586208344, 0.02691883035004139, -0.07439873367547989, 0.06322729587554932, 0.03592247888445854, 0.01880578324198723, 0.0424121655523777, -0.04363103210926056, 0.03185724467039108, 0.06982501596212387, -0.0038008415140211582, 0.06174026057124138, 0.02652357518672943, 0.08246808499097824, 0.02780245989561081, -0.003835021983832121, -0.12518809735774994, 0.05149402841925621, 0.046925805509090424, 0.07531576603651047, 0.08450569212436676, 0.0391109324991703, 0.023174814879894257, -0.011749569326639175, 0.0823853388428688, -0.049993161112070084, -0.07097459584474564, 0.004994210787117481, 0.10279200971126556, -0.06427201628684998, 0.09436247497797012, -0.08019094914197922, -0.043370965868234634, 0.009433860890567303, 0.06933943927288055, -0.01663861609995365, -0.08894206583499908, 0.01683516800403595, 0.026730123907327652, -0.014667578041553497, -0.06986059993505478, 0.024443699046969414, 0.0542365163564682, 0.0014088047901168466, 0.04085056856274605, 0.013947284780442715, 0.06073427200317383, -0.017349839210510254, 0.04057978093624115, -0.03650331124663353, -0.027548206970095634, 0.059894487261772156, 0.028017137199640274, 0.049768269062042236, 0.014028213918209076, 0.04368685930967331, -0.047417670488357544, -0.07994011789560318, 0.05863622575998306, -0.14409786462783813, 0.002322296379134059, 0.02677217498421669, -0.02608940377831459, 0.013819687068462372, -0.03937926143407822, 0.08039288222789764, 0.020216891542077065, 0.02077099122107029, -0.001110670855268836, 0.03270643576979637, -0.02395172417163849, 0.08025607466697693, -0.08039326965808868, 0.081536665558815, 0.014326580800116062, 0.0036502713337540627, 0.0031881113536655903, 0.006957923527806997, 0.03343948721885681, -0.04925767332315445, -0.06309407204389572, -0.1210627630352974, -0.0685972198843956, -0.0312960222363472, -0.12752780318260193, -0.01793915405869484, -0.014722749590873718, -0.08425892144441605, -0.06736644357442856, -0.023438937962055206, -0.10991419851779938, -0.008884876035153866, 0.05445247143507004, -0.01617913506925106, 0.070863738656044, 0.05509236454963684, -0.0005783512024208903, -0.02151898294687271, -0.06438564509153366, -0.024104030802845955, -0.011013955809175968, 0.0599086731672287, -0.07205621153116226, 0.04601658880710602, -0.0480184331536293, -0.0587054044008255, -0.035591430962085724, 0.0792456865310669, -0.014162884093821049, -0.07349107414484024, -0.06007551774382591, 0.07649353891611099, -0.0829809382557869, -0.024731477722525597, 0.018101731315255165, 0.0004675246018450707, -0.04021076112985611, -0.015776563435792923, -0.00028126713004894555, -0.0012489688815549016, 0.019188161939382553, 0.04141411930322647, 0.03210248425602913, -0.06899234652519226, -0.000454285298474133, 0.02035864256322384, 3.5005822951461596e-07, -3.55201841273356e-08, -3.927052460994673e-09, -4.751239401912244e-08, -4.6700360911700045e-08, 1.1904507601911973e-07, -1.1004379629753203e-08, 1.5837610334301644e-08, -3.744924370607805e-08, 3.2166266095146057e-08, 0.0006989940884523094, -0.023467514663934708, 0.09316772222518921, -0.14879411458969116, -0.09221640974283218, 0.055092938244342804, 0.10834163427352905, -0.016636092215776443, -0.02498803660273552, -0.0030764841940253973, -0.03772527724504471, -0.12934842705726624, -0.07085003703832626, 0.04457137733697891, -0.012211299501359463, -0.030547259375452995, 0.05929548293352127, -0.10813406854867935, 0.10316495597362518, -0.04037699103355408, -0.04136906564235687, -0.00645866384729743, -0.07488898187875748, 0.11660873144865036, -0.10251722484827042, 0.10030023008584976, 0.057275138795375824, 0.04599381238222122, 0.026786647737026215, 0.05060436204075813, 0.10394618660211563, -0.1087111085653305, -0.018771536648273468, -0.02440968155860901, -0.018401140347123146, 0.0837133601307869, -0.052582625299692154, -0.07699984312057495, 0.032388925552368164, -0.02935871109366417, -0.007460515480488539, 0.06291980296373367, -0.10322688519954681, -0.04494107887148857, 0.03654119372367859, -0.00676015205681324, 0.1014518290758133, -0.011835088022053242, -0.07372620701789856, -0.02822684496641159, -0.015857240185141563, -0.13873566687107086, -0.0826701745390892, -0.07527802884578705, -0.009285194799304008, 0.0038676136173307896, 0.07829788327217102, 0.016368772834539413, 0.03684338554739952, 0.003756687743589282, 0.0679418295621872, 0.06421363353729248, 0.020985998213291168, 0.048583175987005234, -0.07207673043012619, -0.09677649289369583, -0.00986132025718689, 0.07619976252317429, -0.028567953035235405, 0.02076141908764839, -0.029285913333296776, -0.012705338187515736, -0.040306080132722855, -0.07443635165691376, -0.09111338108778, -0.04663970693945885, -0.005579017568379641, 0.054815854877233505, -0.0165620855987072, 0.016344739124178886, 0.05891547352075577, -0.07446257025003433, 0.011605639010667801, -0.032143108546733856, -0.08956140279769897, 0.03023848868906498, -0.03878173604607582, 0.0807468593120575, -0.030789265409111977, 0.08268539607524872, -0.02557607740163803, -0.012353356927633286, 0.03903842717409134, 0.0046185338869690895, -0.08640156686306, 0.0333687923848629, -0.015274954959750175, 0.0074525862000882626, 0.09408173710107803, -0.008116482757031918, 0.0002713229332584888, 0.03473825380206108, 0.030903685837984085, -0.0884527936577797, -0.029745806008577347, -0.021662475541234016, -0.009147427044808865, -0.02957826294004917, -0.06456438452005386, 0.014764520339667797, 0.018308104947209358, 0.025929581373929977, -0.04901653528213501, 0.006193119566887617, -0.018774770200252533, 0.036295972764492035, 0.0006905390764586627, 0.01232836302369833, 0.0006804950535297394, -0.010539515875279903, -0.0019396552816033363, -0.002625175751745701, 0.026757370680570602, -0.0011794413439929485, 0.009314049035310745, -0.0080028735101223, -0.004834543447941542, 0.0031765231397002935, 0.0015872328076511621, -0.009670588187873363, 0.0028758521657437086, 0.0002247851953143254, 0.01865653693675995, 0.010817138478159904, 0.02457428351044655, 0.0023397584445774555, -0.00023373219300992787, 0.001818875432945788, -0.007894668728113174, 0.0047858403995633125, 0.0006355465739034116, 0.001784826279617846, -0.003629595972597599, 0.0008371418225578964, 0.002709208754822612, -0.003440032247453928, 0.0012916100677102804, -0.0022038656752556562, -0.014380063861608505, -0.002836009254679084, -0.0003536249860189855, 0.0004513321619015187, -0.00011807826376752928, -2.5384228138136677e-05, 8.232415893871803e-06, -4.14503858792159e-07, 1.7704707033772138e-08, -2.9137503076981375e-08, 3.7568730704151676e-07, -2.0093915509278304e-07, 1.670846359047573e-07, -2.366787299479256e-08, -8.339739565599302e-08, 5.77019250158628e-08, -7.583914651831947e-08, -0.035731494426727295, 0.030437305569648743, 0.1276339292526245, 0.16451123356819153, -0.07644426822662354, -0.037314437329769135, 0.1279696673154831, 0.12562187016010284, 0.028011761605739594, -0.05162585526704788, 0.05214696004986763, -0.04014608636498451, 0.05899021402001381, -0.11165472120046616, 0.031307268887758255, 0.10100183635950089, 0.0009062145254574716, 0.1393861174583435, -0.11005385965108871, -0.02841872163116932, -0.03499807044863701, -0.09295878559350967, -0.03240019083023071, -0.0680025964975357, 0.04055478796362877, -0.059458792209625244, 0.01963774487376213, 0.06675388664007187, 0.02491159923374653, 0.08155130594968796, 0.07224879413843155, -0.058983657509088516, -0.10934363305568695, -0.004965347703546286, -0.01260299701243639, -0.021967709064483643, -0.06912115961313248, -0.06043155863881111, 0.05403933301568031, -0.034110765904188156, -0.08223806321620941, -0.08947313576936722, -0.039269767701625824, -0.06152200326323509, -0.03694913163781166, -0.06153714656829834, -0.08492561429738998, -0.0615241602063179, 0.018685199320316315, 0.007343326695263386, -0.039060913026332855, 0.037328992038965225, 0.05611510947346687, 0.008453436195850372, -0.011910430155694485, 0.019091863185167313, -0.020910009741783142, -0.10159078985452652, -0.06601651757955551, 0.07296904921531677, -0.008778175339102745, -0.05164899304509163, 0.04340428486466408, 0.06415551155805588, 0.004990958608686924, -0.07272318005561829, 0.03073067218065262, -0.04054778441786766, 0.021431609988212585, -0.0015296756755560637, -0.0521094836294651, 0.04738713055849075, 0.026690244674682617, -0.05812526121735573, 0.039883121848106384, 0.08321632444858551, -0.05616851896047592, -0.06763278692960739, -0.03093591146171093, 0.059734370559453964, -0.014100326225161552, -0.0541374646127224, -0.022740786895155907, 0.019675517454743385, -0.05487951263785362, -0.032729268074035645, 0.028252147138118744, -0.05528571829199791, -0.0034447042271494865, 0.0889204815030098, 0.031676143407821655, 0.010345501825213432, 0.007713607512414455, 0.009711003862321377, -0.07191072404384613, 0.00863332487642765, -0.010086783207952976, -0.03664420545101166, 0.08742532134056091, 0.009082833305001259, 0.032971300184726715, -0.06438807398080826, 0.026856733486056328, 0.005542853381484747, -0.0020445638801902533, 0.026886599138379097, -0.05248221382498741, 0.053923022001981735, -0.002103248843923211, -0.000742612814065069, 0.06297598034143448, -0.01768404245376587, -0.0030843042768538, 0.08350503444671631, -0.025950681418180466, -0.0028699077665805817, 0.07163246721029282, 0.0034383723977953196, -0.015184915624558926, 0.007934611290693283, -0.025992106646299362, 0.015203542076051235, 0.00908385869115591, -0.023570656776428223, 0.05122620239853859, 0.02564295567572117, -0.0005836290074512362, 0.007088957820087671, -0.009322086349129677, -0.01177311223000288, 0.02351551316678524, 0.0017037641955539584, 0.003118193708360195, -0.015880348160862923, -0.030629266053438187, 0.021854737773537636, -0.06635183840990067, 0.04012617468833923, 0.008228342048823833, -0.0003403503797017038, -0.01852569356560707, 0.009710058569908142, 0.014677688479423523, 0.017779067158699036, -0.002041114028543234, -0.024389388039708138, 0.0001555921189719811, 0.0033431928604841232, -2.2681257178192027e-05, 0.004453641828149557, -0.0002759934577625245, -0.0009721736423671246, 0.00025870747049339116, 0.0001490596914663911, -0.00011403142707422376, 1.4459257613452792e-07, 3.433449080603168e-08, -5.756410814683477e-08, 5.044584128199858e-08, -6.659178541923438e-09, 5.8264479463332464e-08, 8.786191330045767e-09, -6.072786717936651e-09, 1.2882392042001811e-08, -3.2830701712782684e-08, 0.006732957437634468, 0.0363980233669281, -0.09323293715715408, -0.051159270107746124, -0.0343395359814167, 0.03451760485768318, -0.06290725618600845, 0.053802039474248886, 0.004065888933837414, -0.031056923791766167, -0.16615910828113556, 0.16128647327423096, -0.1530720293521881, 0.026694677770137787, 0.11533855646848679, -0.11301351338624954, 0.01238422840833664, 0.10666503757238388, -0.06193843483924866, 0.08457405865192413, -0.00588636938482523, 0.07388786971569061, -0.0015066745691001415, -0.10170608013868332, 0.05887237936258316, -0.10232710838317871, -0.04666535556316376, -0.06478093564510345, 0.02350110560655594, -0.03319652006030083, -0.021173859015107155, 0.09594595432281494, -0.0028806498739868402, 0.05846836045384407, -0.043860726058483124, -0.07242736220359802, -0.0035039065405726433, 0.018544109538197517, -0.07602983713150024, 0.05507446825504303, -0.031060783192515373, -0.006246115546673536, 0.048639729619026184, -0.054407279938459396, 0.0010401264298707247, 0.06252367049455643, -0.061967890709638596, -0.022798916324973106, 0.08414413779973984, -0.015142298303544521, -0.030552184209227562, 0.015997927635908127, -0.047608569264411926, 