#include "mlp_weights.h"

const float layer_0_weights[15840] = {-0.029215021058917046, -0.075895756483078, -0.023350944742560387, -0.09010779112577438, 0.08641218394041061, -0.01401119027286768, -0.03401666879653931, -0.08834681659936905, 0.08579116314649582, -0.11909866333007812, 0.0328831747174263, -0.017663724720478058, -0.0206071138381958, -0.03892764449119568, 0.06488074362277985, 0.01494248304516077, -0.08008227497339249, -0.07157181203365326, -0.14509332180023193, -0.05466629937291145, -0.0024161681067198515, -0.013966628350317478, 0.0673661082983017, 0.05628971382975578, -0.04686681553721428, 0.017075786367058754, 0.06927704811096191, 0.06544461846351624, 0.005057911854237318, 0.05800962820649147, -0.04566178098320961, 0.00330616207793355, -0.07464767247438431, -0.015252817422151566, -0.011432134546339512, -0.032728470861911774, -0.019019104540348053, -0.08979708701372147, 0.016042165458202362, 0.0024857372045516968, -0.0007321721059270203, -0.0604066401720047, -0.01125178299844265, -0.07310598343610764, -0.004110860638320446, -0.009408820420503616, -0.0014314232394099236, -0.010413654148578644, -0.006822571158409119, 0.01656096801161766, -0.017670873552560806, 0.06392287462949753, 0.011631331406533718, -0.027441808953881264, -0.04940919578075409, 0.003723299130797386, 0.038118354976177216, 0.07673592865467072, -0.06194515526294708, 0.014524159021675587, -0.014023702591657639, -0.035869356244802475, 0.0012167827226221561, -0.006676302757114172, -0.009031521156430244, 0.011200891807675362, -0.02052776888012886, -0.03136191889643669, -0.028056494891643524, 0.06452516466379166, 0.056226953864097595, -0.036313991993665695, -0.0034402073360979557, -9.346520528197289e-05, -0.03547077625989914, -0.027422381564974785, -0.017822634428739548, -0.024573754519224167, 0.007187386974692345, 0.011479129083454609, 0.04796820133924484, 0.02987145632505417, 0.01196274533867836, 0.00830407626926899, -0.021120743826031685, 0.02165171317756176, 0.015699496492743492, 0.03870059549808502, 0.01847672462463379, -0.008286599069833755, 0.005612070672214031, 0.0051209288649261, -0.009425448253750801, -0.015992457047104836, 0.004173876717686653, -0.0033779346849769354, 0.009560415521264076, -0.006911624688655138, 0.005732565186917782, -0.0013585611013695598, 0.00406092032790184, 0.03512521833181381, -0.007342013064771891, 0.05823388323187828, -0.010715137235820293, -0.01677328534424305, -0.009084414690732956, 0.0027782628312706947, -0.0080132856965065, -0.004636711906641722, -0.033833522349596024, -0.02046734280884266, -0.011917829513549805, 0.01145155355334282, -0.0052747600711882114, -0.0038832600694149733, -0.00583829777315259, -0.011504234746098518, 0.003469828749075532, 0.004949045367538929, -0.001866649487055838, 0.05894040688872337, -0.010357596911489964, -0.0014245858183130622, -0.018169479444622993, -0.018438171595335007, -0.00048427211004309356, 0.006957853678613901, 0.011198625899851322, -0.00884951464831829, -0.0017064574640244246, 0.011416555382311344, -0.0026805622037500143, 0.00045038259122520685, 0.011272076517343521, -0.00021622459462378174, 0.0020621330477297306, -0.0013620657846331596, -0.003928202670067549, 0.0032190869096666574, -0.005357328336685896, -0.0009803968714550138, -0.003017175942659378, -0.0004322834138292819, 0.011680608615279198, -0.00024666250101290643, 0.009675263427197933, 0.001375700579956174, -0.0015704043908044696, -0.0029525975696742535, -0.0036929238121956587, -0.0011889952002093196, 0.004365935921669006, -0.0006704709958285093, -0.002830945188179612, 3.828720309684286e-07, -6.130375140855904e-08, 7.989406469732785e-09, 1.2542955118988175e-08, 4.469368164450316e-08, 3.0751436952414224e-08, 1.4461949859878587e-08, 6.975066924042039e-08, -8.645061910783625e-08, 5.445098594236697e-08, -0.05721420794725418, -0.057759348303079605, -0.005486601963639259, 0.01742587238550186, 0.03350065276026726, -0.05467431619763374, 0.038324564695358276, -0.10270575433969498, 0.13167214393615723, 0.018935490399599075, -0.09368176758289337, -0.029653379693627357, -0.12833867967128754, 0.1614820510149002, -0.10540778934955597, -0.05939635634422302, 0.09145809710025787, 0.06843482702970505, 0.11125863343477249, -0.07885003089904785, -0.09455063194036484, -0.035414643585681915, -0.13767866790294647, -0.09100888669490814, 0.08534690737724304, -0.005824015010148287, 0.07590508460998535, -0.10440769046545029, 0.030723942443728447, 0.019863007590174675, 0.04825906455516815, -0.13105100393295288, 0.04196131229400635, 0.0185494776815176, -0.00033845932921394706, 0.08111407607793808, -0.046932462602853775, -0.013240440748631954, 0.06391086429357529, 0.05961393192410469, -0.04957351088523865, -0.03453813120722771, 0.01709558255970478, -0.05358901247382164, 0.04750284180045128, -0.05815974995493889, 0.05823974311351776, -0.01893550716340542, -0.028814585879445076, 0.027264639735221863, 0.08979619294404984, -0.0014933351194486022, -0.05201558396220207, -0.029888397082686424, 0.004901053849607706, -0.06626275926828384, -0.04268166795372963, -0.03331337869167328, -0.008976633660495281, 0.020318306982517242, -0.05333438143134117, -0.056122783571481705, -0.03818171098828316, 0.025014225393533707, 0.028527842834591866, -0.05123360455036163, 0.018842432647943497, -0.013544240966439247, 0.08272752165794373, -0.016590571030974388, -0.0006702382233925164, -0.0002938065736088902, -0.10231513530015945, 0.023827698081731796, 0.06042574346065521, -0.04299424588680267, -0.003491249866783619, 0.02320244163274765, 0.04104965925216675, -0.032066792249679565, -0.020689811557531357, 0.013201337307691574, 0.05753606930375099, 0.05746304243803024, -0.0006900716689415276, 0.004924908746033907, -0.0256265327334404, 0.009464642964303493, 0.07819302380084991, -0.04343189671635628, 0.061259929090738297, -0.023114796727895737, 0.08658622950315475, -0.018869593739509583, 0.0045470246113836765, -0.03036877140402794, -0.02620585635304451, -0.016017159447073936, -0.016382746398448944, 0.05414748564362526, 0.027359453961253166, 0.023164313286542892, 0.00019414200505707413, -0.027816442772746086, 0.05793038383126259, 0.06957057863473892, -0.0006893643876537681, 0.02236212231218815, -0.0021600991021841764, -0.047975022345781326, -0.03604981675744057, 0.011476978659629822, 0.0008745663217268884, -0.03865354508161545, 0.04282880946993828, 0.0718693658709526, 0.04563192278146744, 0.007313210517168045, -0.004736398812383413, 0.004922783467918634, 0.011167671531438828, -0.0010238472605124116, 0.011429017409682274, 0.017855975776910782, 0.044304799288511276, -0.01816089265048504, 0.028713731095194817, 0.017585434019565582, -0.006715513300150633, 0.010389730334281921, -0.011422167532145977, -0.015706386417150497, -0.011089783161878586, 0.00893635768443346, -0.010654091835021973, 0.0013116447953507304, 0.01658470742404461, -0.01053965650498867, 0.011915478855371475, 0.0011607824126258492, 0.004226129502058029, -0.0062264325097203255, -0.0008128598565235734, -0.002774484921246767, -0.0007892816211096942, -0.005836425814777613, -0.0010890655685216188, 3.514982381602749e-05, -0.0003232455637771636, -0.0021310478914529085, 0.0003664756950456649, 0.00045578667777590454, -0.00016696772945579141, 0.06511307507753372, 0.0008570060599595308, 9.040121540238033e-08, 1.0721644017053222e-08, -8.033948262209378e-08, 3.712854379500641e-08, -2.0740763773119397e-08, -3.732294828751037e-08, -1.2254643522169317e-08, 4.0329137362959955e-08, -1.0368340852551228e-08, 2.7128308488499897e-09, 0.065337635576725, -0.0006435838295146823, 0.020574845373630524, 0.024145131930708885, -0.12984685599803925, -0.09511355310678482, -0.037749674171209335, 0.09576146304607391, 0.02687230333685875, 0.07464700937271118, 0.009562287479639053, -0.014135776087641716, 0.037557270377874374, -0.14972209930419922, 0.12678882479667664, -0.07384317368268967, 0.08986862748861313, -0.11386950314044952, -0.0901867151260376, 0.014997811987996101, 0.05067615583539009, -0.04079887643456459, 0.0091742854565382, 0.008780197240412235, -0.13173796236515045, 0.03401848301291466, -0.08480193465948105, 0.08702162653207779, 0.09026602655649185, 0.04356909170746803, -0.09249317646026611, 0.018713410943746567, -0.02404221147298813, -0.14034487307071686, -0.09085294604301453, -0.056227974593639374, 0.027433939278125763, 0.055326033383607864, -0.11071055382490158, 0.06789851933717728, -0.008952026255428791, -0.07655736058950424, -0.02095978707075119, -0.00829633604735136, 0.05605155602097511, 0.021306199952960014, 0.004724199417978525, -0.004786333069205284, -0.020854389294981956, -0.047214969992637634, -0.06335628032684326, -0.13629421591758728, -0.023137226700782776, -0.09736277908086777, -0.055571310222148895, -0.05204569548368454, 0.08335471153259277, 0.025283273309469223, 0.007153861224651337, 0.025611136108636856, 0.1038590520620346, 0.03700253739953041, -0.0342540442943573, 0.0852014422416687, -0.0037235550116747618, -0.017194002866744995, 0.038379378616809845, 0.042541421949863434, 0.016234416514635086, 0.07078289240598679, -0.0596749484539032, -0.029290203005075455, 0.013214146718382835, 0.021216420456767082, -0.004433866124600172, -0.05327463522553444, 0.046890921890735626, -0.010393161326646805, 0.021051574498414993, 0.019684068858623505, 0.009847431443631649, -0.06942082196474075, 0.046801917254924774, 0.009151742793619633, 0.042741645127534866, 0.091939277946949, 0.05352003499865532, 0.010257264599204063, 0.015460049733519554, 0.01213531568646431, -0.0023758537136018276, 0.00794176571071148, -0.04095137491822243, 0.06336316466331482, 0.006569934543222189, 0.04743948578834534, 0.040422726422548294, 0.007457253988832235, 0.10038813948631287, -0.0025484219659119844, -0.06797487288713455, -0.10581397265195847, 0.04686589911580086, -0.0426434651017189, 0.02445351891219616, 0.033575043082237244, 0.00048331552534364164, -0.06524313241243362, -0.02345992438495159, 0.010880786925554276, 0.004427851643413305, -0.009852403774857521, -0.008544504642486572, -0.05202857404947281, 0.02523798495531082, -0.04574643075466156, 0.017329923808574677, 0.00631108321249485, -0.0018336481880396605, -0.07388415932655334, 0.01939966529607773, -0.10618866235017776, 0.047252897173166275, -0.043013058602809906, -0.07354786247015, 0.02231588028371334, 0.05815102159976959, -0.06798488646745682, 0.01948687620460987, -0.007184428628534079, 0.005293337162584066, -0.008667904883623123, 0.048266272991895676, 0.005344273056834936, -0.01477106288075447, -0.029009297490119934, 0.008087921887636185, 0.01996837742626667, -0.01512752566486597, 0.014529410749673843, 0.016264216974377632, 0.010192462243139744, -0.01242196187376976, -0.021827291697263718, 0.010516155511140823, -0.008212151937186718, -0.009562631137669086, -0.032618843019008636, -0.00204263161867857, 0.0020342485513538122, 0.009486595168709755, -0.00013590192247647792, 0.0042374772019684315, -0.02193165197968483, -0.0012069627409800887, 1.354205778625328e-07, 5.30404697940412e-09, -4.80355168974711e-08, -3.2724102538850275e-08, -5.737135211347777e-10, -4.994237770006293e-07, -9.793851063477632e-08, -2.256287601198892e-09, -1.5428586408461342e-08, 1.8308998050997616e-07, 0.021200209856033325, -0.01869695633649826, 0.03556331619620323, 0.049016546458005905, -0.04438577964901924, -0.07330020517110825, -0.02402913197875023, 0.07185107469558716, 0.11155243963003159, -0.1336764097213745, 0.07438598573207855, -0.010765090584754944, 0.04049002006649971, 0.006106455810368061, 0.0381934717297554, -0.06660957634449005, 0.020993975922465324, 0.11874113976955414, -0.000436593807535246, 0.08638875931501389, 0.0016856567235663533, 0.06283971667289734, 0.04459841176867485, -0.02078172191977501, 0.007054704707115889, -0.04679986089468002, 0.08770690858364105, 0.005505913868546486, 0.01780994050204754, -0.03722047805786133, 0.008288404904305935, 0.03379334509372711, 0.11839375644922256, -0.057501908391714096, 0.031995739787817, 0.01266741193830967, -0.07000851631164551, 0.10896594822406769, 0.10244499891996384, 0.048307616263628006, 0.005953221581876278, -0.008384890854358673, 0.03803468868136406, -0.018757976591587067, -0.009534813463687897, -0.0686672180891037, -0.06015568599104881, -0.04415665194392204, -0.041523225605487823, -0.008755153976380825, 0.018653593957424164, 0.038594819605350494, 0.07000476121902466, -0.09990111738443375, -0.0019511952996253967, 0.0010386781068518758, 0.03667667135596275, -0.005498150363564491, 0.027619363740086555, 0.003020747797563672, -0.024200575426220894, -0.004575609695166349, 0.04402565211057663, -0.0072129578329622746, -0.05117751285433769, -0.05553076043725014, -0.08265095949172974, 0.0017824594397097826, -0.05377195402979851, -0.020178046077489853, 0.006796224974095821, 0.012355884537100792, 0.08552095293998718, -0.014591790735721588, -0.07376687228679657, 0.00325068854726851, -0.01072326023131609, -0.02239401824772358, 0.0002654616255313158, 0.02552458643913269, 0.003917810507118702, 0.033925581723451614, 0.0002607238420750946, 0.009515046142041683, 0.060704465955495834, -0.039913929998874664, 0.006809235084801912, 0.014431294985115528, 0.06310627609491348, 0.011636491864919662, 0.023133784532546997, 0.05637695640325546, -0.006618164479732513, -0.0715751200914383, -0.0315161794424057, -0.0052802725695073605, -0.007324690464884043, -0.016494208946824074, -0.041329074651002884, 0.012566762045025826, 0.0294595118612051, -0.03095322661101818, -0.03268064558506012, -0.005293569527566433, 0.007000256795436144, -0.003113718470558524, -0.0330316536128521, 0.04623159021139145, 0.006914690136909485, 0.013026075437664986, 0.0037095483858138323, -0.0030100324656814337, 0.012181269936263561, 0.005169942509382963, -0.03247806057333946, -0.006928748916834593, 0.007906404323875904, 0.017516598105430603, -0.024236392229795456, -0.03431836515665054, 0.010620989836752415, 0.01340566948056221, 0.0008062189444899559, -0.001172081334516406, -0.0020403238013386726, 0.001734161633066833, 0.0030559387523680925, 0.012441407889127731, 0.015334224328398705, -0.010069938376545906, 0.0027380092069506645, 0.01660158857703209, 5.8850775531027466e-05, 0.0002501319977454841, 0.009999099187552929, 0.004209423903375864, 0.008117299526929855, 7.120365626178682e-05, -0.0004768644575960934, -0.001624167081899941, -0.004634522832930088, -0.0002923719584941864, 0.0007060968782752752, -0.00040327321039512753, -0.0069412956945598125, -0.0035571057815104723, -0.003987898584455252, 0.00567898154258728, 0.024584084749221802, 0.0014187920605763793, 0.00030325716943480074, 0.001646810444071889, -0.00026920659001916647, 5.295507799019106e-05, 0.00016196111391764134, 1.1202206451343955e-07, -1.3461002978942815e-08, -8.804178719401534e-08, -4.4383561714766984e-08, 8.342557578089327e-08, 1.1465023419532372e-07, 1.2632266077616805e-07, 5.890834131605516e-08, 1.8727170925103565e-08, 1.8450305105943698e-07, 0.038269493728876114, 0.0254883524030447, -0.0016802966129034758, 0.02752174623310566, -0.06897766143083572, 0.10638941824436188, 0.04615359753370285, 0.05089566111564636, 0.07060687988996506, 0.14052356779575348, 0.04855739325284958, -0.08568251878023148, 0.0795343741774559, 0.12348978221416473, -0.005324143450707197, 0.11651413142681122, 0.08541590720415115, -0.03348114341497421, -0.04883095249533653, 0.06256799399852753, 0.09278938174247742, 0.047308992594480515, 0.0535515695810318, -0.02597983181476593, -0.050068486481904984, 0.06828635931015015, -0.1353127509355545, -0.026671309024095535, -0.02417077124118805, 0.037965837866067886, -0.03305087611079216, -0.0366227850317955, 0.0005878728698007762, -0.016468945890665054, 0.012100329622626305, 0.06478004157543182, 0.09271599352359772, 0.004944491200149059, -0.020755700767040253, 0.026815935969352722, -0.06440642476081848, -0.05970098450779915, -0.041873179376125336, 0.03509620204567909, -0.06597229093313217, 0.11856971681118011, -0.08723258227109909, 0.030449820682406425, 0.0011069118045270443, -0.007482697255909443, 0.00213689380325377, 0.019656343385577202, 0.0314607173204422, -0.04631604999303818, -0.029209671542048454, -0.003469296032562852, -0.032491788268089294, 0.0068466197699308395, -0.022839002311229706, 0.022079646587371826, 0.04689210653305054, -0.010549033060669899, 0.028807567432522774, 0.04834780469536781, 0.03441646322607994, 0.12169475853443146, -0.057477373629808426, 0.03363616392016411, -0.0758790448307991, 0.04318973794579506, -0.09633196890354156, -0.014665047638118267, 0.016116591170430183, -0.05121675506234169, 0.02785458415746689, 0.06427322328090668, 0.08143237233161926, -0.09767630696296692, 0.005838625133037567, 0.0010556154884397984, -0.00606320658698678, -0.038651127368211746, -0.03780891373753548, -0.03371502459049225, 0.03136324882507324, 0.055340006947517395, -0.0007110213628038764, 0.09521032124757767, 0.01400885172188282, 0.002136441646143794, 0.020966297015547752, -0.03077518753707409, 0.04737449064850807, 0.039042141288518906, -0.02244202233850956, -0.018355367705225945, 0.01529702078551054, -0.05307919532060623, 0.07087554782629013, 0.03688327223062515, -0.02027970552444458, -0.004083926323801279, 0.05452898517251015, -0.04047505557537079, 0.009835458360612392, -0.01278102956712246, 0.028556466102600098, -0.09000219404697418, 0.024594144895672798, -0.0409589521586895, -0.0004570823221001774, 0.06833793967962265, -0.034726791083812714, 0.031229998916387558, 0.0285638440400362, -0.034309402108192444, 0.012345629744231701, 0.05032530054450035, -0.01255560852587223, -0.04469607397913933, -0.0065569947473704815, -0.013336009345948696, 0.0006598429172299802, -0.05775829404592514, -0.09494888782501221, 0.005241891834884882, 0.04640369489789009, -0.02262035198509693, 0.03680889680981636, -0.09545224905014038, -0.009808378294110298, -0.05629080906510353, 0.050848186016082764, 0.0075203487649559975, -0.007824367843568325, -0.003173524746671319, -0.04011573642492294, -0.03001810610294342, 0.006150560919195414, -0.006031815893948078, -0.00547149870544672, -0.0034529271069914103, 0.013877364806830883, -0.02383999153971672, -0.013723904266953468, -0.0007343894685618579, -0.007513768970966339, -0.005826193373650312, 0.0004155206843279302, 0.0015654759481549263, 0.008060235530138016, 0.0002298951003467664, 0.0012584535870701075, 4.094501491636038e-05, -0.0011861991370096803, 2.3448196770914365e-06, 9.482334917265689e-09, 3.7583714629363385e-07, 8.631425885141653e-08, 3.0809601980763546e-08, 7.636927534804272e-08, 1.4655272551067355e-08, -9.533243883197429e-08, 8.467203826967307e-08, -4.438773970605325e-08, -0.052614759653806686, -0.14685514569282532, -0.06268219649791718, -0.08179356157779694, 0.06656219065189362, 0.07912049442529678, 0.09571072459220886, 0.07629629224538803, -0.180810809135437, 0.11423049122095108, 0.10530133545398712, 0.05119949206709862, -0.028834939002990723, 0.039731938391923904, -0.04146397113800049, -0.07693702727556229, 0.0009249256108887494, 0.0026904805563390255, 0.04095707833766937, -0.0014757122844457626, 0.0339808315038681, 0.0014874391490593553, -0.008229546248912811, 0.03702216595411301, -0.04029156640172005, 0.081952765583992, -0.12820303440093994, 0.0383569709956646, -0.021068159490823746, -0.05382712557911873, 0.09050147235393524, -0.06703107059001923, 0.10634520649909973, -0.06841391324996948, -0.041632797569036484, 0.012883242219686508, 0.027720576152205467, 0.030946064740419388, -0.014016064815223217, 0.015508895739912987, 0.00876295194029808, -0.002119917655363679, 0.07293078303337097, 0.046593453735113144, 0.0425720252096653, 0.03148825839161873, 0.05550244078040123, 0.008113771677017212, -0.05007299408316612, -0.00018855482630897313, 0.08619774132966995, -0.01089764665812254, -0.049937330186367035, -0.0022735767997801304, -0.025008730590343475, 0.0362546481192112, -0.021473612636327744, -0.004194467794150114, 0.083770252764225, -0.05481250584125519, 0.05764947086572647, -0.01034807600080967, 0.07785142958164215, 0.005916644353419542, -0.0056433421559631824, -0.012001337483525276, 0.01962495967745781, 0.007924345321953297, 0.016936907544732094, -0.03710455819964409, 0.060371529310941696, 0.06649187952280045, -0.010193206369876862, -0.020157309249043465, 0.005308481864631176, -0.006125883664935827, 0.007727975491434336, -0.025841377675533295, -0.0177894476801157, 0.017812581732869148, -0.03452477976679802, 0.04037444293498993, -0.02046542428433895, 0.004313092678785324, 0.0006888381321914494, -0.01544443890452385, 0.02905602939426899, -0.08588174730539322, -0.017844226211309433, 0.057471077889204025, 0.01298922672867775, 0.009468684904277325, 0.017760494723916054, -0.010172287933528423, 0.004785357974469662, -0.028213994577527046, 0.02435210719704628, 0.08643728494644165, -0.0820639431476593, 0.020585233345627785, 0.0013812246033921838, 0.017324119806289673, -0.004178018309175968, -0.03179318085312843, 0.02693857252597809, -0.04842255637049675, -0.012035339139401913, 0.03420185670256615, -0.023705676198005676, 0.01953059993684292, -0.008819716982543468, -0.02179824374616146, 0.0006908233626745641, -0.01870706118643284, 0.017757998779416084, -0.010980942286550999, -0.01670733094215393, 0.0063890116289258, 0.00907978042960167, -0.018629012629389763, 0.004333209246397018, -0.018969055265188217, -0.0028369338251650333, 0.039639003574848175, 0.046671394258737564, 0.07924448698759079, -0.0005623807082884014, 0.016855403780937195, 0.048729438334703445, 0.012815555557608604, 0.0014649551594629884, -0.01186272595077753, -0.00043349660700187087, -0.0005622552707791328, 0.0005143305170349777, 0.006424775347113609, 0.00331849860958755, -0.0036281761713325977, 0.000748527585528791, -0.002543829847127199, 0.004799860529601574, -0.007482660003006458, -0.026707328855991364, 0.014581437222659588, 0.007363161537796259, -0.00445177685469389, -0.011974258348345757, -0.00011640324373729527, 0.0015535266138613224, -0.000714811438228935, -0.001333132036961615, 0.0010574788320809603, -0.0034144381061196327, 0.00023750780383124948, -0.000678269483614713, -1.6639094724268944e-07, 1.6006350733732688e-07, 3.033814977015936e-09, 1.7374946992276818e-07, -8.174485088829897e-08, -1.5802866926151182e-07, -9.63901314321447e-09, -4.784029528082101e-08, -9.695575897694653e-08, -3.770117018575547e-08, 0.05550653487443924, -0.019612299278378487, 0.036304913461208344, -0.0586368590593338, 0.007977310568094254, -0.07140805572271347, 0.07636886090040207, 0.04449626803398132, -0.0550258532166481, -0.10137853026390076, 0.10181824117898941, -0.09152255207300186, 0.10266336053609848, 0.0022397818975150585, 0.07516492903232574, 0.04504132270812988, -0.028545154258608818, 0.10587607324123383, 0.07509072870016098, 0.038014162331819534, 0.11098507046699524, 0.1315927803516388, 0.04480399563908577, 0.023141255602240562, 0.10226666182279587, 0.003491165116429329, -0.09076593071222305, 0.06341096758842468, -0.016942448914051056, -0.14107932150363922, 0.01782413385808468, 0.004269814118742943, 0.02288784086704254, -0.05200023949146271, 0.004489503800868988, -0.020939577370882034, 0.0047174845822155476, -0.01030120812356472, -0.0017994429217651486, 0.026977643370628357, -0.0011057887459173799, 0.08073914051055908, 0.044315777719020844, 0.020235609263181686, -0.10169646143913269, -0.001447824528440833, 0.00040906775393523276, -0.04651842266321182, -0.07188335061073303, -0.051225293427705765, 0.07175958156585693, 0.010760587640106678, 0.0679226666688919, -0.004799720831215382, -0.04610450938344002, -0.034983228892087936, -0.026390280574560165, -0.006497038062661886, -0.01903410442173481, 0.009112123399972916, -0.04628288373351097, -0.00633722310885787, -0.00502184359356761, 0.006920017302036285, 0.04640742763876915, 0.05717525631189346, 0.031838029623031616, 0.029369132593274117, 0.007623287383466959, 0.05320751667022705, 0.009100235067307949, -0.00036720308708027005, -0.02836749702692032, -0.041889455169439316, 0.003910551778972149, 0.08478567749261856, -0.006346479523926973, -0.07051163911819458, 0.00325306155718863, -0.01892288587987423, 0.02009165845811367, -0.0370396263897419, 0.050811536610126495, -0.03181963786482811, 0.053899072110652924, -0.01632789894938469, 0.013972164131700993, 0.022437382489442825, -0.015981018543243408, 0.011865489184856415, -0.004062152933329344, -0.021734582260251045, 0.06372401118278503, 0.02252798154950142, 0.017846813425421715, 0.042576614767313004, -0.008769293315708637, 0.0037072072736918926, 0.0026933131739497185, 0.015799226239323616, 0.00145426532253623, 0.0034686883445829153, -0.04443177208304405, -0.00751397805288434, 0.00879995059221983, 0.004788590129464865, 0.014787671156227589, -0.003907074686139822, -0.0020347728859633207, -0.007785457652062178, -0.029698090627789497, 0.013658837415277958, 0.01332805771380663, -0.0071832844987511635, 0.0003224770480301231, -0.043998103588819504, -0.0003348191094119102, -0.0013423062628135085, 0.003974165767431259, 0.0012105302885174751, 0.0034202258102595806, 0.00733837578445673, 0.028578635305166245, -0.001485735410824418, -0.0017786548705771565, 0.0005670055979862809, -0.002549398224800825, -0.0005037580849602818, -0.0041947620920836926, -0.004700326360762119, -0.0014301419723778963, 0.0027659102343022823, 0.0002251792757306248, -0.00149582140147686, 0.010012122802436352, -0.0016924638766795397, -0.0015978037845343351, -0.0016433143755421042, -0.0003833927330560982, -0.00026380710187368095, 0.00491195498034358, -0.0019550148863345385, 0.0004744893522001803, -9.775336366146803e-05, -0.002850097371265292, 0.0008143510203808546, -0.007405145559459925, 0.0012644871603697538, 0.012250380590558052, 0.001365432282909751, 0.00030018965480849147, -0.00011680237366817892, -0.00018523198377806693, -0.00011438848014222458, 1.0452167771290988e-05, 1.2817386050301138e-06, 1.383463086312986e-07, 3.358060780556116e-07, 7.545123992258596e-08, 1.6627002707991778e-07, 1.636247475289565e-07, 8.48547330178917e-08, 1.2663781490118708e-07, 6.396737717295764e-08, -3.951932967538596e-07, -0.010549448430538177, 0.01683756895363331, 0.10861783474683762, 0.014570999890565872, -0.04149412736296654, 0.16492608189582825, 0.09270019084215164, -0.01069586630910635, -0.021712198853492737, -0.0835685208439827, -0.009194738231599331, -0.15573400259017944, 0.03131730854511261, 0.020277775824069977, 0.029567761346697807, -0.1090681403875351, -0.005344158969819546, -0.06964084506034851, -0.14529791474342346, -0.030015137046575546, -0.024019112810492516, 0.019611580297350883, 0.05000505968928337, -0.013432689011096954, -0.06576664000749588, -0.07804449647665024, -0.10816406458616257, 0.07492394745349884, -0.05699450522661209, 0.07773447036743164, -0.061657290905714035, -0.010150195099413395, -0.11732102930545807, -0.029144644737243652, 0.04088714346289635, -0.0072468905709683895, -0.004975098185241222, -0.10726584494113922, 0.004994751885533333, -0.009518645703792572, 0.013829248026013374, 0.05828224867582321, 0.02023344859480858, 0.000354323216015473, -0.036512844264507294, 0.010795384645462036, 0.0640467032790184, 0.047660086303949356, -0.045923084020614624, 0.016936903819441795, 0.07593173533678055, -0.013157082721590996, -0.0764114260673523, 0.017957156524062157, 0.015218405984342098, -0.06746866554021835, 0.0045028021559119225, 0.0642256811261177, -0.06587877869606018, -0.005971773527562618, 0.04978329315781593, 0.01880042813718319, 0.004416571464389563, 0.05224017798900604, 0.05901895463466644, 0.001892424188554287, 0.010809083469212055, -0.04773169755935669, 0.015116906724870205, 0.02068076841533184, -0.04756360873579979, 0.005578052718192339, -0.03765012323856354, 0.08154076337814331, 0.08148502558469772, 0.12062405049800873, -0.008473907597362995, 0.06095324084162712, 0.005497513804584742, 0.027993759140372276, -0.016247127205133438, -0.04863792285323143, -0.02430238388478756, -0.011688116937875748, 0.013370523229241371, -0.002353501273319125, 0.013327701017260551, -0.06742680072784424, -0.05169226974248886, -0.028217341750860214, -0.023902449756860733, -0.03792921081185341, -0.025960292667150497, 0.13708777725696564, 0.08385203778743744, -0.011110333725810051, 0.049010325223207474, -0.028584783896803856, 0.03228641673922539, -0.07088543474674225, -0.013655784539878368, -0.06068026274442673, -0.011160776950418949, -0.023813629522919655, -0.03474627062678337, -0.06960359960794449, -0.01634579338133335, -0.03866642341017723, -0.09669514000415802, 0.02388080395758152, -0.022112520411610603, 0.029054319486021996, -0.04180822893977165, 0.021455295383930206, -0.018580280244350433, 0.03395380452275276, 0.011727480217814445, 0.000366793799912557, -0.0028478805907070637, 0.040444232523441315, -0.04747270792722702, -0.06848720461130142, 0.05664649233222008, 0.023793386295437813, -0.037698421627283096, -0.004309679381549358, -0.019692128524184227, -0.0006243099342100322, -0.01644197478890419, 0.0023908806033432484, -0.013332836329936981, 0.006390261929482222, -0.0033501600846648216, -0.005357305984944105, 0.0024596683215349913, 0.0009745246497914195, 0.004753189627081156, -0.0017292855773121119, -0.0020177578553557396, 0.0005243957857601345, 0.001109228003770113, 0.0002699465840123594, -0.006333588156849146, 0.0007610942120663822, 0.008290739730000496, -0.0013060205383226275, 0.013130135834217072, 0.0030388126615434885, -0.0013022789498791099, -0.0007844008505344391, 0.0002991167129948735, 0.0003394759551156312, 0.00016064914234448224, 0.00016141303058248013, 1.9413120753597468e-05, -2.2879322614244302e-07, -2.6800712760177703e-09, -4.7675783321210474e-09, 3.4475252874699436e-08, -2.5233720890582845e-08, -1.0651570647723929e-07, -4.2949110934387136e-09, -1.3597311010471458e-07, -5.829697968806613e-08, 1.4763432432118861e-07, -0.10750503093004227, -0.12055711448192596, 0.010480507276952267, 0.044797468930482864, 0.1118638813495636, 0.13989411294460297, -0.10257329791784286, 0.014910208061337471, -0.09322410821914673, -0.019412606954574585, 0.06552965939044952, 0.04951564595103264, -0.019950462505221367, 0.04596463590860367, -0.07321622967720032, -0.12019262462854385, -0.05801789090037346, -0.026585938408970833, 0.06734804809093475, -0.013759244233369827, -0.011204934678971767, 0.007404031231999397, -0.021375294774770737, 0.09698868542909622, 0.06708241999149323, 0.12387135624885559, 0.0032866892870515585, 0.14146041870117188, -0.09351669251918793, 0.08650454133749008, -0.08966326713562012, -0.014694827608764172, -0.04732136428356171, 0.010790671221911907, 0.022509798407554626, -0.01625615730881691, 0.06839948147535324, -0.029364056885242462, -0.037992361932992935, 0.1061711460351944, 0.10180975496768951, -0.022802989929914474, -0.06590766459703445, 0.041515886783599854, 0.09051433950662613, 0.027246028184890747, 0.08330776542425156, 0.012965064495801926, 0.03379303961992264, 0.029654109850525856, -0.030111152678728104, 0.013974625617265701, 0.004592571873217821, 0.06685078144073486, 0.04261163994669914, -0.03803778067231178, -0.002410292159765959, 0.07964277267456055, 0.014396804384887218, -0.021097861230373383, 0.007713468745350838, 0.03196850046515465, -0.0027498777490109205, -0.013655216433107853, 0.10461389273405075, 0.007872120477259159, 0.017877958714962006, -0.045252058655023575, -0.0030224549118429422, -0.12089776992797852, 0.0018717371858656406, 0.024943644180893898, -0.056044138967990875, 0.0902867540717125, 0.07945919781923294, 0.010527368634939194, -0.018078597262501717, 0.008915676735341549, -0.03438538312911987, 0.12679186463356018, 0.011321206577122211, -0.0011398172937333584, -0.07749975472688675, 0.024495502933859825, -0.014035671018064022, 0.023883098736405373, -0.02395329624414444, -0.071928471326828, -0.0323069803416729, 0.018381992354989052, 0.002100919373333454, -0.058162495493888855, -0.028693068772554398, -0.00038626822060905397, 0.042614880949258804, -0.052014779299497604, 0.0008516533416695893, 0.017757020890712738, -0.007841836661100388, -0.09950447082519531, 0.032026275992393494, 0.1072356104850769, -0.03774885833263397, 0.015960868448019028, 0.010983206331729889, 0.00026651116786524653, -0.02351534552872181, 0.03962751477956772, -0.04714510217308998, 0.0092012332752347, -0.08715090900659561, -0.0033601843751966953, 0.022587895393371582, -0.005794941913336515, 0.012383011169731617, 0.01547833252698183, -0.023569468408823013, -0.03076595440506935, 0.04985102638602257, 0.0059224264696240425, -0.013299025595188141, -0.013042841106653214, 0.024219200015068054, 0.023008743301033974, 0.04808056727051735, 0.028078200295567513, 0.013841798529028893, 0.029898878186941147, 0.015057438053190708, 0.11012004315853119, -0.002822314156219363, 0.03205631300806999, 0.027401069179177284, 0.004082788247615099, 0.05756143108010292, 0.0009640751522965729, 0.06067337840795517, 0.019545841962099075, 0.08032134920358658, 0.00816076248884201, -0.022060371935367584, -0.001083472976461053, -0.08088891953229904, 0.007835721597075462, 0.025476926937699318, 0.0006017933483235538, 0.0006718313088640571, 0.0006354944780468941, -0.0006097670993767679, -8.332424476975575e-05, -0.0021453280933201313, 0.0061864713206887245, 0.00017576872778590769, 0.0004160566022619605, -6.475128611782566e-05, -1.0749355396910687e-06, -2.3221190303956973e-08, -5.325292136149073e-07, -1.7069430668925634e-07, -1.4060249498015764e-07, -6.190533667904674e-07, -2.023139415996411e-07, -7.695268777752062e-08, -6.31269017503655e-07, 8.22744766537653e-07, -0.10876214504241943, 0.021952619776129723, -0.02720990590751171, -0.11187008768320084, 0.09802314639091492, 0.15258890390396118, -0.13910605013370514, 0.09962554275989532, -0.024125227704644203, -0.09409575164318085, 0.0751076191663742, 0.12360246479511261, 0.06419621407985687, -0.1346409171819687, -0.002433929592370987, -0.04328848794102669, -0.15359275043010712, -0.08298648148775101, 0.05398417264223099, 0.10973665118217468, -0.05879376456141472, -0.0897924080491066, 0.06955155730247498, -0.10701098293066025, -0.06981001049280167, 0.028936292976140976, 0.0796244889497757, 0.07656222581863403, 0.013390308246016502, 0.029719388112425804, -0.057525064796209335, 0.0401848703622818, 0.06064951419830322, 0.03970963507890701, -0.044460684061050415, -0.04071507975459099, 0.02998061664402485, -0.02929779514670372, -0.10558547079563141, -0.1041206419467926, 0.09218216687440872, -0.06301465630531311, -0.05497273430228233, 0.05477292463183403, 0.07614206522703171, 0.0030837864615023136, -0.05717138200998306, 0.06070127338171005, -0.005163784604519606, 0.10861878842115402, -0.023655464872717857, -0.004792540799826384, 0.05092347413301468, -0.006868838798254728, 0.04346141964197159, 0.07828543335199356, 0.0030943811871111393, 0.03860482946038246, 0.042155954986810684, 0.04151202365756035, -0.06706485152244568, 0.03356102481484413, 0.04078708589076996, 0.01368819922208786, 0.06389051675796509, -0.0017999046249315143, -0.024109505116939545, 0.011835990473628044, 0.035207487642765045, -0.003960139118134975, 0.073794886469841, -0.05434425175189972, -0.07433761656284332, 0.03951415792107582, 0.0168678667396307, -0.025679288432002068, -0.11911344528198242, 0.04040569067001343, -0.03788169100880623, 0.11847878247499466, 0.038119081407785416, 0.007355306297540665, 0.017547134310007095, -0.023782024160027504, 0.019300615414977074, -0.045795977115631104, -0.03674333915114403, 0.0020261798053979874, -0.08026063442230225, -0.02089770697057247, 0.002981354482471943, -0.004898310173302889, 0.01882048137485981, 0.0683797225356102, 0.05113261193037033, -0.026645401492714882, 0.04991248995065689, 0.10115464776754379, -0.07873442769050598, 0.032042913138866425, -0.012895382940769196, 0.023975316435098648, -0.007864855229854584, -0.014257802627980709, -0.028776109218597412, -0.01131288893520832, 0.0017424320103600621, 0.0564502477645874, 0.006296481937170029, 0.053879689425230026, -0.040635257959365845, -0.0949687510728836, 0.09693233668804169, 0.07191422581672668, -0.02085181325674057, -0.04948599636554718, 0.021238647401332855, -0.09142415970563889, -0.015880964696407318, -0.028063351288437843, -0.04718891531229019, 0.011661323718726635, 0.034703705459833145, 0.04018176719546318, 0.02374405786395073, 0.04333631321787834, -0.0004611345357261598, 0.054506998509168625, 0.014974310994148254, -0.012609707191586494, -0.048978451639413834, 0.09178275614976883, -0.023529352620244026, -0.003042839467525482, 0.047016143798828125, -0.02873900532722473, 0.004568613134324551, 0.03157537057995796, 0.0657312199473381, -0.00569035904482007, -0.02833787351846695, -0.0012941918103024364, -0.023280182853341103, 0.013604900799691677, -0.0034086662344634533, 0.00331766321323812, -0.012579105794429779, 0.0006632672739215195, 0.0041272686794400215, 0.000237763742916286, 0.001035627443343401, -0.0006227248813956976, 0.0002585227775853127, -0.023307356983423233, 0.00023029380827210844, 1.458743668081297e-07, 3.426953654184217e-08, -2.343069382959584e-08, -6.498880367189486e-08, -2.3220749767460802e-09, 6.4123453213937864e-09, -2.4657347275081065e-09, 3.895694078437373e-08, 8.666018125325081e-09, 2.954962496914959e-08, -0.03573565557599068, -0.09045519679784775, -0.053118158131837845, 0.08311881124973297, -0.06255966424942017, -0.0984249860048294, -0.026550978422164917, 0.028516162186861038, -0.026306502521038055, 0.1164969801902771, -0.10329657047986984, 0.18011318147182465, -0.009808440692722797, -0.034645259380340576, -0.13914208114147186, 0.04961792379617691, 0.0325249582529068, 0.058657266199588776, 0.0998380035161972, 0.07997006177902222, 0.0009526711655780673, 0.01261244434863329, -0.1020558699965477, 0.09538635611534119, 0.07957624644041061, 0.06443087756633759, 0.046526577323675156, -0.16887517273426056, 0.10378143191337585, -0.038897112011909485, -0.10427483916282654, -0.10544028878211975, -0.1217479556798935, 0.04096056520938873, -0.04130572825670242, 0.0011733263963833451, 0.015397577546536922, 0.09343826025724411, 0.0015764025738462806, -0.1290208250284195, -0.058526817709207535, 0.12450603395700455, -0.0358656644821167, -0.031305670738220215, 0.06299181282520294, -0.03869958966970444, -0.09610142558813095, -0.056604575365781784, 0.08371467143297195, 0.022425267845392227, -0.0864408016204834, -0.09160799533128738, 0.012854649685323238, -0.0649300068616867, -0.05496322363615036, 0.09251908212900162, -0.10077240318059921, -0.09268071502447128, 0.03337825834751129, 0.06832566857337952, -0.07586215436458588, -0.033045291900634766, 0.052436765283346176, 0.015537852421402931, 0.004436795134097338, -0.03873280808329582, 0.10788209736347198, 0.03310036286711693, 0.019616123288869858, -0.015501017682254314, -0.06095274165272713, -0.04026671126484871, -0.04139481112360954, 0.03052390180528164, -0.0692625343799591, 0.02570142224431038, 0.011011043563485146, -0.07727336883544922, -0.008208314888179302, 0.010892866179347038, 0.0007071698782965541, 0.04555319994688034, -0.006795172579586506, 0.06484894454479218, -0.01202441193163395, -0.028202902525663376, -0.03330720588564873, 0.05804334580898285, 0.012877422384917736, -0.029522506520152092, 0.039200033992528915, -0.018449824303388596, 0.023236440494656563, -0.1328977346420288, -0.05311111360788345, 0.05640716478228569, -0.017617667093873024, 0.06905557960271835, 0.022292610257864, 0.013141689822077751, -0.035216134041547775, 0.00776390265673399, 0.07868942618370056, 0.004578223451972008, -0.0017387844854965806, 0.024893324822187424, -0.07517862319946289, 0.030189717188477516, -0.017071926966309547, 0.05007820576429367, 0.028223009780049324, 0.0050756661221385, 0.02729548141360283, -0.013107209466397762, -0.0006772331544198096, -0.019397718831896782, -0.07899700105190277, -0.0176591444760561, 0.02117236703634262, -0.016998156905174255, 0.03681071102619171, 0.05980541929602623, -0.04221437871456146, -0.03800925984978676, -0.033106449991464615, -0.004002610687166452, -0.011123156175017357, -0.0009274058393202722, 0.013123736716806889, -0.0017236145213246346, 0.025374989956617355, 0.010624867863953114, -0.04757948964834213, -0.004017074126750231, -0.004042406100779772, -0.061810895800590515, 0.018692785874009132, -0.031888674944639206, -0.015581715852022171, 0.002922268118709326, -0.010481282137334347, -0.002022102475166321, 0.0029618991538882256, 0.003277164651080966, -0.002476561814546585, 0.0018733947072178125, 0.0006987259839661419, 0.00043729590834118426, 1.945065150721348e-06, -0.0029317792505025864, 0.013297748751938343, -4.2042596760438755e-05, 0.00044088123831897974, 7.320956501644105e-05, 0.0033184289932250977, 1.0922970261617593e-07, 5.193597871766542e-07, 4.3197795207561285e-07, -3.1686340662417933e-07, 5.209119535720674e-08, 4.0215292074208264e-07, 3.744785814774332e-08, 5.508984202151623e-08, -1.3212758176450734e-07, 6.615442060819987e-08, 0.04155028238892555, 0.0010989730944857001, -0.08109059929847717, -0.02767210081219673, 0.026541585102677345, 0.08143889158964157, -0.0620475709438324, 0.007081968244165182, -0.09213001281023026, 0.0016751548973843455, 0.028653688728809357, 0.014527461491525173, 0.09641174226999283, 0.08455748856067657, -0.04969772696495056, 0.06542979925870895, -0.07566701620817184, -0.003472056007012725, -0.02967994101345539, -0.09940356016159058, -0.0591549277305603, 0.0980413481593132, 0.08750754594802856, -0.09500262886285782, 0.08697792887687683, 0.0036892201751470566, 0.01047093328088522, -0.1176748052239418, 0.012679539620876312, 0.06736534088850021, -0.0010994767071679235, -0.04880571365356445, -0.0020879164803773165, -0.10213279724121094, 0.08805032074451447, 0.018762363120913506, -0.08499077707529068, 0.015750383958220482, -0.03531646728515625, 0.0003241457452531904, -0.021173078566789627, 0.02142241783440113, 0.015568316914141178, 0.03134629875421524, -0.04870539903640747, 0.062274254858493805, -0.04998450353741646, 0.005336255766451359, 0.0031792963854968548, -0.06050993502140045, 0.02837495692074299, -0.013059347867965698, 0.018509361892938614, 0.00409443024545908, -0.0008133974624797702, -0.026875311508774757, -0.04467490315437317, 0.011292030103504658, -0.0645190179347992, 0.0057916706427931786, 0.01619844324886799, -0.01149039063602686, -0.04147634655237198, 0.04352535307407379, 0.02553015947341919, 0.032687049359083176, -0.006516017019748688, 0.015004039742052555, -0.003029781160876155, 0.0013091207947582006, -0.026395564898848534, 0.00925744790583849, -0.03199389576911926, -0.026930486783385277, -0.00910950917750597, -0.035481229424476624, 0.0015424403827637434, -0.010008175857365131, 0.011416652239859104, -0.061553847044706345, -0.003085661679506302, -0.022891940549016, -0.006684907712042332, 0.01956711709499359, 0.006624600850045681, -0.056709855794906616, -0.0165503341704607, 0.00922105647623539, -0.005684465169906616, 0.00595749169588089, 0.028289785608649254, -0.030581971630454063, 0.00031724144355393946, -0.019652433693408966, -0.02130100317299366, 0.043761469423770905, -0.018872424960136414, -0.023754365742206573, -0.0020552119240164757, -0.040074463933706284, -0.02988152764737606, 0.01851717010140419, -0.02130395732820034, 0.004949586465954781, 0.018872730433940887, 0.006538774818181992, -0.022048931568861008, -0.005820835940539837, 0.0012226339895278215, 0.004126232583075762, -0.002668401226401329, -0.002203534124419093, -0.04608927294611931, 0.005571475252509117, -0.004069669637829065, 0.028895758092403412, -0.012833195738494396, 0.026060929521918297, -0.01403740793466568, 0.005088647827506065, -0.008801774121820927, 0.0017268595984205604, 0.016797726973891258, 0.005620197393000126, -0.014943530783057213, 0.004151374567300081, 0.007315047085285187, -0.017156675457954407, -0.01990601047873497, 0.0006660802173428237, -0.013930614106357098, 0.003115695668384433, 0.004551612306386232, -0.0016259626718237996, -0.0005239516613073647, -0.024575263261795044, 0.005333622917532921, -0.0007737605483271182, 0.0008428875589743257, 0.002751802559942007, 0.019281476736068726, -0.00019933558360207826, 0.022534675896167755, -0.0016800099983811378, -0.01946265622973442, 0.0011184688191860914, -0.0004903605440631509, 0.00014877051580697298, 2.80685126199387e-05, -0.013496753759682178, 0.0005298482719808817, 0.00022413443366531283, 0.0001797613367671147, -0.00010826329526025802, -5.05936513945926e-05, 2.92009622171463e-06, 1.3237411167210666e-08, 2.5832932237790374e-07, -4.585530177791952e-08, 6.304941280177445e-07, 6.939831109775696e-07, 8.007944529708766e-08, -7.675228630432684e-08, 1.196802799086072e-07, -3.7560511145784403e-07, 0.029633793979883194, -0.067242830991745, 0.084595687687397, 0.08336078375577927, 0.04200126603245735, 0.03688620775938034, 0.0032951259054243565, 0.08141694217920303, 0.014003542251884937, -0.09708766639232635, -0.032340195029973984, 0.10066421329975128, -0.06593170762062073, -0.08589470386505127, -0.030364835634827614, -0.032247066497802734, 0.13240690529346466, 0.06439311057329178, 0.10744281113147736, -0.17078767716884613, 0.14310073852539062, -0.009484192356467247, -0.0819406807422638, 0.15237341821193695, 0.020933393388986588, 0.001268777996301651, -0.03691341355443001, 0.06693094223737717, -0.0030596109572798014, -0.034796420484781265, 0.07928767055273056, -0.0067155566066503525, -0.08256155997514725, -0.145440474152565, -0.06801207363605499, -0.034379150718450546, 0.07664214074611664, 0.05293567478656769, 0.000813218008261174, -0.04663780704140663, 0.0013102499069646, 0.04223722219467163, 0.046177200973033905, -0.02513181045651436, 0.010725169442594051, 0.04901278764009476, -0.002829930977895856, -0.07578276842832565, 0.05331640690565109, 0.0964377373456955, -0.05960049107670784, 0.07399353384971619, 0.03393896296620369, -0.09897100925445557, 0.12050788104534149, 0.0058834124356508255, -0.12896683812141418, -0.026869680732488632, -0.018070867285132408, -0.07202262431383133, 0.03438933193683624, 0.05122247338294983, 0.03400960564613342, 0.06708497554063797, -0.08413736522197723, 0.008051659911870956, 0.05886895954608917, 0.03109116107225418, 0.09852031618356705, -0.03699280694127083, 0.03684677183628082, 0.035365138202905655, 0.012199562974274158, -0.019876407459378242, 0.06544000655412674, 0.04953469708561897, 0.05484571307897568, -0.030998876318335533, -0.018890732899308205, -0.07059228420257568, 0.02656688168644905, -0.02205621264874935, -0.026376336812973022, 0.02151581645011902, -0.0780409723520279, -0.07081331312656403, -0.03442870080471039, 0.07260026037693024, 0.00035360039328224957, 0.01955772191286087, 0.05218945071101189, -0.045069120824337006, 0.007337069604545832, -0.032103531062603, -0.09499723464250565, -0.04177885875105858, 0.08218406140804291, -0.04656332731246948, -0.016312500461935997, 0.0201092716306448, 0.05988108366727829, 0.00288065942004323, 0.11542031913995743, 0.07919059693813324, 0.0030239601619541645, -0.05952780321240425, -0.06577092409133911, 0.06339327245950699, 0.042554646730422974, 0.07509894669055939, 0.07761223614215851, -0.043588101863861084, -0.04810594394803047, -0.0030037728138267994, 0.008402460254728794, 0.014123352244496346, 0.054085228592157364, 0.007807869464159012, -0.008638100698590279, 0.00868652481585741, 0.038065921515226364, -0.019009744748473167, -0.019484976306557655, -0.06072879210114479, 0.011227104812860489, 0.02127160131931305, 0.021023260429501534, -0.027921026572585106, 0.04285206273198128, 0.005576008930802345, 0.04898505285382271, -0.056326981633901596, 0.04616178199648857, 0.008042396977543831, 0.0014427050482481718, -0.014462032355368137, 0.009500361047685146, -0.05699080228805542, 0.04534166306257248, -0.02542603574693203, -0.004783074837177992, 0.023839125409722328, -0.04245561361312866, 0.007964990101754665, 0.011641710065305233, 0.0021290560252964497, -0.003449789248406887, 0.0006227409467101097, -0.005214158445596695, -0.001379971276037395, 0.0320722758769989, -0.0009055676637217402, 0.0022173880133777857, 6.387585017364472e-05, 0.008934100158512592, -2.559514086897252e-06, -6.213957703948836e-07, -1.448162549877452e-07, 4.4751686800736934e-08, -8.72282868158436e-08, -1.1768775038945023e-06, -1.3015002764404926e-07, 1.3230979334366566e-07, -6.514281949421274e-07, 2.6580008238852315e-07, -0.08466659486293793, -0.024831028655171394, 0.09101368486881256, -0.12679383158683777, -0.024606171995401382, 0.07802402973175049, 0.07732612639665604, -0.10829239338636398, 0.0444672517478466, -0.1196180209517479, -0.00333386124111712, 0.024050312116742134, 0.017673272639513016, -0.000731609936337918, -0.06970050930976868, 0.049731120467185974, -0.0036368402652442455, -0.1584237515926361, -0.12492880970239639, 0.15522168576717377, -0.09588219225406647, 0.06337304413318634, -0.018479930236935616, 0.1070772334933281, 0.02203490026295185, -0.018540259450674057, -0.01327153667807579, 0.042335145175457, -0.042009320110082626, 0.047754157334566116, 0.009080308489501476, 0.010262450203299522, -0.06448697298765182, 0.034097183495759964, -0.0025564394891262054, 0.01405225321650505, -0.040645211935043335, -0.011324062943458557, 0.0011892699403688312, -0.014884515665471554, 0.043869197368621826, 0.0006237471243366599, 0.0003016896080225706, 0.004319268278777599, 0.07037919014692307, -0.01590891182422638, -0.0028940553311258554, 0.05526277422904968, 0.042208846658468246, -0.0189041830599308, -0.059172213077545166, -0.09959939867258072, -0.0924156904220581, 0.010049405507743359, 0.025640929117798805, -0.01895434595644474, 0.02753550000488758, -0.030619120225310326, -0.037894055247306824, 0.056284379214048386, 0.02127835527062416, -0.00610312120988965, -0.02890590950846672, 0.08499689400196075, -0.008129026740789413, 0.010970905423164368, 0.013126889243721962, 0.007988697849214077, -0.07650711387395859, -0.07101073116064072, -0.008166453801095486, -0.08171837776899338, -0.036769721657037735, -0.02452956512570381, 0.08399954438209534, 0.036174092441797256, -0.03482089564204216, 0.02772686630487442, 0.0007905754609964788, 0.0645746961236, 0.033648740500211716, -0.017614301294088364, -0.04213179647922516, 0.014597056433558464, -0.06890122592449188, 0.015802431851625443, 0.010934488847851753, -0.0064445724710822105, -0.07252474129199982, -0.0567731037735939, 8.052543853409588e-05, -0.00398827763274312, 0.0037021415773779154, 0.057778533548116684, 0.04849611595273018, -0.01118397619575262, 0.014975040219724178, -0.024961138144135475, 0.03255713731050491, -0.03934003785252571, -0.024053972214460373, 0.018452351912856102, -0.04027847945690155, 0.0043267663568258286, -0.011511318385601044, 0.021476007997989655, -0.004883685149252415, -6.64938852423802e-05, -0.05808424949645996, 0.002029992174357176, 0.00027981388848274946, 0.008258330635726452, -0.0003384193405508995, 0.030329667031764984, -0.008434622548520565, 0.0003159172192681581, 0.021135471761226654, -0.0048554628156125546, -0.010756655596196651, 0.0011735368752852082, -0.014608615078032017, 0.025173505768179893, 0.006972463335841894, -0.02801784873008728, -0.006844101939350367, -0.00493467366322875, -0.0015579985920339823, -0.005553879775106907, 0.020954398438334465, -0.005099781323224306, -0.002049473812803626, -0.0004393332055769861, 0.004222034942358732, -0.0011880805250257254, -0.0027447703760117292, 0.002813532715663314, 0.0008344470988959074, -0.000209374979021959, 0.003490460105240345, 0.004165510646998882, -0.004950667731463909, 0.0006373068899847567, 0.047924142330884933, -0.008422567509114742, -0.005664302501827478, 0.005779739003628492, 0.0024226070381700993, 0.0031940771732479334, -9.558276360621676e-05, 0.001182751264423132, -0.0021086055785417557, -0.0024042432196438313, 0.0022004980128258467, -8.263090421678498e-05, -0.0011576790129765868, 1.700666416581953e-07, -1.351264344862102e-08, -4.6261181552154085e-08, 1.470615558218924e-07, 7.66754055803176e-08, -2.416309463626476e-08, -9.593080996239678e-09, 5.677868841758027e-09, 9.863441619017976e-09, -4.720868318486282e-08, 0.048288743942976, 0.005024258978664875, -0.0919347032904625, 0.028086593374609947, -0.04859665781259537, 0.02315256930887699, -0.048260100185871124, -0.07455191761255264, 0.1689303070306778, 0.026682553812861443, -0.09559568017721176, -0.09897960722446442, 0.017022322863340378, 0.01739250123500824, -0.12767037749290466, -0.036966342478990555, 0.06845317035913467, 0.18347565829753876, 0.023876231163740158, -0.1301201432943344, 0.030433563515543938, -0.11856266856193542, -0.07057058811187744, -0.08466731756925583, -0.0004768861108459532, -0.011781616136431694, 0.13047602772712708, -0.09165499359369278, -0.0693550780415535, 0.07043486088514328, -0.006271706894040108, 0.07701871544122696, -0.010611001402139664, -0.039298638701438904, 0.0018133559497073293, -0.07123616337776184, 0.01361121516674757, -0.0447305403649807, 0.005753891076892614, 0.05445922538638115, 0.003356135217472911, -0.004695186857134104, 0.10866466164588928, -0.05008305609226227, -0.0234864242374897, 0.03938033804297447, 0.0467311292886734, 0.03014332801103592, 0.06902091205120087, 0.050669848918914795, 0.07329671829938889, -0.009138742461800575, -0.058581653982400894, -0.08370867371559143, -0.006581299006938934, 0.07259263843297958, 0.0291207917034626, -0.004041219595819712, -0.08078757673501968, -0.006319565698504448, -0.03517942503094673, -0.0383235327899456, 0.0392722487449646, 0.11282281577587128, -0.10136666148900986, 0.03456687554717064, 0.03951549157500267, -0.05374454706907272, 0.012019247747957706, -0.024100767448544502, -0.04340886324644089, -0.0204152911901474, 0.022062091156840324, -0.06197070702910423, 0.09612435102462769, 0.0656956359744072, -0.01588989980518818, -0.004740886390209198, 0.004492567852139473, -0.036143433302640915, 0.07522393763065338, -0.0076739895157516, -0.060965847223997116, 0.0783766508102417, 0.04935271665453911, -0.023503068834543228, -0.06949904561042786, 0.07670114934444427, 0.02583416737616062, 0.021534379571676254, -0.04326968267560005, -0.030694585293531418, -0.04610457271337509, 0.05187086760997772, 0.009669085964560509, -0.022075623273849487, 0.08994542807340622, -0.034042637795209885, -0.02297964133322239, 0.05795593559741974, 0.10139980912208557, -0.027917226776480675, 0.10146662592887878, 0.0356329046189785, -0.05619378760457039, -0.06970290094614029, -0.059469327330589294, -0.0009008658234961331, 0.03891422972083092, -0.012896464206278324, 0.06447800993919373, -0.08199744671583176, -0.08352172374725342, -0.03879908099770546, -0.003243536688387394, -0.03886893391609192, 0.03996805474162102, 0.061103567481040955, 0.031752463430166245, -0.02557714283466339, 0.012345348484814167, -0.06568751484155655, -0.03268897533416748, -0.050624288618564606, 0.045944176614284515, -0.012565010227262974, 0.023888712748885155, 0.024049488827586174, -0.016806431114673615, 0.043291933834552765, 0.010971329174935818, -0.07945316284894943, -0.01084135938435793, 0.012754632160067558, -0.03445163369178772, 0.0646417960524559, -0.010587590746581554, -0.006223824806511402, 0.010216252878308296, -0.0011206883937120438, -0.0003540946636348963, 0.0390433669090271, -0.016002429649233818, 0.006688296794891357, 0.00033274065935984254, -0.014545975252985954, -0.0020016590133309364, -0.008135342970490456, -0.0034884850028902292, -0.002886482048779726, 0.020322639495134354, -0.00021155057766009122, -0.013210191391408443, -3.8106679767224705e-06, 0.007705213036388159, -9.102042497488583e-08, -4.421259802711575e-09, -5.097553668065302e-08, -2.5702405537231243e-08, -8.501637438484977e-08, -1.4218344723815335e-08, 6.62227392922432e-08, -1.1225869123165921e-08, -3.273952486892995e-08, -3.501865464272669e-08, 0.1096104234457016, 0.016404936090111732, 0.010256841778755188, 0.002580272499471903, -0.02121577039361, 0.019938085228204727, 0.004328547045588493, -0.046100568026304245, -0.12961509823799133, 0.06155245751142502, 0.04161505773663521, -0.03636111691594124, -0.07752270251512527, -0.08308621495962143, 0.1329413503408432, 0.009514176286756992, 0.032972369343042374, 0.08156447857618332, 0.07346606254577637, -0.05945136398077011, 0.051052697002887726, 0.08005610853433609, 0.08232675492763519, 0.06863302737474442, 0.05768626555800438, 0.015172496438026428, -0.027743585407733917, 0.12074106931686401, -0.014290135353803635, -0.13115602731704712, 0.011186586692929268, 0.04958385229110718, 0.0038286352064460516, -0.03278585150837898, 0.09583426266908646, -0.005370361730456352, 0.08998779207468033, 0.01077217422425747, 0.03926019370555878, 0.05722595378756523, -0.03244388848543167, -0.020478807389736176, 0.03327709063887596, 0.024193832650780678, 0.024864548817276955, 0.0315416119992733, 0.002919921651482582, -0.09358083456754684, -0.07474488765001297, -0.005011143162846565, 0.05839458853006363, 0.005080278962850571, 0.10537885129451752, -0.03165726736187935, -0.023610031232237816, -0.028117744252085686, -0.016380194574594498, -0.011088971979916096, -0.042859598994255066, 0.0481560043990612, -0.029869800433516502, 0.0023427619598805904, 0.11433997005224228, 0.0010185589781031013, 0.03723852336406708, -0.0567704401910305, 0.03251703456044197, 0.02138533443212509, 0.00909717008471489, 0.0019255058141425252, 0.03697299584746361, 0.016146056354045868, -0.0024229800328612328, -0.009301132522523403, 0.008294631727039814, 0.048700883984565735, -0.009919838979840279, -0.07783962786197662, 0.012876086868345737, -0.0344933345913887, -0.02078936994075775, -0.021558724343776703, 0.08866861462593079, -0.00047468525008298457, 0.018618112429976463, 0.015449898317456245, 0.03637872636318207, -0.025974970310926437, -0.01227595005184412, -0.025891970843076706, -0.008714166469871998, 0.03234754875302315, 0.026770006865262985, 0.054368436336517334, -0.03248443827033043, 0.00913670938462019, 0.002319113351404667, 0.020401012152433395, -0.03646031767129898, 0.018077466636896133, 0.00975800771266222, -0.037104956805706024, -0.03820674121379852, -0.05281234160065651, 0.01548449695110321, 0.01742006279528141, 0.01911924034357071, -0.0198954027146101, 0.029767831787467003, -0.031124550849199295, -0.050047099590301514, 0.02411077544093132, 0.04439697042107582, -0.04231847822666168, 0.003414717735722661, -0.012520715594291687, -0.006098652258515358, -0.0016335718100890517, 0.006735366769134998, -0.004093321505934, 0.013280022889375687, 0.003996774088591337, -0.01683969609439373, -0.004102864768356085, 0.0078887352719903, 0.002783548552542925, -0.009114312939345837, 0.011743278242647648, 0.0002055503719020635, -0.007290876004844904, 0.0006510188686661422, 0.008877082727849483, -0.0004526606935542077, -0.0035082825925201178, 0.005548384971916676, -0.0027134802658110857, -0.0008405077387578785, -0.002045013941824436, -0.0022105416283011436, -0.0011592386290431023, 0.006196699570864439, 0.00114075664896518, -0.002045017434284091, 0.0013380047166720033, 0.0009235882898792624, 0.0013546241680160165, -0.016464196145534515, -0.0012678903294727206, 0.0008277185843326151, -0.0004706609179265797, -8.711379632586613e-05, 0.00019706077000591904, -0.0002007891162065789, 6.459167707362212e-06, 0.00015769721358083189, 8.448973858321551e-07, 1.63523292684431e-08, 5.2164438102408894e-08, -8.010478325104486e-08, 1.600009937874347e-07, 6.985823119975976e-08, 2.1453800513882015e-08, -1.345721472034711e-07, -2.0419165025487018e-08, -7.110465105597541e-08, -0.0658140480518341, 0.0313849113881588, -0.06339472532272339, 0.011189637705683708, 0.03635730594396591, -0.021267632022500038, 0.14128389954566956, -0.052659764885902405, 0.0055333408527076244, -0.051543671637773514, -0.005003892816603184, -0.04294939339160919, -0.07185281068086624, 0.1365446150302887, 0.10903019458055496, 0.08579561114311218, -0.17056581377983093, -0.08139557391405106, -0.08315488696098328, 0.1475897878408432, -0.06034952402114868, 0.12282078713178635, 0.0675296038389206, -0.05198664963245392, -0.06296267360448837, 0.012456786818802357, -0.029051832854747772, -0.11200924217700958, 0.0442999005317688, -0.07097242027521133, -0.018786165863275528, -0.06853224337100983, 0.04063735529780388, 0.010776217095553875, -0.005462621338665485, 0.10809729248285294, -0.013606367632746696, -0.05802037939429283, -0.09387171268463135, -0.09618981182575226, 0.02330646850168705, 0.043255940079689026, -0.032077424228191376, 0.059959154576063156, 0.05307349935173988, -0.0722646713256836, 0.044071268290281296, 0.08100777864456177, -0.027407608926296234, -0.02180640585720539, 0.04266248270869255, -0.08193712681531906, -0.042846113443374634, 0.008793875575065613, 0.0030192434787750244, -0.01699426956474781, 0.0636344701051712, 0.05586722120642662, 0.04747284948825836, -0.03550037741661072, 0.1299213320016861, -0.07549849897623062, -0.09556058794260025, -0.04979304224252701, 0.10702776908874512, 0.03895055875182152, -0.025102786719799042, 0.06639617681503296, 0.006583969108760357, 0.010457444004714489, -0.012716783210635185, 0.09062385559082031, -0.019859449937939644, 0.008852323517203331, -0.012544073164463043, -0.006276324391365051, -0.02537108026444912, 0.012386992573738098, 0.004011742305010557, -0.08001502603292465, -0.08499517291784286, 0.023548556491732597, 0.024828892201185226, -0.07135852426290512, 0.044237442314624786, 0.022960271686315536, 0.10389842838048935, -0.10212883353233337, 0.02266448736190796, -0.015565388835966587, 0.003965283744037151, 0.10751821100711823, -0.07940800487995148, 0.00921658705919981, 0.04200082644820213, 0.12802712619304657, -0.05634152144193649, 0.033735793083906174, 0.07237246632575989, 0.015707746148109436, -0.116405189037323, -0.06696649640798569, -0.12856362760066986, -0.006510606501251459, 0.020237654447555542, 0.06277479231357574, 0.054778072983026505, 0.020485570654273033, -0.014739572070538998, 0.006028129253536463, 0.07479805499315262, 0.02862202748656273, -0.021737128496170044, 0.0012774168280884624, -0.05134809762239456, 0.04030507057905197, -0.048014938831329346, 0.017955943942070007, -0.05530457943677902, 0.10336124897003174, 0.004715103656053543, -0.006972296629101038, -0.047975052148103714, 0.005463715642690659, 0.07232611626386642, -0.03758002072572708, -0.05641276389360428, 0.07578397542238235, -0.07531844079494476, -0.06598980724811554, -0.04557092860341072, 0.06742417812347412, -0.0685657262802124, -0.0674193874001503, 0.013107169419527054, -0.06190688908100128, -0.0024285062681883574, -0.002158302580937743, -0.07176387310028076, 0.001375023741275072, 0.040934059768915176, -0.02530786767601967, 0.07371027022600174, -0.050716329365968704, 0.004278659820556641, -0.007161631248891354, 0.04677107557654381, 0.00048057924141176045, 0.011093207634985447, 0.008437389507889748, -0.006616124417632818, -0.003551917616277933, 0.007152223959565163, 6.399340782081708e-05, -0.023106681182980537, -2.7049458140027127e-07, -1.9121970673552369e-10, -1.7866491930362827e-07, -1.7929165707641914e-08, 3.0360652658600884e-08, -1.6378736589217624e-08, 1.1424555523831259e-08, 1.4748033017042417e-08, 2.324987313784277e-08, -5.47740341971803e-08, 0.10013202577829361, -0.042955901473760605, -0.06550014764070511, -0.01410754956305027, -0.05433443561196327, 0.07765158265829086, -0.14873838424682617, -0.10074719041585922, -0.005528473760932684, -0.05985131859779358, 0.05838189646601677, -0.0486132949590683, 0.002894457196816802, -0.11012991517782211, -0.04807623103260994, 0.02845913916826248, 0.06612929701805115, -0.008515510708093643, -0.04017694294452667, -0.03278834745287895, 0.08758487552404404, 0.032272420823574066, 0.03383058309555054, 0.02567172795534134, -0.10936162620782852, 0.061911240220069885, 0.05305785313248634, 0.042694032192230225, -0.069936603307724, 0.1132986843585968, -0.08159250020980835, -0.020402677357196808, 0.008205399848520756, -0.05789537727832794, -0.07610694319009781, -6.61557205603458e-05, 0.06303517520427704, 0.05519213527441025, -0.016673775389790535, -0.03744671121239662, 0.1283593326807022, 0.0939495712518692, 0.11648791283369064, 0.03820115700364113, 0.05349518731236458, 0.11972831189632416, 0.01515313982963562, -0.0913541167974472, 0.0512186698615551, 0.03461748734116554, -0.029996372759342194, -0.004444207530468702, 0.06606952100992203, 0.0077219512313604355, 0.01270984299480915, 0.04711805284023285, 0.017617356032133102, -0.091569684445858, -0.006486858241260052, -0.06899701058864594, -0.022728605195879936, 0.024991530925035477, 0.033645957708358765, 0.008098818361759186, -0.11073096841573715, -0.007956894114613533, 0.06162664666771889, -0.07833565771579742, 0.0033998123835772276, -0.03390532359480858, 0.005982281174510717, -0.06189781427383423, 0.06742819398641586, -0.09390752017498016, 0.1248892992734909, -0.012238395400345325, 0.01048152893781662, -0.0499863401055336, 0.022585803642868996, 0.017856668680906296, -0.013608260080218315, 0.017156220972537994, -0.05628671869635582, 0.04307485371828079, -0.036958687007427216, 0.0032338357996195555, -0.06951960921287537, -0.005387608893215656, 0.004263789858669043, 0.006848667282611132, -0.03383556380867958, 0.028009457513689995, -0.022913990542292595, 0.01243948470801115, -0.002093143993988633, 0.0036633487325161695, 0.0934024229645729, -0.09069471061229706, -0.04184998944401741, 0.015851318836212158, -0.022322077304124832, -0.032051920890808105, 0.09033659100532532, 0.05547080934047699, -0.04492414742708206, -0.05434742197394371, -0.10529128462076187, -0.008669079281389713, -0.024776874110102654, 0.019388215616345406, 0.046303149312734604, -0.027105102315545082, -0.028721194714307785, 0.05046761408448219, 0.0337396003305912, 0.018823057413101196, 0.014035181142389774, 0.013097554445266724, 0.03849274292588234, -0.03673335909843445, -0.0036276611499488354, 0.005304686259478331, 0.031031044200062752, -0.09052415192127228, -0.05325165018439293, 0.01563265174627304, 0.06901372224092484, -0.03826018422842026, 0.07454058527946472, 0.10554421693086624, 0.001804375322535634, 0.021804604679346085, 0.0069213989190757275, 0.05415269732475281, -0.010119454003870487, 0.042688895016908646, -0.021250315010547638, -0.024926496669650078, 0.04229985550045967, 0.0036709834821522236, -0.03438131511211395, -0.0030844928696751595, -0.005309309344738722, 0.0008793893503025174, 0.008840251713991165, 0.0005216982099227607, -0.003022742224857211, -0.006825740914791822, -0.03571967035531998, -0.007412593346089125, 0.0032746559008955956, 0.0006176140741445124, 0.0002835298073478043, -0.022689631208777428, -4.3580817873589694e-05, -2.258606457417045e-07, 3.844414564468934e-08, -2.2963709511714114e-07, 7.384728917259054e-08, -1.2511414126947784e-08, 1.7689296782918973e-07, -2.4815182797510715e-08, -3.0569543696401524e-07, -9.75042340201071e-08, 3.0794373628850735e-07, 0.05407563969492912, -0.016959667205810547, 0.1126774325966835, -0.0283573716878891, 0.034492429345846176, 0.11838537454605103, 0.04521265998482704, 0.01608235575258732, 0.1281764656305313, -0.1465313732624054, -0.12722770869731903, 0.04492547735571861, -0.056041862815618515, 0.05236678197979927, -0.00774455675855279, 0.059672631323337555, 0.04153354465961456, 0.04252764210104942, 0.0045942929573357105, 0.0635496973991394, -0.0014556366950273514, -0.012640012428164482, -0.030823849141597748, 0.05759001150727272, 0.1401926428079605, 0.05282329395413399, -0.02995872311294079, -0.05702974647283554, 0.08769434690475464, 0.12358617037534714, 0.03705913946032524, -0.03369012102484703, -0.036129724234342575, -0.005011219531297684, -0.0036001286935061216, 0.037585899233818054, -0.037259962409734726, -0.016828350722789764, -0.007146499585360289, -0.07219090312719345, -0.006683292333036661, 0.00022767530754208565, -0.061361756175756454, -0.06570876389741898, 0.0521804541349411, -0.002946672961115837, -0.04273344576358795, 0.02824195846915245, 0.08239313960075378, 0.022489506751298904, 0.02602558396756649, -0.0022004551719874144, -0.007049873936921358, -0.09140559285879135, -0.0025354400277137756, 0.06519100069999695, -0.053926341235637665, -0.05202290415763855, 0.028245052322745323, 0.04649824649095535, -0.03066018410027027, -0.008289750665426254, 0.06505811959505081, 0.030439551919698715, 0.00487578846514225, -0.05028399080038071, -0.011006603017449379, -0.029020730406045914, -0.010476687923073769, -0.08598475158214569, -0.05178987979888916, -0.01152849942445755, 0.05894152447581291, -0.03295307978987694, 0.09264688938856125, -0.034148070961236954, 0.05340077728033066, -0.004407874774187803, 0.007720072288066149, 0.03622513636946678, 0.09091204404830933, 0.008634021505713463, -0.042904868721961975, 0.013915391638875008, 0.021894516423344612, -0.004819105379283428, -0.05020373314619064, 0.07401423156261444, -0.007164256647229195, -0.028417235240340233, -0.014114203862845898, -0.00782931037247181, -0.005419896915555, -0.011669794097542763, -0.03820784389972687, 0.0448075532913208, 0.04151555895805359, 0.005153648089617491, -0.047521039843559265, -0.027821674942970276, -0.028499001637101173, 0.0129725132137537, -0.034798454493284225, 0.023771516978740692, 0.011653311550617218, -0.03664619103074074, -0.014042642898857594, 0.033161427825689316, 0.038078200072050095, 0.0029956630896776915, 0.06846914440393448, 0.04685182869434357, -0.018261710181832314, -0.0034130585845559835, -0.013587412424385548, -0.019001590088009834, -0.01895063742995262, 0.01002857368439436, -0.03234246000647545, -0.013814844191074371, -0.0005918998504057527, 0.021078646183013916, -0.00978887639939785, -0.002263865666463971, 0.0024557195138186216, 0.029530266299843788, 0.03221792355179787, -0.025912202894687653, -0.020681846886873245, 0.0013615909265354276, 0.06094321608543396, 0.0065507483668625355, -0.0030194970313459635, 0.029244747012853622, -0.00484498031437397, 0.032132457941770554, -0.013964775018393993, -0.016113752499222755, 0.02421736530959606, -0.0008305087685585022, 0.0012232937151566148, 0.001266786945052445, -0.0018051579827442765, -0.00019545074610505253, -0.0014742317143827677, -0.00026537157827988267, 0.004802057519555092, 0.0017090243054553866, -0.0013906648382544518, 0.0003979192115366459, 0.00012100346793886274, 0.0008322698995471001, 0.00012742374383378774, 0.019858380779623985, -6.956468132557347e-05, 1.835489456425421e-06, -4.847160894883018e-08, 6.13419501860335e-08, -1.670200688863588e-08, 5.227530408546954e-08, 5.238866052081903e-08, -1.6345098607928321e-09, -2.85407963929174e-08, -4.800391550929817e-08, 5.1795154831779655e-09, -0.06992361694574356, 0.03620347008109093, -0.11980869621038437, -0.08336908370256424, 0.053722526878118515, 0.07556808739900589, -0.049479685723781586, 0.03669092059135437, -0.09116941690444946, -0.00983875896781683, 0.10724001377820969, 0.11296316236257553, 0.14885953068733215, -0.1056181937456131, -0.16280080378055573, -0.04838575795292854, 0.028154902160167694, 0.03625046834349632, 0.06573677808046341, -0.06634891033172607, -0.03856577351689339, -0.04493167623877525, -0.09629150480031967, -0.014964176341891289, 0.04896149784326553, 0.0610499307513237, -0.0005516496021300554, -0.04458709806203842, -0.056144677102565765, -0.06663922965526581, -0.08245427161455154, 0.11578232049942017, 0.07931347191333771, 0.03696097433567047, -0.04040351137518883, -0.05537956580519676, -0.04652216657996178, -0.0690554678440094, -0.030833078548312187, 0.10922937840223312, -0.029268404468894005, -0.0593409538269043, 0.025216583162546158, 0.09682983160018921, 0.015566173009574413, 0.025334086269140244, 0.05705089494585991, -0.03229885920882225, 0.060873985290527344, 0.005001898389309645, -0.09954413771629333, 0.053591713309288025, 0.0605807863175869, -0.0964847058057785, -0.02436937764286995, 0.024625057354569435, -0.011380312964320183, 0.01377810537815094, 0.003847569925710559, -0.06394238770008087, -0.05883321911096573, 0.048945002257823944, 0.020231813192367554, 0.06800705194473267, -0.004898966755717993, 0.053960591554641724, 0.04059132933616638, -0.08970403671264648, -0.023174630478024483, -0.060944732278585434, 0.13261480629444122, 0.012455538846552372, 0.08129763603210449, -0.05532582476735115, 0.021317359060049057, 0.02007216028869152, 0.014516759663820267, 0.006235106382519007, 0.01285459753125906, 0.06343010812997818, 0.06008952483534813, 0.013863014988601208, 0.050142887979745865, 0.10889995098114014, -0.07301563024520874, -0.03299754112958908, -0.09572859108448029, 0.05208299309015274, -0.009716133587062359, -0.032170671969652176, -0.048554737120866776, -0.07881949096918106, 0.08589676767587662, 0.04486916959285736, -0.009046316146850586, -0.06439719349145889, 0.012740102596580982, 0.018208200111985207, -0.046499598771333694, -0.0919279232621193, 0.024835236370563507, 0.03666738420724869, 0.08401341736316681, -0.023425670340657234, 0.05140764266252518, 0.022176433354616165, -0.12022382020950317, 0.055275604128837585, -0.07966920733451843, 0.037154845893383026, -0.02415270172059536, -0.01674926094710827, -0.0124348234385252, 0.024923237040638924, 0.006614571437239647, -0.09999526292085648, -0.01539708487689495, -0.04673261567950249, 0.043113917112350464, -0.02964865416288376, 0.021016761660575867, 0.007551707327365875, 0.007824295200407505, -0.005561529193073511, -0.013200303539633751, -0.0008640701998956501, 0.025991372764110565, 0.005838976241648197, -0.01906665228307247, 0.028805823996663094, 0.03570312261581421, -0.004814008716493845, 0.05653010681271553, 0.10455133765935898, 0.039035480469465256, 0.11861758679151535, -0.03124833293259144, -0.03321565315127373, -0.01819242164492607, -0.005641121417284012, -0.05267596244812012, 0.0033783591352403164, 0.0007076883339323103, 0.01814829371869564, -0.001083881827071309, 0.02281847782433033, -0.030216436833143234, 6.175096496008337e-05, -0.003990143071860075, -2.0339784896350466e-05, 0.006237505469471216, -3.436943006818183e-05, -0.016755325719714165, -0.005551397800445557, 0.007931485772132874, -3.869720046623115e-07, 1.6600338881289645e-09, -3.609874852372741e-07, -3.546632001416583e-07, -1.5968265643095947e-07, -1.7315161926489964e-07, -2.6147915832552826e-08, -1.1929579102343268e-08, -2.719559120123449e-07, 4.138339448900297e-08, 0.01412803865969181, -0.0372355617582798, 0.016283536329865456, 0.07062428444623947, -0.07565691322088242, 0.03792671859264374, 0.13077093660831451, 0.09208117425441742, 0.05238569900393486, 0.1582401990890503, -0.051321547478437424, -0.10494117438793182, -0.16211597621440887, 0.015616541728377342, 0.18594004213809967, 0.05018961429595947, -0.03780787065625191, -0.04941832274198532, -0.02694830857217312, 0.13343319296836853, 0.048656564205884933, -0.048397280275821686, -0.029255440458655357, 0.019230831414461136, 0.06800109893083572, 0.026115942746400833, -0.014055109582841396, -0.06642404943704605, 0.05181141570210457, -0.004563197027891874, -0.058627478778362274, -0.06800300627946854, 0.029660126194357872, 0.01234989520162344, -0.0906868726015091, 0.05885520577430725, 0.16677814722061157, -0.006924132350832224, -0.07607270777225494, -0.0022791912779212, -0.12074106186628342, -0.011585197411477566, -0.02293584868311882, -0.06425373256206512, -0.04994173347949982, 0.011629227548837662, -0.06678396463394165, -0.07538706064224243, 0.013462971895933151, 0.004774249624460936, 0.07051993906497955, -0.04792749881744385, -0.06740473955869675, 0.031042367219924927, -0.027196841314435005, -0.05561314523220062, 0.017205795273184776, 0.011985665187239647, 0.13251084089279175, 0.010789088904857635, 0.04921998456120491, -0.04140608012676239, -0.02197692170739174, -0.03891482204198837, -0.011632821522653103, 0.02122914418578148, -0.004078126512467861, 0.041157014667987823, 0.005725199356675148, 0.058958858251571655, -0.02685064636170864, 0.0687742754817009, -0.011705287732183933, 0.024674640968441963, -0.04485379904508591, 0.023334939032793045, 0.018516279757022858, -0.09681590646505356, 0.0015996280126273632, -0.0035656921099871397, 0.0005174532998353243, -0.03910299018025398, 0.09963743388652802, -0.0592770092189312, 0.012549608014523983, 0.03259691596031189, 0.06406187266111374, 0.035673003643751144, -0.003606544341892004, -0.0155965406447649, 0.007721178233623505, 0.10602860897779465, 0.011821484193205833, 0.01350020244717598, -0.04212417080998421, 0.055664703249931335, -0.05134846270084381, 0.015297124162316322, 0.08871793001890182, 0.06610573083162308, -0.005455218255519867, -0.04504008963704109, 0.03451884910464287, -0.08831669390201569, -0.07724319398403168, -0.03906631842255592, -0.009761049412190914, -0.09567124396562576, 0.0356956385076046, 0.0002541140711400658, 0.12139225751161575, 0.022798167541623116, -0.030025843530893326, -0.02004924789071083, 0.01808762736618519, -0.005722873844206333, -0.04469890519976616, -0.0010917950421571732, -0.05202903598546982, 0.012548130936920643, -0.0044821263290941715, -0.07296404987573624, 0.01560158096253872, 0.0017139437841251493, -0.0012898917775601149, -0.014192022383213043, 0.011447028256952763, -0.02052159421145916, -0.0897754654288292, -0.03609482944011688, -0.007888911291956902, -0.08329593390226364, -0.001180456136353314, 0.004170493222773075, -0.045463480055332184, -0.03929061070084572, -0.006815582513809204, -0.0068188016302883625, -0.0284525565803051, -0.0308782197535038, 0.023271692916750908, -0.003565381048247218, -0.0004731239168904722, -0.00470441160723567, 0.008657029829919338, -0.006925951689481735, 0.007405806332826614, -0.012464857660233974, -0.0009088326478376985, 0.002759974217042327, 0.003207080764696002, 0.004832823295146227, 0.004353300668299198, 0.0001862923672888428, -0.0023594526574015617, 3.444436629251868e-07, -3.78059894501348e-09, 1.4169070361447211e-08, -6.781130679200942e-08, 6.212931680238398e-08, 5.565872385204784e-08, -2.8714461919321366e-08, -1.1192295090722837e-08, -3.1604301398147072e-09, -4.1817543205979746e-08, 0.1050029844045639, -0.02588687837123871, 0.08686905354261398, 0.15419548749923706, 0.03329724445939064, -0.04750988632440567, 0.046611350029706955, 0.0766930803656578, -0.025516454130411148, 0.035596441477537155, -0.12294481694698334, 0.03281708061695099, -0.05900728330016136, -0.014596959576010704, -0.006648126989603043, 0.026107359677553177, 0.035554174333810806, -0.10069938004016876, 0.04649942368268967, -0.024234067648649216, 0.07778412848711014, -0.09324780106544495, -0.19250041246414185, 0.07319945842027664, -0.12273190170526505, 0.07817760109901428, 0.05766234174370766, 0.07911325246095657, -0.014378730207681656, -0.0637323409318924, 0.022793516516685486, -0.059540875256061554, -0.1703151911497116, -0.09418843686580658, 0.018779510632157326, 0.035241540521383286, 0.08247395604848862, 0.09640029817819595, -0.005160104017704725, 0.03755911439657211, -0.1008683294057846, 0.007045092526823282, -0.1225748136639595, 0.03565721586346626, -0.12094714492559433, 0.07067368179559708, 0.029991401359438896, 0.0020237695425748825, -0.027050072327256203, 0.021426506340503693, 0.04354141652584076, -0.11484180390834808, -0.03607284277677536, 0.06024885177612305, -0.0076441154815256596, 0.04557512700557709, -0.06253613531589508, 0.035360630601644516, -0.0668509379029274, -0.0179169699549675, 0.09529247879981995, 0.03048475831747055, -0.021647103130817413, -0.05454207956790924, -0.090530164539814, 0.06231211498379707, 0.00018725436530075967, -0.03970010578632355, 0.03923817351460457, 0.012786557897925377, -0.03376907855272293, 0.07115265727043152, 0.051642611622810364, -0.007670659106224775, 0.02811528369784355, -0.07559216022491455, 0.10351287573575974, -0.0052686105482280254, -0.01384222786873579, -0.008415344171226025, -0.0024791366886347532, 0.019854070618748665, 0.05852416530251503, -0.004220569971948862, -0.036381110548973083, 0.00041691248770803213, -0.040106043219566345, 0.06327378004789352, 0.012781251221895218, -0.008731991052627563, -0.0008999982383102179, 0.017002815380692482, 0.01952926255762577, 0.0533430390059948, -0.0025894618593156338, -0.04515328258275986, 0.04826536029577255, -0.060074206441640854, -0.007774564437568188, -0.0566108338534832, -0.038305096328258514, -0.024842245504260063, 0.010340753011405468, -0.08445665240287781, -0.024056514725089073, -0.0003246206324547529, 0.01511336024850607, -0.029123077169060707, 0.0622965469956398, -0.028806501999497414, 0.025607485324144363, -0.016369154676795006, -0.03916698321700096, -0.04406922683119774, -0.011430131271481514, 0.006602295208722353, 0.007910426706075668, -0.033457640558481216, 0.02255900762975216, -0.033226240426301956, 0.010535634122788906, 0.006714272778481245, -0.03766167163848877, 0.007979649119079113, -0.005477194208651781, 0.015661321580410004, 0.031060606241226196, 0.015328915789723396, 0.006121989339590073, -0.07430067658424377, 0.051098089665174484, -0.03806397318840027, 0.011898507364094257, 0.009135265834629536, -0.010267461650073528, -0.0020872089080512524, -0.004130565095692873, 0.00450353417545557, -0.026014141738414764, -0.0023521941620856524, 0.009906073100864887, -0.002029958413913846, -0.008643856272101402, 0.0036806869320571423, 0.026200860738754272, -0.006691933609545231, 0.003069620579481125, 0.001069779391400516, 0.0004010799166280776, -0.0015599657781422138, 0.008110735565423965, 0.0020540214609354734, 0.01313564833253622, 0.00014816389011684805, 0.010763844475150108, 5.154655013939191e-07, -1.2115292236103414e-07, -1.790583041838545e-07, -2.1015537754465186e-07, -1.8698287362894916e-09, -1.706757757347077e-08, -7.68617596236254e-08, -2.57907771583632e-07, 1.7194846435586442e-08, 5.295129312798963e-07, 0.05322957783937454, -0.08537691831588745, 0.02290382795035839, -0.06145050749182701, -0.09380602836608887, 0.05592384934425354, -0.063246950507164, 0.127791628241539, -0.08171550929546356, -0.012534315697848797, -0.11477823555469513, 0.04435762017965317, 0.06864245235919952, -0.0512951985001564, 0.042035337537527084, -0.006361722946166992, 0.13085512816905975, 0.023671267554163933, 0.07118910551071167, -0.010718367993831635, 0.09392210096120834, -0.020582368597388268, -0.05568452179431915, 0.01650705374777317, -0.016510218381881714, -0.006919632665812969, -0.03657528758049011, 0.028727643191814423, 0.057823989540338516, 0.003583450336009264, -0.04709771275520325, 0.03272540494799614, -0.05593531206250191, 0.03159944713115692, -0.006869221571832895, -0.11616036295890808, -0.02426987513899803, 0.00514974957332015, 0.022433897480368614, 0.038343269377946854, 0.09470115602016449, 0.0353991761803627, 0.0901474803686142, -0.07614021003246307, 0.026580190286040306, 0.025426257401704788, 0.04397905245423317, 0.0318995825946331, 0.004259724169969559, 0.0034466488286852837, -0.024904491379857063, 0.0681094154715538, 0.0011571749346330762, 0.011240811087191105, 0.06610491126775742, 0.08297409117221832, -0.017907850444316864, 0.01380410697311163, -0.011453879065811634, 0.03327404335141182, -0.07093622535467148, -0.006231396924704313, 0.07390961050987244, 0.02568706125020981, -0.0661102905869484, 0.07060788571834564, 0.026846136897802353, -0.08241859078407288, 0.0017290397081524134, 0.030417535454034805, 0.12686379253864288, -0.037326522171497345, 0.08715780079364777, -0.01589837856590748, 0.07171755284070969, 0.05869075283408165, 0.011692702770233154, 0.01829717680811882, 0.036625660955905914, -0.0071200174279510975, 0.037831176072359085, -0.010115616954863071, -0.06906930357217789, 0.002820724854245782, 0.0019210914615541697, -0.03713614493608475, -0.08514412492513657, 0.0378197580575943, -0.014330252073705196, 0.002548730466514826, -0.0031660704407840967, 0.040471676737070084, -0.006289467215538025, 0.026725146919488907, 0.020684033632278442, -0.02808966301381588, 0.047460660338401794, -0.005765039008110762, -0.013860287144780159, -0.012952456250786781, -0.00029285685741342604, -0.000976718496531248, -0.02077723667025566, 0.003886032849550247, -0.0046923160552978516, -0.04756420850753784, -0.0915265828371048, 0.08354904502630234, -0.027174023911356926, 0.019337227568030357, 0.02536345086991787, -0.009406604804098606, 0.029283935204148293, -0.015163099393248558, 0.019272934645414352, -0.06504721194505692, 0.011666163802146912, 0.04832102730870247, 6.1032875237287953e-05, 0.001677949563600123, 0.0002959236444439739, 0.00935145653784275, 0.0019766974728554487, -0.002449686173349619, -0.03645733371376991, -0.021654516458511353, 0.04238036274909973, 0.00402368837967515, -0.01443156786262989, 0.005219635553658009, -0.00533225666731596, 0.007188765797764063, 0.033286478370428085, 0.028913874179124832, 0.0007590795867145061, 0.007541854865849018, -0.028302496299147606, 0.0038512293249368668, 0.036799170076847076, 0.000598283251747489, -0.0027811552863568068, -0.0022538076154887676, 0.015752242878079414, 0.021920572966337204, -0.00015299564984161407, 0.0015026284381747246, -0.005322301294654608, 0.00012017562403343618, 0.0005809143767692149, 0.0005394489271566272, 0.027156595140695572, -5.7527311582816765e-05, 0.0054174126125872135, 4.2989191570086405e-05, 0.008165998384356499, 1.7228694559889846e-07, 4.245285012416389e-09, 9.189620442384694e-08, 1.6499871691166845e-08, 2.5656667901330366e-09, 1.2912512659113418e-07, -8.597824674438925e-10, 4.824501242950419e-09, 2.137283594549899e-08, -9.20176930208072e-08, 0.006490140222012997, 0.0062070875428617, 0.16325318813323975, 0.00026684088516049087, 0.03159239888191223, -0.07629433274269104, 0.09942718595266342, 0.008586087264120579, 0.06309516727924347, -0.06727410852909088, -0.005008753854781389, -0.05829703062772751, 0.09369765967130661, -0.050470106303691864, 0.03379717469215393, -0.036590028554201126, 0.0626479908823967, 0.02818189561367035, -0.10607337951660156, 0.015470975078642368, -0.1057191789150238, 0.06988785415887833, -0.07550325244665146, -0.02576405182480812, 0.035938508808612823, -0.04914745315909386, 0.05155794322490692, 0.12769976258277893, -0.030671317130327225, 0.14121946692466736, 0.0009995788568630815, 0.0101985028013587, -0.06542156636714935, -0.018965834751725197, -0.059585090726614, -0.06765861809253693, -0.013462415896356106, -0.12967994809150696, -0.0474543534219265, -0.0419621579349041, -0.02742176130414009, -0.04157767444849014, -0.056936126202344894, -0.056405890733003616, 0.015901610255241394, 0.03667180985212326, -0.04652414470911026, -0.003193671116605401, 0.04329165443778038, 0.002379228826612234, -0.020394500344991684, 0.009334305301308632, -0.05636828765273094, -0.008524475619196892, -0.025685589760541916, 0.07247838377952576, -0.01992424950003624, 0.029969140887260437, -0.015500116162002087, 0.02851218171417713, -0.002736032707616687, -0.07367831468582153, 0.031734541058540344, -0.01250327005982399, -0.012237338349223137, -0.017699239775538445, -0.033991582691669464, -0.08554554730653763, -0.08876671642065048, -0.03347212076187134, -0.0977741926908493, 0.011261651292443275, -0.008031095378100872, 0.018177969381213188, -0.0028069878462702036, -0.032471202313899994, 0.014937453903257847, 0.07605286687612534, 0.03356706723570824, 0.03185735270380974, -0.012080914340913296, -0.0538652241230011, -0.022603899240493774, 0.10015983134508133, 0.04103347659111023, 0.009348024614155293, 0.039075762033462524, 0.029957283288240433, 0.0059936875477433205, 0.011071249842643738, -0.026654355227947235, -0.07525987178087234, -0.09111233800649643, -0.015769872814416885, -0.006969418376684189, 0.027615120634436607, 0.04427480697631836, 0.0034702529665082693, 0.03676086664199829, -0.035051796585321426, -0.006995122879743576, -0.010156111791729927, -0.00034455923014320433, 0.026705767959356308, -0.014935679733753204, -0.007184016052633524, 0.009135114029049873, 0.02547305077314377, 0.0004556818166747689, -0.030884956941008568, 0.0025854490231722593, 0.03877183422446251, -0.02385783940553665, -0.0008690442773513496, -0.04691590368747711, 0.026576247066259384, 0.034948159009218216, -0.011943663470447063, -0.015748169273138046, 0.006763122510164976, -0.02038218267261982, -0.026184018701314926, -0.03717324137687683, 0.023189663887023926, -0.02312985621392727, 0.013703317381441593, 0.0016641992842778563, -0.002387160435318947, -0.005264847073704004, 0.009181387722492218, -0.0057148137129843235, 0.027280671522021294, -0.00013480204506777227, -0.005950999446213245, -0.02717665769159794, -0.006343753542751074, 0.001767271663993597, 0.0035232948139309883, -0.01082141324877739, -0.005416027270257473, -0.008838837966322899, 9.187821706291288e-05, 0.009255676530301571, 0.0016686571761965752, 0.0009253481985069811, -0.0013746601762250066, 0.0007074428140185773, 0.002133329166099429, -0.0047320411540567875, -0.01637258566915989, -4.6110289986245334e-05, -0.012066924013197422, -0.00019283169240225106, 6.458917141571874e-06, -0.0002729553380049765, 1.3239391591923777e-06, -1.397843192307846e-07, -2.2470247529327025e-07, -9.573430048703813e-08, 6.537273833373547e-08, -1.014362780438205e-07, -7.260283041432558e-09, 2.448543057198549e-07, 5.756966459102841e-09, -4.774005901708733e-08, -0.03456722944974899, 0.10427496582269669, -0.17526762187480927, 0.11006204783916473, -0.11061886698007584, -0.008897080086171627, -0.005944509524852037, -0.07466509938240051, -0.14922365546226501, -0.04442846029996872, -0.15342508256435394, 0.021766310557723045, -0.09701495617628098, 0.10763132572174072, -0.051516782492399216, 0.004191447980701923, 0.197211354970932, 0.08738726377487183, -0.029022686183452606, -0.03024754486978054, -0.018424974754452705, -0.045015424489974976, -0.152584046125412, -0.10072392225265503, -0.011696037836372852, 0.01733051799237728, -0.0010650113690644503, 0.03173195943236351, 0.021631507202982903, 0.13062074780464172, -0.006069796159863472, -0.05368844419717789, -0.0792756974697113, 0.0683525800704956, -0.004161264281719923, -0.004965010564774275, -0.012924435548484325, -0.0046068900264799595, 0.06583091616630554, 0.0907001942396164, 0.044171761721372604, -0.00686294911429286, -0.03266250342130661, 0.015009930357336998, -0.04426091909408569, -0.053817879408597946, -0.07599496841430664, 0.0023067756555974483, 0.07684460282325745, 0.016336653381586075, -0.0030619166791439056, 0.05010302737355232, -0.00195798696950078, -0.12945224344730377, -0.048842255026102066, 0.0497504286468029, 0.020592348650097847, -0.09645041823387146, -0.11839978396892548, 0.040368031710386276, -0.11439748853445053, 0.006779286079108715, -0.012444308958947659, -0.019030146300792694, -0.0023608976043760777, -0.13675759732723236, 0.016935881227254868, -0.06451955437660217, 0.03854082152247429, 0.0751040056347847, -0.0012869798811152577, 0.0636904388666153, -0.035784393548965454, 0.06787747144699097, 0.035579781979322433, -0.03919714689254761, -0.018520843237638474, -0.002525286516174674, 0.03544485196471214, -0.02895415388047695, -0.053634170442819595, 0.028069574385881424, -0.04280438274145126, -0.040978651493787766, 0.017706697806715965, -0.0399358756840229, 0.005499367136508226, 0.051754824817180634, 0.06976868212223053, 0.011387262493371964, -0.042780596762895584, -0.04132401570677757, -0.0053120204247534275, -0.05237357318401337, -0.034180428832769394, -0.011475845240056515, -0.02575865015387535, -0.08022882044315338, 0.020940735936164856, -0.042116016149520874, -0.03410322964191437, 0.07592441886663437, 0.02317126840353012, 0.07235603034496307, -0.08539509773254395, 0.02648749388754368, -0.02754804864525795, -0.005943248514086008, 0.008706562221050262, 0.005464346148073673, 0.06790319830179214, -0.018672054633498192, -0.024551808834075928, -0.010131527669727802, -0.006631508003920317, 0.04204820841550827, 0.01339614950120449, 0.03970211371779442, 0.020227110013365746, 0.0627431869506836, -0.026668943464756012, 0.016721650958061218, 0.004020203370600939, -0.013075611554086208, 0.04728127270936966, -0.0038569194730371237, 0.04182210937142372, -0.011583568528294563, -0.0684100091457367, -0.010234271176159382, 0.013869869522750378, -0.008690524846315384, -0.004864114802330732, 0.0069949510507285595, -0.010019375011324883, -0.051449716091156006, -0.0017955639632418752, -0.036020658910274506, -0.014747047796845436, 0.0050689540803432465, -8.095132216112688e-05, -0.0016005184734240174, -0.011906483210623264, -0.0042132604867219925, -0.0016069735866039991, -0.01142847165465355, -0.001931115286424756, 0.00024080458388198167, 0.004198942333459854, -0.0037581310607492924, 0.0027782844845205545, -0.0002063975261989981, 0.0006780375260859728, 0.0002541298745200038, 0.0023816616740077734, -5.1107065246469574e-08, -5.536381308957061e-08, -2.0200504380341044e-08, -2.3833372608805803e-08, -2.9375435417478002e-08, 3.5712147905542224e-08, -5.9270163887958915e-08, 2.1265485372623516e-08, -3.319543750990306e-08, 2.3208624355675056e-08, -0.0969683900475502, 0.07658439129590988, 0.04533444344997406, 0.06974372267723083, -0.07353626936674118, 0.03170723095536232, -0.1112779751420021, -0.09527886658906937, -0.036674220114946365, -0.0008229149389080703, -0.034048669040203094, -0.025085674598813057, 0.09119833260774612, -0.053765732795000076, 0.020815366879105568, -0.08272919058799744, 0.05268443003296852, 0.08115310966968536, -0.1005990281701088, 0.16434822976589203, -0.13564923405647278, -0.05823414772748947, 0.024551035836338997, -0.12273155897855759, -0.025889802724123, -0.05545087531208992, 0.0230882428586483, -0.027147887274622917, -0.14084972441196442, 0.03292414918541908, 0.0359133705496788, 0.005207157228142023, 0.03432851657271385, 0.01984642632305622, -0.08788406103849411, 0.022755203768610954, 0.03149476274847984, -0.04607527330517769, -0.02551857754588127, 0.009152799844741821, 0.042021747678518295, -0.023324931040406227, -0.005590443965047598, 0.08941790461540222, 0.013271364383399487, 0.07300028949975967, -0.09623125195503235, -0.01891781948506832, -0.05299220234155655, -0.03649275749921799, -0.014738722704350948, 0.011926962994039059, 0.10168127715587616, -0.04857204109430313, 0.05163083225488663, 0.0747954398393631, -0.018594492226839066, -0.04449984058737755, -0.009108412079513073, 0.026897363364696503, -0.039783451706171036, -0.007432905025780201, 0.09079351276159286, 0.036944594234228134, -0.015502018854022026, 0.01071935798972845, -0.03510557487607002, -0.028680402785539627, 0.013135788030922413, 0.018200159072875977, -0.02440565451979637, -0.07376562058925629, -0.0709606260061264, 0.03561696037650108, 0.028475986793637276, -0.04136576130986214, -0.023607628419995308, -0.003378381719812751, 0.028709523379802704, 0.010438431054353714, 0.04914088547229767, -0.014060378074645996, -0.0100253289565444, -0.00913301669061184, -0.016095135360956192, 0.09030120074748993, -0.002459724200889468, -0.03719566389918327, -0.014744548127055168, -0.01888004131615162, -0.01987597346305847, -0.046509090811014175, -0.06984412670135498, 0.08949826657772064, 0.07348176836967468, -0.0025682849809527397, -0.024263475090265274, 0.02302848920226097, 0.0023855899926275015, 0.008586960844695568, -0.038493163883686066, 0.007188243791460991, 0.013542450964450836, 0.03787430748343468, -0.002798882545903325, -0.003364844713360071, -0.031677357852458954, -0.002830580808222294, 0.04607469588518143, 0.01595720835030079, 0.030328940600156784, 0.012701475992798805, -0.02175590954720974, 0.010431397706270218, 0.0069245100021362305, -0.05346331372857094, -0.022133059799671173, -0.048023998737335205, -0.03213474899530411, -0.022407393902540207, -0.013100654818117619, -0.032629139721393585, 0.029945271089673042, 0.0056693824008107185, -0.05768655985593796, 0.0037130704149603844, -0.02050398662686348, 0.002459754468873143, 0.019296977669000626, 0.0023163766600191593, 0.004495000001043081, 0.0347278006374836, -4.53583834314486e-06, -0.014984726905822754, -0.0014907943550497293, 0.013672362081706524, -0.0020034434273838997, -0.0007137272623367608, 0.006152339279651642, 0.010061240755021572, -0.000966763764154166, -0.0013601660029962659, -0.0008702549384906888, -0.0013360194861888885, -0.00011865343549288809, -0.0018534974660724401, -0.0007250093040056527, -4.1266586777055636e-05, 0.00033600933966226876, -0.0018353392370045185, 0.0005813751486130059, -0.0014388879062607884, 3.161148924846202e-05, 0.00020135943486820906, -0.00013243274588603526, 1.4196429276580602e-07, -9.048640947639797e-09, -8.307056020839809e-08, 8.232950321485077e-09, 9.892847430137408e-09, 1.2993179865361526e-09, 6.102234806348861e-08, -2.1431709740227234e-08, 1.4041852125501464e-08, -1.210254385597409e-08, 0.07934007793664932, -0.05756206065416336, 0.1445351392030716, 0.11677467077970505, 0.03663814440369606, -0.12311378866434097, -0.02044849470257759, 0.02633194625377655, 0.029421966522932053, -0.08762063831090927, -0.07777929306030273, -0.08535520732402802, 0.1662130504846573, 0.07026749104261398, -0.025030720978975296, 0.04923310503363609, -0.09071142971515656, -0.05527837574481964, 0.050727032124996185, 0.007251964416354895, -0.1443505585193634, 0.028561079874634743, 0.0898994505405426, 0.0724439024925232, 0.04135662689805031, -0.04255407303571701, -0.03536313399672508, -0.0326262004673481, 0.023082248866558075, 0.0036175930872559547, 0.060332316905260086, -0.02284976840019226, -9.566983499098569e-05, -0.01428221445530653, 0.08874958753585815, 0.0026356687303632498, -0.06418531388044357, -0.007029062602669001, -0.006050480529665947, 0.03742850571870804, 0.07840249687433243, 0.019272159785032272, 0.017074206843972206, -0.10222552716732025, -0.030984269455075264, 0.006854201667010784, 0.043417152017354965, 0.06204593554139137, -0.014973266050219536, -0.022997388616204262, -0.01119778398424387, -0.016336744651198387, -0.04310141131281853, 0.042269494384527206, 0.0031526933889836073, -0.02992304041981697, -0.02065243571996689, -0.03572845831513405, -0.039953719824552536, 0.025483643636107445, 0.0086210947483778, 0.0299898199737072, -0.016651907935738564, 0.034152958542108536, 0.08167316019535065, 0.016168545931577682, -0.019431017339229584, 0.02716328203678131, -0.0826524943113327, -0.04711080715060234, -0.04040795937180519, -0.0035713890101760626, 0.0036290118005126715, -0.024295009672641754, 0.06722109764814377, 0.037406641989946365, -0.016581786796450615, 0.04075132682919502, -0.01221267506480217, -0.04966950789093971, 0.08878031373023987, -0.040962591767311096, 0.004708591848611832, 0.03768989443778992, 0.013991087675094604, -0.07947520166635513, 0.010896695777773857, -0.06749832630157471, -0.004892019554972649, 0.05084307864308357, 0.0009514138801023364, -7.213373464765027e-05, 0.10081306099891663, 0.03766465559601784, 0.048597171902656555, 0.011102695018053055, 0.049231354147195816, -0.027339797466993332, 0.015772970393300056, 0.02496645599603653, 0.05756980553269386, 0.009317935444414616, -0.005990922451019287, -0.019530247896909714, 0.020345862954854965, -0.012624054215848446, 0.0039262291975319386, -0.03532963618636131, 0.001705539645627141, -0.01370640005916357, -0.0848456621170044, 0.0070303198881447315, 0.0006667514680884778, -0.008022877387702465, -0.015735678374767303, 0.014471239410340786, 0.029066165909171104, 0.01184341311454773, -0.01914203353226185, 0.0008281060727313161, 0.003062510397285223, -0.02797900140285492, 0.0009734343038871884, 0.03480496257543564, -0.006791854742914438, 0.001892352127470076, -0.01168842427432537, -0.002692124340683222, 0.022534480318427086, 0.0013194879284128547, -0.0012574483407661319, 0.0113053098320961, -0.006760249380022287, -0.004414563532918692, -0.006068627815693617, -0.005817425437271595, -0.009332762099802494, 0.0007058782503008842, 0.011516175232827663, 0.005966255906969309, 0.005086944904178381, -0.0012352525955066085, 0.0021356637589633465, 0.00028430685051716864, -0.0023824586533010006, -0.009920634329319, -0.001273327274248004, -0.0006680530495941639, 0.004964458756148815, 0.0016407782677561045, 0.0020878261420875788, 0.00023042659449856728, -0.00013474551087711006, -0.0001593609486008063, -1.9983712263638154e-05, 1.0945835811071447e-06, 1.1249143483382795e-07, 6.969674473111809e-07, -1.2065405030625698e-07, 3.932391905436816e-07, 1.9071426322625484e-06, 4.8190639034828564e-08, -4.8551235920513136e-08, 1.191276837175792e-07, -8.411792578044697e-07, 0.03997313976287842, -0.03169875964522362, 0.001932997489348054, -0.035025279968976974, -0.10589686781167984, 0.05656224116683006, 0.12301284074783325, 0.0339336097240448, 0.004165985621511936, -0.13272184133529663, 0.0008253828273154795, 0.028505844995379448, -0.02021365985274315, 0.041184574365615845, -0.1786857694387436, 0.02642657980322838, 0.04245690256357193, 0.13894003629684448, 0.0530054047703743, -0.0809146910905838, -0.0470602884888649, 0.003186572575941682, -0.1201239600777626, 0.043787650763988495, 0.05248962342739105, -0.007145832758396864, -0.10657860338687897, -0.0683571994304657, 0.03111731819808483, 0.020725401118397713, 0.04153543710708618, 0.023582806810736656, -0.1194634661078453, -0.022218409925699234, 0.0902482122182846, -0.07637395709753036, -0.13095328211784363, -0.01723448745906353, 0.12425754219293594, 0.0472525916993618, 0.023068655282258987, -0.06988587230443954, 0.08596993237733841, 