#include "mlp_weights.h"

const float layer_0_weights[15840] = {-0.105051688849926, 0.011273439042270184, 0.06253409385681152, -0.08010825514793396, -0.19216477870941162, 0.0551333986222744, 0.1809765100479126, -0.12979091703891754, 0.13630859553813934, -0.11230716854333878, 0.08544004708528519, -0.10430005937814713, -0.024929167702794075, -0.038635414093732834, -0.1414792835712433, -0.055333420634269714, 0.12196777760982513, 0.008918039500713348, 0.08669614046812057, -0.07974503189325333, -0.07099158316850662, -0.07052788883447647, -0.13258689641952515, 0.03971218317747116, -0.03544371575117111, 0.04104689881205559, -0.034792084246873856, -0.016738981008529663, 0.02305155247449875, -0.08237257599830627, -0.02154351957142353, 0.0693100169301033, 0.09642643481492996, 0.041094016283750534, 0.04018479585647583, 0.013418463990092278, -0.039457857608795166, -0.08381795138120651, 0.018075134605169296, -0.10965844243764877, 0.05274241045117378, -0.04749113321304321, 0.00901427399367094, -0.07325007766485214, -0.005484588909894228, 0.04253334924578667, -0.08812594413757324, 0.05219341441988945, 0.03531951457262039, 0.013580708764493465, 0.009431230835616589, 0.09010066092014313, -0.049389179795980453, -0.010133408941328526, 0.01099733542650938, -0.08278001844882965, -0.03811143711209297, 0.01140411663800478, -0.008084523491561413, 0.01885097287595272, 0.013772966340184212, -0.01797504536807537, 0.043230194598436356, -0.09575269371271133, -0.010539531707763672, -0.0631556287407875, -0.03441854938864708, -0.032972268760204315, -0.011391858570277691, -0.032768070697784424, -0.06699026376008987, 0.06396269798278809, -0.04178325831890106, -0.022748637944459915, -0.08829321712255478, 0.009926860220730305, 0.07372385263442993, 0.05844583362340927, -0.06724537909030914, 0.004021042957901955, 0.02210753969848156, -0.017205050215125084, 0.035542141646146774, 0.06367073208093643, -0.054127153009176254, 0.0009651941945776343, -0.01280246488749981, -0.013016724959015846, -0.012553158216178417, -0.01725718565285206, -0.007069949060678482, -0.03357835114002228, 0.01698204316198826, -0.048063941299915314, 0.012457595206797123, 0.019190091639757156, -0.03831155225634575, -0.0262275580316782, -0.010813357308506966, 0.014102398417890072, -0.0278796199709177, 0.0002923274878412485, 0.06537861377000809, 0.028276551514863968, -0.00253306794911623, 0.0006100362516008317, -0.0008416093769483268, -0.020649991929531097, -0.05371599644422531, -0.013905242085456848, -0.00641190679743886, -0.025904012843966484, -0.008502280339598656, 0.022082766517996788, 0.017057130113244057, -0.015456012450158596, -0.00915220845490694, 0.05907726660370827, 0.005456547252833843, -0.016945855692029, 0.013323379680514336, 0.021163104102015495, -0.0016379650915041566, 0.00021412652858998626, 0.021879125386476517, 0.0007766537601128221, 0.03163271024823189, -0.009469425305724144, -0.008309793658554554, -0.03272980824112892, -0.08730216324329376, 0.008208729326725006, 0.0021820252295583487, -0.002935986965894699, 0.00017948431195691228, -0.010415405966341496, -0.00043344227015040815, -0.0008371415315195918, -0.015708789229393005, 0.031044699251651764, -0.013710503466427326, 0.08556725084781647, 0.06527558714151382, -0.011910560540854931, -0.0005357615882530808, 0.10423745214939117, -0.014937990345060825, -0.00011875604104716331, -0.012857520952820778, 0.07593056559562683, -0.0009799596155062318, -0.004434106405824423, 0.00027811582549475133, 0.0004926053807139397, 0.00015603519568685442, 2.2759925855098118e-07, -1.707471710687969e-07, -1.515459757683857e-08, -1.529098625496772e-09, 2.3439318397322495e-07, 2.493767965461302e-07, 1.8513024002686507e-08, -3.007093951623574e-08, -2.0876356643384497e-08, -1.0376021464253427e-07, -0.010094134137034416, 0.017118209972977638, -0.04416876286268234, -0.12886546552181244, -0.026394136250019073, 0.06195475906133652, 0.15665031969547272, -0.02219538204371929, 0.10676255822181702, 0.13776956498622894, 0.027294306084513664, -0.09001971036195755, 0.02363167516887188, 0.106398805975914, 0.037083275616168976, -0.11663571745157242, -0.06624030321836472, -0.04780860245227814, -0.041065603494644165, 0.09264112263917923, -0.09758082777261734, 0.039653804153203964, 0.10503987222909927, -0.019207600504159927, 0.11718285828828812, -0.0658462718129158, -0.07585795223712921, 0.05730348825454712, 0.0994640439748764, 0.13769173622131348, -0.12742604315280914, -0.12499858438968658, -0.11385923624038696, -0.011261487379670143, 0.03671979159116745, 0.1168353334069252, 0.04165484756231308, -0.11400697380304337, 0.03898738697171211, -0.09064319729804993, 0.05912970378994942, 0.0512605644762516, 0.01937662810087204, -0.024171458557248116, 0.06384414434432983, 0.11004513502120972, -0.032641246914863586, -0.0837399959564209, 0.04405306652188301, 0.05086709186434746, 0.05781315267086029, 0.004415181931108236, 0.03581825643777847, -0.04517832025885582, 0.08075155317783356, -0.024449490010738373, -0.12390545755624771, -0.11226379126310349, 0.013921855948865414, -0.023088181391358376, 0.06621940433979034, 0.10217352956533432, 0.026219137012958527, 0.13673478364944458, -0.051023732870817184, 0.01349386665970087, 0.017395708709955215, 0.06837780028581619, 0.03821861743927002, 0.09189888089895248, 0.006314785219728947, 0.016413141041994095, 0.05097699910402298, -0.049593016505241394, -0.044756706804037094, 0.0996200367808342, 0.0725194439291954, -0.03543810918927193, -0.03644999861717224, -0.027040807530283928, 0.022715207189321518, 0.035989828407764435, 0.018492866307497025, 0.03352518007159233, -0.11017286032438278, -0.0305507630109787, 0.0976327434182167, 0.10969053953886032, 0.0007523024105466902, -0.01510563399642706, 0.018545066937804222, -0.0728539526462555, 0.06242699921131134, -0.039703451097011566, 0.03250034153461456, -0.053459282964468, -0.028247930109500885, 0.09586553275585175, 0.009594347327947617, -0.03155286982655525, -0.0041750348173081875, 0.008231902495026588, 0.02827848494052887, -0.08657968789339066, -0.0036910357885062695, 0.05978569760918617, 0.08398306369781494, -0.06885144114494324, 0.06481794267892838, 0.006164249964058399, -0.01736106537282467, -0.005374033469706774, 0.01920689456164837, 0.026865506544709206, -0.01102052815258503, 0.0639173611998558, 0.015272737480700016, -0.008425326086580753, -0.007058523595333099, 0.11635585129261017, 0.04556609317660332, 0.018473003059625626, -0.016262196004390717, 0.03671320155262947, -0.04452267661690712, 0.06508801877498627, -0.035362791270017624, 0.06669431179761887, 0.010524622164666653, 0.04485125467181206, -0.007228299975395203, -0.012567460536956787, -0.013987332582473755, -0.044410187751054764, 0.0067376731894910336, -0.016449466347694397, 0.038888636976480484, 0.013227551244199276, 0.008876989595592022, -0.06321244686841965, -0.005020676646381617, -0.02238571271300316, 0.0383368656039238, -0.025033557787537575, -0.043829288333654404, 0.020882535725831985, 0.014703091233968735, -0.0028859474696218967, -0.005541989114135504, 0.009094949811697006, -0.014509935863316059, -1.2178425095044076e-05, 0.0004092070448677987, 0.00022967072436586022, -0.008168538101017475, 1.5696557511546416e-06, -7.843389937534084e-08, 2.416067275134992e-07, -5.50139311883413e-08, -6.393379408109467e-07, -2.5188819563481957e-07, 6.611539760115193e-08, -2.025573451192031e-07, 4.104546462713188e-07, -1.2547937444651325e-07, -0.032488346099853516, -0.009156233631074429, 0.04148203879594803, -0.02279489114880562, -0.05498647317290306, 0.10913547873497009, -0.07317347079515457, 0.07183636724948883, -0.010638230480253696, -0.0692073330283165, -0.055790677666664124, 0.07217638194561005, 0.09948217868804932, -0.00496527599170804, -0.03614821657538414, 0.009096041321754456, -0.011710542254149914, 0.018550509586930275, 0.0012754026101902127, 0.057689402252435684, 0.08983615785837173, 0.015923600643873215, -0.05295739322900772, 0.09338062256574631, 0.028960535302758217, 0.03898123279213905, 0.05582698434591293, 0.007347760256379843, -0.1345699429512024, -0.057653460651636124, 0.08919557183980942, 0.004301710519939661, -0.08618839085102081, -0.032889917492866516, 0.010049021802842617, -0.06482860445976257, -0.0035232710652053356, 0.06773872673511505, -0.08896530419588089, 0.04741521179676056, -0.12472330778837204, 0.028400413691997528, -0.018605276942253113, 0.05970744043588638, -0.13352751731872559, -0.08294666558504105, -0.01142645999789238, -0.021196680143475533, -0.042240191251039505, -0.12097625434398651, -0.026937291026115417, -0.007488449569791555, -0.00019557715859264135, -0.0025690305046737194, -0.001926356926560402, 0.07124271988868713, -0.014000941067934036, 0.05398077145218849, 0.07983493059873581, 0.002286450704559684, 0.09637947380542755, -0.003197966143488884, 0.014645921066403389, -0.07297384738922119, 0.05066768452525139, -0.05302666127681732, -0.03922657668590546, -0.103188157081604, -0.06118594482541084, -0.04400227963924408, 0.06479427218437195, -0.014369348995387554, -0.02946130931377411, 0.06779676675796509, 0.06762122362852097, -0.008620016276836395, -0.12765754759311676, -0.05726366490125656, 0.11131823807954788, -0.0003605891251936555, 0.018078641965985298, -0.014987768605351448, -0.0006706556887365878, -0.022959189489483833, 0.04613828659057617, -0.03603458032011986, -0.01582314819097519, 0.0003408736374694854, -0.006732470355927944, -0.03612177073955536, -0.015185480006039143, 0.08145274966955185, -0.09235326945781708, 0.0929899513721466, -0.05116548761725426, -0.03911089524626732, -0.10126300901174545, -0.060115016996860504, -0.049025412648916245, 0.005814343225210905, -0.07834453880786896, -0.01970546692609787, -0.009660443291068077, 0.11157020926475525, 0.014727288857102394, -0.09951861947774887, 0.0009414134547114372, 0.05546988546848297, -0.019948597997426987, 0.01766788959503174, -0.014902641996741295, 0.04347728565335274, 2.267082527396269e-05, -0.005883446894586086, 0.04907333105802536, -0.10203753411769867, 0.07070917636156082, 0.028572453185915947, 0.004652161616832018, -0.05529089272022247, -0.06813375651836395, -0.023336276412010193, 0.005058709066361189, -0.06736557930707932, 0.0312112458050251, -0.016261091455817223, -0.020115584135055542, -0.05076969042420387, -0.004467367194592953, 0.005707665346562862, 0.034610483795404434, 0.011505354195833206, 0.04920831322669983, 0.07071235775947571, 0.00580734945833683, 0.03280742093920708, -0.018054349347949028, -0.0007136016502045095, -0.002502083545550704, 0.007931234315037727, 0.0008781260112300515, -0.03547201678156853, -0.04136195778846741, 0.04347272589802742, 0.0027726676780730486, -0.07965409010648727, -0.040251221507787704, 0.0099979592487216, 0.005085057113319635, -0.08309865742921829, 0.028217479586601257, 6.68385619064793e-05, -7.138204819057137e-05, 0.00028247275622561574, 0.0020172467920929193, -1.9873571943662682e-07, -7.886059805173318e-09, 3.597790509957122e-08, 9.587198235294636e-08, 2.694518457246886e-07, -1.0382252213503307e-07, 2.1333434574444254e-08, -1.9835537656831548e-08, -2.582041913612443e-09, 3.0484510915584906e-08, 0.01678270474076271, -0.16192474961280823, 0.10430409759283066, -0.03977643698453903, 0.07710925489664078, -0.00880705751478672, 0.0015175529988482594, 0.03329182043671608, -0.12661831080913544, 0.12593817710876465, -0.11877982318401337, 0.08918435126543045, -0.15050914883613586, 0.1250796616077423, 0.019310737028717995, -0.05010765418410301, 0.007685904856771231, -0.09544354677200317, 0.11514966189861298, 0.11995937675237656, -0.006402052938938141, -0.0019025696674361825, 0.05864008143544197, 0.03461253643035889, -0.03538648039102554, -0.002269284799695015, -0.04859112948179245, 0.007473226636648178, -0.06195375323295593, -0.027923908084630966, 0.037536121904850006, -0.0999448299407959, -0.09607300162315369, -0.09694073349237442, -0.05301041156053543, 0.031167784705758095, 0.09703397750854492, 0.05834711343050003, -0.010413588024675846, 0.005535545758903027, 0.028807854279875755, 0.07253563404083252, -0.05221080780029297, 0.030394619330763817, 0.0693909227848053, -0.11141711473464966, 0.09154271334409714, -0.018354717642068863, -0.009388642385601997, 0.0032789064571261406, 0.004694758448749781, -0.10262704640626907, -0.04964863136410713, 0.026929320767521858, -0.011708802543580532, 0.04295659437775612, 0.08021602034568787, -0.029723212122917175, 0.024146517738699913, -0.06668556481599808, 0.05859224498271942, 0.019902069121599197, 0.021043503656983376, 0.023547405377030373, -0.07192587852478027, -0.058022186160087585, -0.01582786813378334, -0.016719186678528786, -0.012736344709992409, -0.014320477843284607, 0.05387617647647858, 0.016447320580482483, -0.04978884756565094, -0.06695631891489029, 0.04281947389245033, -0.052129022777080536, 0.01597011275589466, -0.05685665085911751, 0.01812640205025673, -0.057506490498781204, -0.018931401893496513, -0.00033400399843230844, 0.009071595035493374, -0.06650247424840927, -0.024547722190618515, 0.014078532345592976, -0.0399840883910656, -0.08041038364171982, -0.0015585089568048716, -0.01866042986512184, 0.03835758939385414, 0.09496983885765076, -0.009101096540689468, 0.07755845785140991, 0.028096875175833702, -0.004164553247392178, 0.03162124752998352, 0.015361611731350422, 0.02757379785180092, -0.013565057888627052, -2.0972322090528905e-05, -0.01879122667014599, -0.008064918220043182, -0.10879164189100266, 0.011437954381108284, 0.015072370879352093, -0.014225736260414124, 0.018591608852148056, 0.042621541768312454, 0.01933963969349861, -0.022964920848608017, 0.05629543960094452, 0.002561468631029129, -0.03700112923979759, 0.005745258182287216, -0.03638002648949623, 0.009840572252869606, -0.010244586504995823, 0.0069288951344788074, 0.01398196630179882, 0.0036171157844364643, -0.03109234943985939, -0.004433115012943745, 0.03757815808057785, 0.008443744853138924, 0.05053047090768814, 0.019181063398718834, -0.024423697963356972, 0.028484540060162544, 0.038423921912908554, 0.06061185523867607, -0.0019421748584136367, -0.0018451666692271829, 0.010549496859312057, 0.008779717609286308, -0.002327068243175745, -0.002700504381209612, -0.011866350658237934, -0.02833518758416176, -0.025953004136681557, 0.0051215593703091145, 0.023531144484877586, -0.097068652510643, 0.035048503428697586, -0.017750194296240807, -0.02619807794690132, -0.0423433817923069, 0.0014260938623920083, 0.004111236426979303, -0.03776904568076134, 0.0019967711996287107, 0.0006559932953678071, 0.0005599924479611218, 0.00010289153578924015, 0.00021981574536766857, 4.5786129021507804e-07, 1.627911615287303e-06, -8.109061582217691e-07, 3.378412429810851e-07, -1.465963919144997e-06, -1.811968175502443e-08, 5.042218162998324e-07, 3.482148542843788e-07, -6.109674188792269e-08, -3.5583980206865817e-10, 0.005340924020856619, -0.0432107038795948, 0.015951264649629593, -0.002161396201699972, -0.08746860921382904, -0.0002476375666446984, -0.08998978137969971, 0.021321715787053108, -0.041705552488565445, -0.00908420979976654, -0.018237894400954247, 0.09616836160421371, 0.13618150353431702, -0.14474619925022125, 0.04283955320715904, 0.10409267246723175, 0.00319860246963799, -0.04662518575787544, 0.04303129389882088, 0.027500465512275696, 0.009761176072061062, 0.10517403483390808, -0.010420369915664196, 0.0149309691041708, 0.018994323909282684, -0.026714829728007317, 0.065533347427845, -0.10036150366067886, 0.04972689971327782, -0.008812975138425827, 0.008899263106286526, -0.009775752201676369, 0.011024197563529015, -0.03225507214665413, -0.1274031549692154, -0.08326973021030426, -0.08934786170721054, 0.058766160160303116, -0.0394267663359642, -0.026076653972268105, -0.004734835587441921, 0.05805103853344917, -0.0697474256157875, 0.11567974835634232, 0.015144318342208862, -0.021644428372383118, 0.01012402307242155, -0.0777348205447197, 0.007847893983125687, 0.06553717702627182, -0.09599541872739792, -0.004390470217913389, 0.0715874508023262, 0.07308076322078705, 0.015787364915013313, 0.03516698256134987, -0.011403627693653107, 0.03340069204568863, -0.008809960447251797, 0.0339798666536808, -0.03325182944536209, -0.0011531230993568897, 0.004579741973429918, 0.04252515360713005, 0.055544786155223846, 0.08047406375408173, -0.005401138681918383, 0.02905014529824257, -0.023452652618288994, -0.023921772837638855, 0.026312824338674545, 0.011217025108635426, -0.03294387832283974, -0.040559351444244385, 0.02160830982029438, 0.015519214794039726, -0.09546005725860596, -0.04863874986767769, 0.03206861391663551, 0.0010495333699509501, 0.042257294058799744, -0.045322395861148834, -0.012329568155109882, -0.060640670359134674, 0.016964390873908997, -0.02321247011423111, 0.006937078665941954, -0.01745425909757614, -0.0185460913926363, 0.0009240522049367428, 0.02458544261753559, 0.018960367888212204, -0.02656954526901245, 0.06040738895535469, 0.04332724213600159, 0.004154185764491558, -0.006505375728011131, 0.02660154551267624, 0.04197695106267929, 0.03654000535607338, 0.0009069823427125812, -0.009793508797883987, 0.004175217356532812, -0.006881458684802055, 0.013607783243060112, 0.005690566264092922, 0.0032597912941128016, 0.0403355173766613, -0.026785096153616905, -0.007721740286797285, -0.009756242856383324, 0.0072637260891497135, 0.017967477440834045, 0.04062929004430771, 0.0017603139858692884, -0.0034990201238542795, -0.0009863929590210319, 0.0029884311370551586, 0.005629354156553745, -0.013260990381240845, -0.013310499489307404, -0.01826964132487774, -0.005615223199129105, 0.02355395257472992, -0.03587157651782036, 0.0043301633559167385, -0.019152767956256866, -0.01710158959031105, 0.0010641696862876415, 0.009194230660796165, 0.05360908806324005, 0.012611507438123226, 0.002816590014845133, -0.0163403432816267, -0.0037627071142196655, 0.0015430846251547337, -0.004262411966919899, 0.02015170454978943, 0.018335657194256783, -0.007154526188969612, 0.0008342076325789094, -0.05513282120227814, -0.021527618169784546, -0.009259236976504326, -0.013406790792942047, -0.032188259065151215, -0.0006486710044555366, -8.351835276698694e-05, -0.0006099261227063835, 0.010024572722613811, 0.020227555185556412, -0.00021817175729665905, -0.004494528751820326, -0.00021136135910637677, 0.0004927116096951067, -6.593140824406873e-07, -3.320284136520968e-08, -4.271816678169671e-08, 1.6949532266608003e-07, 2.0895555508104735e-08, 5.591928697867843e-08, 1.9815672658296535e-08, 1.0847894138521497e-08, 2.8993021317091916e-09, -1.5763081506747767e-08, -0.11569425463676453, 0.08716852217912674, -0.03210635483264923, 0.016266409307718277, -0.14404785633087158, 0.019705530256032944, 0.10061503201723099, -0.016152800992131233, 0.07078444212675095, 0.09138357639312744, 0.026552096009254456, -0.14471104741096497, 0.11019545793533325, -0.04565439745783806, 0.07914981991052628, -0.016688955947756767, -0.055815551429986954, 0.10416258871555328, -0.01185685396194458, -0.07116126269102097, 0.06997138261795044, -0.05875600874423981, -0.1542581468820572, -0.08990428596735, -0.06566812843084335, 0.03453220799565315, -0.09905849397182465, 0.08505787700414658, -0.076337069272995, -0.042444467544555664, -0.05829784274101257, 0.06723307073116302, 0.1157023012638092, -0.015868663787841797, 0.02472451888024807, -0.006253226660192013, 0.08877862244844437, -0.044816240668296814, 0.004260758403688669, 0.019222738221287727, -0.05232854187488556, -0.06042598932981491, 0.04808580502867699, -0.0766422376036644, -0.04983814060688019, -0.02430402860045433, 0.0012468955246731639, 0.059858713299036026, -0.01943683624267578, 0.06787215173244476, 0.07460938394069672, 0.07004812359809875, 0.04955347999930382, 0.008858613669872284, -0.017556067556142807, -0.049467746168375015, -0.03307393193244934, 0.05842998996376991, 0.013060788623988628, 0.015985967591404915, -0.02967689372599125, 0.004926091991364956, -0.0032491805031895638, -0.009619335643947124, -0.07944781333208084, -0.0702630802989006, 0.01677124761044979, -0.11225061863660812, 0.021387124434113503, 0.023328857496380806, -0.07755795121192932, 0.07697737216949463, 0.024338338524103165, -0.04184233397245407, 0.022527657449245453, 0.012822583317756653, 0.07156161963939667, 0.010611883364617825, -0.02699258364737034, 0.008025995455682278, -0.0006219787755981088, -0.014719812199473381, 0.06022331118583679, 0.07846927642822266, -0.04553753137588501, 0.05034497752785683, 0.00792846828699112, 0.04487476870417595, -0.018122389912605286, 0.007152305915951729, -0.021582596004009247, -0.04211602360010147, 0.026463180780410767, 0.03948536887764931, -0.021177100017666817, 0.018793048337101936, 0.007227969355881214, 0.01485322043299675, -0.03151439130306244, 0.016237743198871613, 0.08510442823171616, -0.012271100655198097, -0.01183948665857315, 0.004985480569303036, 0.025020470842719078, 0.00028390210354700685, 0.022789366543293, -0.0473383329808712, -0.02626349963247776, 0.009791100397706032, 0.07729948312044144, 0.007366515230387449, -0.0060012079775333405, 0.01354603748768568, 0.009319488890469074, 0.00641680508852005, 0.004849093966186047, 0.029078951105475426, -0.0001247267355211079, -0.009458020329475403, 0.002880176529288292, -0.0007309279171749949, -0.004103608429431915, -0.018016904592514038, 0.02498106099665165, 0.003334159031510353, 0.06851793080568314, 0.06491417437791824, -0.009292482398450375, -0.030435051769018173, -0.027486223727464676, -0.006439023185521364, 0.002266937866806984, 0.002388381864875555, -0.011689996346831322, 0.006990393623709679, 0.0015516637358814478, 0.020384734496474266, 0.0011207186616957188, -0.0019490806153044105, 0.009597605094313622, 0.00912381149828434, 0.009581306017935276, 0.01178786437958479, 0.01042210403829813, -0.016233019530773163, 0.006357633974403143, -0.0010315233375877142, -0.013701800256967545, 0.03611498698592186, -0.008571791462600231, 0.013857919722795486, -0.00015316944336518645, -0.005102736875414848, 0.0005959099507890642, 1.7084394130506553e-06, -6.846084943390451e-08, -2.1998811661205764e-08, -4.2805318400951364e-08, 3.16118246246333e-07, 3.4648014235472147e-08, 3.290081984630433e-09, 4.632585870467665e-08, 1.1120723897306561e-08, 5.788866275224791e-08, -0.0587146058678627, -0.013562038540840149, -0.05362522974610329, 0.01945061795413494, -0.017379971221089363, 0.04328817501664162, 0.016416888684034348, -0.06987275928258896, 0.04652180150151253, -0.07221521437168121, 0.1263251006603241, -0.025261741131544113, 0.05916992202401161, -0.04038255661725998, -0.0761420950293541, -0.0927777886390686, 0.1486617773771286, 0.1090025082230568, 0.1366492211818695, -0.08820589631795883, -0.10259012877941132, -0.051930300891399384, -0.0952700674533844, -0.050242967903614044, 0.011423813179135323, 0.10373946279287338, -0.10136270523071289, -0.039572857320308685, -0.023299235850572586, 0.11673179268836975, 0.03950628638267517, 0.07627739012241364, 0.05706401914358139, 0.009650103747844696, 0.04885629564523697, 0.08366257697343826, 0.06543654948472977, -0.008407095447182655, 0.06884414702653885, 0.03436877578496933, 0.08892778307199478, -0.08489393442869186, 0.1605600118637085, -0.034622643142938614, -0.04065181314945221, 0.009459605440497398, -0.05488717555999756, 0.07829051464796066, 0.019184108823537827, 0.09918693453073502, 0.08235521614551544, 0.034178946167230606, -0.049866266548633575, -0.06503436714410782, 0.016387907788157463, 0.006376894190907478, -0.06391791254281998, 0.03986332565546036, -0.03570688143372536, 0.061028026044368744, -0.015048841945827007, -0.00879474263638258, 0.026471031829714775, -0.03742410987615585, -0.022699454799294472, -0.007051585707813501, -0.006171358749270439, -0.013020490296185017, 0.03909454122185707, 0.025638127699494362, 0.03460923582315445, 0.07553442567586899, 0.012176030315458775, -0.037910908460617065, -0.03704097121953964, -0.026439979672431946, 0.11075208336114883, 0.042826730757951736, -0.01637781411409378, -0.06490173190832138, 0.10663379728794098, -0.02117687463760376, 0.0258322861045599, 0.07431519031524658, 0.02160172164440155, -0.017100509256124496, -0.04124598577618599, 0.049714650958776474, 0.03225663676857948, -0.018051665276288986, -0.04667617753148079, -0.04148776829242706, 0.012677297927439213, -0.015423854812979698, -0.06676772236824036, 0.021115653216838837, -0.00849183090031147, -0.01529628224670887, -0.02449004165828228, -0.004867630545049906, -0.013887961395084858, 0.010248887352645397, 0.06108343228697777, -0.02962675131857395, -0.0012538741575554013, 0.009709528647363186, 0.0044227661564946175, -0.010045087896287441, -0.04930158704519272, -0.031088007614016533, -0.004657383542507887, -0.052030012011528015, -0.014368366450071335, -0.032484497874975204, -0.01687661185860634, -0.038797810673713684, -0.008252608589828014, 0.016404345631599426, -0.034919578582048416, -0.027651352807879448, 0.0540604330599308, 0.04335823655128479, 0.006201055832207203, -0.004780258517712355, 0.04984378442168236, -0.0030648040119558573, 0.025971371680498123, 0.0031055924482643604, -0.0026025029364973307, 0.006512680556625128, -0.031971607357263565, 0.008782719261944294, -0.002211096463724971, 0.005370568949729204, -0.01130635291337967, -0.0012684748508036137, 0.03151760250329971, -0.002608484821394086, 0.001044072094373405, 0.006286908872425556, 0.0013748067431151867, 0.009379930794239044, 0.07355540245771408, 0.013926122337579727, 0.027371762320399284, 0.10256122797727585, 0.016138775274157524, -0.0011546334717422724, -0.012542846612632275, -0.029141370207071304, -0.00021080962324049324, 6.425101310014725e-05, 0.0014116131933405995, 4.8060581320896745e-05, 0.0015947690699249506, -8.713257102499483e-07, -3.2191476151410825e-08, 2.4874921678019746e-08, -2.1753754353426302e-08, -1.5858068991292384e-07, -7.806612245531142e-09, 9.43111988505052e-09, 2.83735232642357e-07, 1.8225412290462373e-08, 7.568105075961284e-08, -0.029486507177352905, -0.004026354756206274, 0.16318310797214508, -0.1089617982506752, 0.07754753530025482, 0.007584676146507263, 0.0286897961050272, -0.0695965364575386, 0.02105044014751911, -0.09096378087997437, -0.026397714391350746, -0.0828598141670227, -0.021235354244709015, 0.0055101774632930756, -0.014056923799216747, -0.09260513633489609, 0.041485801339149475, -0.004381886683404446, -0.08330583572387695, -0.07533784210681915, -0.04287062957882881, -0.026830509305000305, -0.11147157847881317, -0.0528467521071434, -0.06592591106891632, -0.021265774965286255, 0.03470136225223541, 0.06729211658239365, -0.006131269969046116, 0.12166126817464828, -0.04318079724907875, -0.08778922259807587, -0.024017436429858208, -0.05330028757452965, -0.08746784925460815, 0.06230209022760391, -0.03580567240715027, 0.005365907214581966, -0.06055045872926712, 0.00443445285782218, 0.057386234402656555, -0.006467507686465979, 0.026326827704906464, -0.04662365838885307, -0.10831540077924728, 0.12659598886966705, 0.062426917254924774, 0.009323026984930038, 0.068482406437397, 0.043464429676532745, 0.03535269945859909, -0.034230660647153854, -0.07588444650173187, 0.06908106803894043, 0.029380924999713898, -0.01386966835707426, 0.0025915268342942, 0.08982456475496292, -0.022326206788420677, -0.01514580100774765, 0.04554883390665054, -0.03205132856965065, -0.04203380271792412, 0.07742340862751007, -0.0229011382907629, -0.020359128713607788, 0.046948518604040146, -0.06999463587999344, 0.002766994060948491, 0.029163863509893417, -0.04832027852535248, -0.005080801900476217, -0.022279493510723114, 0.012189667671918869, -0.0033278728369623423, 0.009087092243134975, 0.032621655613183975, 0.02214071899652481, -0.03045501932501793, -0.025928769260644913, 0.020227348431944847, 0.012938913889229298, -0.048724520951509476, 0.06345406919717789, -0.015102565288543701, -0.04360434040427208, -0.06441788375377655, 0.07363180071115494, -0.005431736819446087, -0.04969377815723419, -0.004956922959536314, 0.04047394171357155, 0.0488748624920845, -0.024745149537920952, 0.003756530350074172, 0.007895554415881634, 0.028451016172766685, 0.04535296559333801, 0.03342553973197937, -0.024385452270507812, 0.011319209821522236, -0.02389882318675518, 0.04158959165215492, -0.05063377693295479, -0.03308408707380295, 0.01943408139050007, 0.008339766412973404, -0.06784649193286896, -0.007439034059643745, -0.08829313516616821, 0.0006046748021617532, -0.03892241418361664, -0.03312485292553902, -0.008960079401731491, -0.01806948520243168, 0.06792397052049637, -0.016430355608463287, -0.0006230650469660759, -0.08725115656852722, -0.0007730844663456082, -0.03710320219397545, -0.00475526275113225, -0.006663422100245953, 0.0013297016266733408, -0.012914659455418587, 0.010347137227654457, -0.004210908897221088, -0.02770155668258667, 0.005513766780495644, 0.031519532203674316, -0.0016067727701738477, -0.007190757896751165, -0.001318444381467998, -0.0026280786842107773, -0.0031543353106826544, -0.002200690796598792, -0.0013565316330641508, 0.008863046765327454, 0.006048116832971573, -6.694871262880042e-05, -0.0017186643090099096, 0.021072901785373688, 0.05041418597102165, -0.0011784062953665853, 0.007047084625810385, -0.011231369338929653, 0.007744692265987396, -0.0001520452497061342, -0.0008813939639367163, 0.012707477435469627, -0.008917748928070068, 0.0003056214773096144, 0.000430747983045876, -3.301441029179841e-05, 3.837583790300414e-05, -7.741583658571471e-07, 4.753597693252232e-08, 1.6989555717827898e-07, -2.766169018286746e-07, 7.741603269550978e-08, 7.084879172225556e-08, 4.7592433105592136e-08, -9.090928898558559e-09, -5.2637616931860975e-08, -7.441993687962167e-10, 0.015762250870466232, 0.027603253722190857, -0.013700137846171856, 0.1389584243297577, -0.08648090064525604, -0.04018149524927139, 0.1371229588985443, 0.16759517788887024, -0.026432745158672333, 0.0007649692706763744, -0.0032845274545252323, 0.046128518879413605, 0.09040962904691696, -0.07745258510112762, 0.012192944996058941, 0.18020889163017273, 0.03355100005865097, 0.08703222125768661, 0.11748261004686356, -0.07989957928657532, 0.03137669712305069, -0.014713404700160027, -0.027242004871368408, 0.11017148941755295, 0.09952688217163086, -0.016630344092845917, 0.006782078184187412, -0.03440219163894653, -0.11594074219465256, -0.08828897774219513, 0.08993920683860779, 0.1430429220199585, 0.012317567132413387, 0.12681405246257782, -0.04054780676960945, -0.027788905426859856, -0.13818053901195526, 0.044936686754226685, 0.013978047296404839, -0.0847674012184143, -0.020328309386968613, -0.0032283386681228876, 0.011701644398272038, 0.046376973390579224, 0.07534955441951752, -0.013967860490083694, -0.05046162009239197, 0.09188245236873627, -0.08876482397317886, -0.10104293376207352, 0.004617913626134396, -0.06486237794160843, 0.06395764648914337, -0.12395455688238144, -0.0712699145078659, -0.006250744219869375, -0.0472879484295845, 0.005157741717994213, 0.01870347373187542, 0.053168583661317825, -0.030859502032399178, -0.03315425291657448, 0.004609357565641403, -0.05193525180220604, -0.06401538103818893, -0.03084436245262623, -8.749383414397016e-05, -0.0798168033361435, 0.004809133242815733, -0.11310520768165588, 0.0015491123776882887, 0.07419398427009583, 0.03084324486553669, 0.003474058350548148, 0.011248858645558357, 0.03476681932806969, -0.022548114880919456, 0.0007565823616459966, 0.12327183783054352, 0.05087495967745781, -0.050985559821128845, -0.1165066808462143, 0.03691139072179794, -0.019543055444955826, -0.03163205087184906, 0.07914358377456665, -0.07824640721082687, 0.022599734365940094, 0.019534846767783165, 0.12318892776966095, -0.007038164418190718, 0.009575462900102139, -0.09749801456928253, 0.053457047790288925, -0.020214233547449112, 0.039407990872859955, -0.06635645031929016, -0.05875958502292633, -0.008251804858446121, 0.00356749608181417, 0.0008549595368094742, 0.026261063292622566, -0.00027483710437081754, 0.05940314382314682, 0.004562185145914555, -0.07772189378738403, -0.05667317286133766, 0.013669087551534176, -0.0772356316447258, 0.02084321342408657, 0.02478248067200184, -0.00420176237821579, -0.08671604096889496, -0.09176342934370041, -0.030587105080485344, -0.09755250066518784, 0.0050220126286149025, 0.003379382658749819, -0.01065273117274046, -0.026446985080838203, -0.0018358760280534625, -0.052124734967947006, 0.0548969991505146, -0.014338569715619087, 0.06647501140832901, 0.025879211723804474, -0.051742203533649445, -0.06484729051589966, -0.06390794366598129, -0.04795170575380325, 0.006376001052558422, 0.005053573753684759, 0.016513695940375328, 0.02156243473291397, -0.002118967939168215, -0.01135946623980999, -0.011257660575211048, -0.073335200548172, 0.00032894546166062355, 0.09442176669836044, -0.016726838424801826, 0.0550151988863945, -0.015140828676521778, -0.0077119548805058, -0.014565614983439445, -0.0003333597269374877, -0.021710997447371483, 0.002750178100541234, 0.004548339638859034, 0.001361090806312859, 0.011068887077271938, -4.8237572627840564e-05, -0.002072958741337061, -8.116388198686764e-05, -0.00022220108075998724, -2.2360995899362024e-07, -3.604764486908607e-08, 1.4345962995321315e-07, 2.6879671821689044e-08, 2.6389915319668944e-07, -8.150661301442597e-08, 5.704089289793046e-08, -8.051365796291066e-09, 2.3152686878802342e-08, 4.5930528358439915e-07, 0.0022772164084017277, 0.040283020585775375, 0.1359740048646927, -0.19565004110336304, -0.009932754561305046, 0.12987130880355835, -0.16396063566207886, 0.02207946591079235, 0.03233051672577858, -0.16331563889980316, -0.04772581160068512, -0.0338251031935215, -0.04367653280496597, -0.03728722035884857, 0.044037673622369766, 0.07896401733160019, 0.10406940430402756, -0.16127799451351166, -0.057964131236076355, 0.07002987712621689, -0.009887642227113247, 0.033425379544496536, -0.09074974060058594, 0.01047695055603981, -0.16514793038368225, -0.0958600714802742, 0.0354304164648056, -0.026929620653390884, 0.04594336822628975, 0.0176237802952528, 0.06877616047859192, -0.06700170785188675, -0.03589998930692673, 0.002071032300591469, -0.024646436795592308, -0.029755935072898865, -0.06797157227993011, -0.04331456869840622, -0.09452203661203384, -0.007314634975045919, 0.011785992421209812, -0.018620982766151428, -0.08100065588951111, 0.05587683245539665, -0.013262609019875526, 0.07562172412872314, -0.007366525009274483, 0.0384121872484684, 0.010633870959281921, 0.05042685195803642, -0.08601619303226471, -0.007003705482929945, -0.10975665599107742, 0.0876779705286026, -0.058551423251628876, -0.002960844663903117, -0.02429971471428871, 0.06839104741811752, -0.0207076333463192, -0.02374507673084736, 0.0037487540394067764, -0.10497236251831055, 0.029383745044469833, 0.06794418394565582, 0.03639793395996094, 0.04670068994164467, 0.016935963183641434, -0.06392304599285126, 0.008619725704193115, 0.04733607545495033, -0.05340863764286041, -0.02594912052154541, -0.06381316483020782, 0.023549500852823257, 0.017776047810912132, -0.06754123419523239, -0.03903765231370926, 0.01515880972146988, -0.07883302122354507, 0.03344095125794411, -0.04297594353556633, -0.025735411792993546, -0.05495746433734894, 0.015616577118635178, 0.01900419034063816, -0.02235710248351097, -0.06357069313526154, -0.026477186009287834, -0.01193653978407383, -0.048884980380535126, 0.017072172835469246, 0.04385240748524666, -0.028258226811885834, 0.05936608090996742, 0.029787642881274223, -0.012573993764817715, -0.04005226492881775, -0.03991790860891342, 0.04871462658047676, -0.02564752660691738, -0.07085107266902924, 0.01203346997499466, 0.06987809389829636, -0.0353742353618145, -0.05854447931051254, -0.011757845059037209, 0.010075440630316734, -0.002299727639183402, 0.03139647841453552, -0.01497213076800108, 0.01788700558245182, 0.009639580734074116, -0.055416520684957504, 0.11422834545373917, -0.008084334433078766, 0.022788628935813904, 0.02186758443713188, -0.003593494649976492, -0.005839646328240633, -0.01959565281867981, -0.036532558500766754, -0.0012858817353844643, -0.038981616497039795, 0.0075488826259970665, -0.027490027248859406, -0.0023175261449068785, -0.05458705872297287, -0.06023743376135826, -0.0058205630630254745, -0.03160279989242554, 0.045886531472206116, 0.001551176654174924, -0.013107305392622948, -0.0009309377637691796, 0.006746772676706314, 0.009043136611580849, 0.006081815343350172, 0.0019028441747650504, 0.014466317370533943, 0.0011728303506970406, 0.005317847244441509, -0.07831129431724548, -0.06641554087400436, 0.023319462314248085, -0.016662850975990295, -0.045132532715797424, -0.0008876279462128878, 0.002864128677174449, -0.0013011667178943753, 0.009889844805002213, 0.026818282902240753, -0.006282266229391098, 0.0007402624469250441, -0.0018332339823246002, -3.454043689998798e-05, 1.3767481732429587e-06, 6.011732978095097e-08, -7.566069371023332e-08, 3.785741853334912e-08, 2.720503857744916e-07, -3.8005666169738106e-08, 7.056350170842052e-08, -4.5449172603184707e-07, -1.2217054745633504e-07, -2.749313807726139e-07, -5.712910206057131e-05, -0.024629125371575356, 0.03380386158823967, 0.13894325494766235, -0.013017922639846802, 0.06299396604299545, -0.036101989448070526, 0.07919543981552124, 0.00837451871484518, 0.056739941239356995, -0.16198626160621643, 0.04873638227581978, -0.034939419478178024, -0.05352337285876274, -0.13615962862968445, 0.07828176766633987, 0.07617565989494324, 0.012168812565505505, 0.10361751168966293, -0.08825076371431351, 0.03237037733197212, -0.05293601378798485, -0.12274540960788727, 0.07929061353206635, 0.05517616122961044, 0.06218671053647995, 0.056607820093631744, 0.022316666319966316, -0.012244122102856636, -0.1276639997959137, 0.025003982707858086, 0.03156648203730583, 0.010633745230734348, 0.007147870026528835, 0.10900261998176575, -0.06015867739915848, 0.034576963633298874, 0.08413012325763702, -0.047894950956106186, 0.08349194377660751, -0.1159558817744255, 0.060416772961616516, 0.1401943564414978, -0.018359055742621422, -0.06942947953939438, -0.1176559329032898, -0.0035142346750944853, 0.07075317949056625, -0.08881810307502747, -0.07190817594528198, -0.019572384655475616, -0.0664118304848671, 0.029813939705491066, -0.06153593584895134, -0.02714550495147705, 0.11519921571016312, 0.01942426525056362, 0.03907939791679382, 0.030875518918037415, 0.07583890110254288, -0.011215442791581154, 0.0051448955200612545, -0.012581931427121162, -0.0076049515046179295, 0.04394533857703209, -0.08025307208299637, -0.00907943956553936, 0.001022249460220337, -0.013449221849441528, -0.08014491945505142, 0.06506393104791641, 0.012281232513487339, -0.03020668216049671, 0.021115943789482117, 0.054647065699100494, -0.09624901413917542, 0.0024223497603088617, -0.005183445755392313, 0.04239046201109886, -0.008149251341819763, -0.09855607897043228, -0.07737725228071213, 0.05303299054503441, 0.010760972276329994, -0.00790407508611679, 0.08377481997013092, -0.07007256895303726, 0.03502301871776581, 0.033031102269887924, 0.008516344241797924, -0.07793533802032471, 0.027036691084504128, -0.10649435222148895, 0.046739112585783005, 0.0008291663834825158, 7.816163270035759e-05, -0.0889224037528038, -0.011720342561602592, -0.021326173096895218, 0.0514352060854435, 0.016547154635190964, -0.018634401261806488, -0.05480802804231644, 0.12010056525468826, -0.03973737359046936, 0.022961096838116646, -0.055554963648319244, 0.014628848992288113, -0.09212998300790787, -0.008002588525414467, -0.008087568916380405, -0.0324927382171154, -0.10417743027210236, -0.006548967212438583, 0.05975008010864258, -0.007207312621176243, 0.0867840126156807, -0.009705714881420135, 0.03702021390199661, 0.006937303580343723, -0.045090436935424805, -0.024183856323361397, -0.020271971821784973, -0.10951780527830124, 0.0034315274097025394, -0.010814988985657692, 0.017484299838542938, -0.07599515467882156, -0.03133881837129593, -0.0593295618891716, -0.009522619657218456, 0.014618990011513233, 0.04897608235478401, 0.036621320992708206, -0.0006230853032320738, 0.010376975871622562, -0.028383862227201462, -0.014641107060015202, 0.006370319053530693, 0.02727516181766987, 0.02391190454363823, 0.029853908345103264, -0.0669078528881073, 0.0038108117878437042, 0.018014729022979736, 0.014483987353742123, -0.052856188267469406, 0.002543275011703372, 0.0031692003831267357, 0.00039849281893111765, 0.0028827472124248743, 4.38904098700732e-05, -0.0002092289214488119, 7.831100811017677e-05, 5.624894765787758e-05, 3.4141393712161516e-07, 1.2294984585992097e-08, 2.2983053682423815e-08, 1.5671719211240998e-07, -8.631673864556433e-08, -1.264849061044515e-07, -7.661853373974736e-09, 4.79033595013334e-08, -3.259000891375763e-08, 1.1290907764305302e-08, 0.02535422518849373, -0.03879569470882416, -0.06433499604463577, -0.0037950468249619007, -0.028588514775037766, 0.13418897986412048, -0.17699015140533447, -0.08170296996831894, -0.046310435980558395, 0.10575192421674728, 0.05597873777151108, -0.04539749398827553, 0.0850234180688858, -0.11707314848899841, -0.0801488533616066, -0.15189427137374878, -0.12106899172067642, -0.01737009920179844, -0.050965625792741776, 0.045051757246255875, -0.11889126896858215, -0.09126602858304977, 0.06018378958106041, 0.02499045431613922, -0.053877390921115875, -0.12089306116104126, 0.06672926992177963, -0.08292209357023239, -0.08724923431873322, 0.09068465977907181, -0.049214381724596024, 0.030237648636102676, -0.04661301150918007, -0.10493230074644089, 0.0008043285924941301, 0.0072914306074380875, 0.028687763959169388, -0.08143685013055801, -0.0766439437866211, -0.0722656399011612, 0.04126046970486641, 0.01951003074645996, 0.034693729132413864, 0.025295590981841087, 0.0510566420853138, 0.037083856761455536, -0.08271872252225876, 0.034605659544467926, 0.011898127384483814, -0.07691716402769089, -0.06775274872779846, 0.04312741011381149, 0.022114165127277374, -0.06523463129997253, 0.02545526623725891, -0.016728829592466354, 0.012263338081538677, 0.06992869824171066, 0.04516740143299103, -0.01973947137594223, -0.0080278180539608, -0.015370061621069908, -0.007008328102529049, -0.008747157640755177, 0.08518869429826736, -0.052308984100818634, 0.015813199803233147, 0.01101235393434763, -0.03295426070690155, 0.06588474661111832, -0.05155932158231735, 0.009196817874908447, 0.019770292565226555, -0.010729188099503517, 0.015590758062899113, 0.019752489402890205, -0.03170202299952507, 0.02929893508553505, 0.00229662680067122, -0.011281474493443966, -0.008969451300799847, 0.009113159030675888, -0.030597610399127007, 0.0015126463258638978, 0.022278018295764923, 0.03561187908053398, -0.01177257765084505, 0.005072759464383125, -0.029695482924580574, -0.04737355560064316, -0.027121175080537796, -0.014080999419093132, -0.01605869270861149, 0.0041143265552818775, 0.017333010211586952, -0.04823140427470207, 0.010071005672216415, 0.0029318169690668583, -0.028731051832437515, 0.014726693741977215, 0.0033169067464768887, 0.005737908650189638, 0.0618571974337101, -0.0504065603017807, -0.06379245966672897, -0.005908627063035965, -0.006552231498062611, -0.0009289454319514334, 0.007127702701836824, 0.04287838563323021, -0.03525377810001373, 0.004961460828781128, -0.023402772843837738, 0.0240859966725111, 0.05282518267631531, -0.005001213867217302, 0.03591900318861008, -0.02039962261915207, -0.003932064864784479, 0.02486937865614891, -0.0053048525005578995, 0.05346616730093956, 0.0029572302009910345, 0.012783625163137913, 0.005992542020976543, -0.01900823414325714, 0.0560334175825119, 0.012159599922597408, 0.07719205319881439, 0.005818299017846584, -0.008738952688872814, 0.019215283915400505, 0.014074843376874924, -0.014733821153640747, 0.05681996792554855, -0.010796045884490013, 0.0004962963867001235, 0.02770286425948143, -0.006988180801272392, 0.0007704000454396009, 0.007750166114419699, 0.0005978503031656146, 0.025043146684765816, 0.001581459422595799, -0.027188831940293312, 0.000379210920073092, 0.001092857914045453, 0.0009262057137675583, 0.0011741719208657742, -0.01296864915639162, -0.0011707647936418653, 0.00079009571345523, -0.007500049192458391, -0.005705690942704678, -0.00017987514729611576, 9.15057341899228e-07, -3.2063464772136285e-08, -2.562778718129266e-07, 1.5134156683416222e-07, 3.728703390493138e-08, 2.0992757754356717e-07, 2.8020647135917898e-08, -9.485677310294705e-08, -1.776873759240516e-08, 2.3119000047699956e-08, 0.01695377193391323, -0.09351062774658203, -0.10073158144950867, -0.052611347287893295, -0.09680607169866562, 0.01751878298819065, -0.16519899666309357, 0.10587392002344131, -0.00912947952747345, -0.12634550034999847, -0.0455324687063694, -0.002184373326599598, 0.06648506224155426, 0.06516525894403458, 0.0523870512843132, 0.11905699968338013, 0.08196863532066345, 0.1667511761188507, 0.03137706220149994, 0.035975806415081024, -0.10252464562654495, -0.03251165151596069, 0.035859864205121994, -0.022031139582395554, 0.09512709081172943, -0.010659359395503998, -0.023412372916936874, -0.05652189999818802, -0.08444055914878845, -0.1389228254556656, -0.023911941796541214, 0.02941376343369484, 0.13532724976539612, 0.09551800787448883, 0.0809144675731659, 0.007222029380500317, -0.035893794149160385, 0.10056131333112717, -0.013371838256716728, 0.022379335016012192, -0.05055505409836769, 0.03301627188920975, 0.05844863876700401, 0.0006987736560404301, -0.03848208487033844, -0.009642049670219421, -0.07156294584274292, 0.014069917611777782, -0.006187205668538809, -0.08993159979581833, 0.013484397903084755, 0.016580430790781975, -0.0006099189049564302, 0.018030960112810135, -0.02308940887451172, -0.07428702712059021, -0.03663960099220276, 0.026937484741210938, 0.017415307462215424, 0.0023816097527742386, -0.023415762931108475, -0.05017467960715294, -0.019109338521957397, -0.09773550182580948, 0.05821235105395317, -0.001593227731063962, -0.03818891569972038, -0.002339846221730113, 0.006045871414244175, -0.017952285706996918, 0.04922954738140106, 0.05207759141921997, -0.03329962119460106, 0.01778445579111576, -0.00259237177670002, -0.032326627522706985, -0.08969856798648834, 0.015041901730000973, 0.08003653585910797, 0.025572828948497772, -0.04583687335252762, -0.046235013753175735, 0.0799173042178154, -0.008567476645112038, -0.053209416568279266, -0.021182352676987648, -0.01065125036984682, -0.004183391109108925, -0.0008619234431535006, 0.040769580751657486, -0.09893634170293808, -0.06454482674598694, 0.024409860372543335, 0.07507118582725525, -0.06446842104196548, 0.07532916963100433, 6.912154640303925e-05, -0.02769114077091217, -0.012701703235507011, -0.0019834418781101704, -0.0017591019859537482, -0.04602761194109917, -0.08361530303955078, -0.027744149789214134, -0.010397810488939285, -0.06746607273817062, -0.00949909258633852, -0.027994774281978607, 0.02438058704137802, 0.018027517944574356, -0.0013479078188538551, 0.020942796021699905, 0.0037235093768686056, 0.0020800945349037647, -0.01065145991742611, -0.09825733304023743, 0.005826878361403942, 0.0200513768941164, -0.044720765203237534, -0.03633597865700722, -0.003252679482102394, 0.01000809483230114, 0.061655838042497635, -0.01653101108968258, 0.01926236040890217, 0.007306920830160379, -0.0029126747976988554, -0.021782316267490387, -0.0030946326442062855, -0.025436798110604286, 0.0060753426514565945, -0.010643098503351212, -0.0017051345203071833, -0.001536399475298822, 0.00047557937796227634, -0.0016925534000620246, 0.0008932928321883082, -0.03984704613685608, -0.005759022664278746, 0.01811431162059307, -0.027170341461896896, 0.005399985238909721, -0.00942416861653328, -0.0005777939804829657, -0.004798016045242548, -7.03630066709593e-05, -0.005954813677817583, -0.0038233783561736345, 2.8685737561318092e-05, 0.007443140260875225, 0.0025172196328639984, 0.01365726999938488, 0.0001437337341485545, -0.00011633357644313946, -5.572325972025283e-05, -1.4228726286091842e-07, -7.815058324922575e-07, 2.5276960968767526e-08, 4.6090761429695704e-08, 1.4618734667237732e-08, -2.507900731529844e-08, 6.050612455510418e-07, 4.611292183653859e-07, -3.725091346495901e-10, -1.6571847538671136e-07, -0.06264226138591766, -0.05305894836783409, 0.13211870193481445, 0.03884335607290268, 0.11732494831085205, 0.09765952080488205, -0.05103093385696411, 0.08299162983894348, -0.03506593406200409, 0.003375750035047531, -0.11090081930160522, -0.03607814013957977, -0.0010715456446632743, -0.022278746590018272, -0.005478125996887684, 0.11648063361644745, -0.048145197331905365, 0.11388949304819107, 0.08516260981559753, -0.04308638349175453, 0.0751420110464096, 0.06355788558721542, 0.06473074108362198, -0.024426767602562904, 0.07106659561395645, -0.011582876555621624, 0.020698893815279007, 0.0199379064142704, -0.07476693391799927, -0.08618800342082977, -0.04938361793756485, 0.15121674537658691, 0.09235511720180511, -0.00411016633734107, 0.12692619860172272, -0.07218845933675766, 0.013407549820840359, 0.0193119365721941, -0.0033906379248946905, 0.0995032861828804, -0.05024879053235054, 0.005883639678359032, 0.061739731580019, 0.05572967231273651, -0.048113733530044556, -0.04109835997223854, -0.07211244851350784, 0.026169583201408386, -0.15306927263736725, -0.09820175170898438, 0.055179476737976074, 0.04251740500330925, 0.08423257619142532, -0.09449251741170883, 0.034822896122932434, -0.05580185726284981, 0.08819597214460373, 0.016847435384988785, -0.007701047230511904, -0.028975622728466988, 0.034231845289468765, 0.027560770511627197, -0.017432397231459618, -0.020933425053954124, 0.046721797436475754, 0.07565893977880478, -0.056108731776475906, 0.10024668276309967, -0.004258380271494389, -0.031292788684368134, 0.09608578681945801, 0.014551772736012936, 0.045808352530002594, 0.03399289399385452, -0.009474373422563076, -0.01279127225279808, -0.07619301974773407, 0.029105208814144135, 0.0624028779566288, 0.03220069780945778, -0.007541214115917683, -0.025262732058763504, 0.06037391722202301, 0.07261326164007187, -0.012263036333024502, 0.028410477563738823, 0.008828028105199337, -0.02871282398700714, -0.031240373849868774, 0.016132719814777374, -0.02510826289653778, 0.02785257063806057, -0.029137732461094856, 0.04265758395195007, -0.014616882428526878, 0.11332620680332184, -0.08394817262887955, -0.07030186802148819, -0.05325090512633324, 0.009590668603777885, 0.010791830718517303, -0.024979006499052048, -0.09299609810113907, -0.0016953757731243968, -0.01888534426689148, -0.04035479202866554, -0.029174737632274628, 0.03230227902531624, -0.01735912822186947, 0.03503527119755745, -0.0011122586438432336, -0.00798969715833664, 0.027816876769065857, -0.021631842479109764, 0.0067303976975381374, -0.0711870938539505, 0.03917945176362991, -0.02189159020781517, 0.03637852147221565, 0.021524839103221893, -0.029833246022462845, 0.004374210722744465, 0.025569574907422066, 0.005861674435436726, 0.013198898173868656, -0.005710999481379986, 0.015429701656103134, -0.031024573370814323, -0.015133671462535858, 0.003842234145849943, -0.0012241884833201766, -0.00634428346529603, 0.011062177829444408, -0.005458974279463291, 0.005079437978565693, -0.0009770527249202132, -0.003366815857589245, -0.006663052830845118, 0.01155877485871315, 0.02270798571407795, -0.009775282815098763, -0.0012297010980546474, -0.01852230541408062, 7.490963616874069e-05, -0.0002616067649796605, 0.004860192537307739, -0.009837416000664234, 0.00016055272135417908, 0.0006334997015073895, 0.0014677040744572878, 0.0007668765028938651, -0.00026377689209766686, -0.00021644786465913057, -0.00013551622396335006, -8.391798473894596e-05, -4.978516017217771e-07, -9.976288595225924e-08, -1.1856221817652113e-06, -1.1821248335763812e-07, 6.659278710685612e-07, 1.1968950275331736e-07, -3.381844067007478e-07, -9.800058364817232e-08, 4.2522700027802784e-08, -1.8316495697945356e-07, -0.06047435104846954, -0.09731455147266388, -0.023333240300416946, -0.0683310404419899, 0.10495994240045547, -0.011924994178116322, 0.1368558406829834, -0.024493154138326645, -0.05998578295111656, -0.13672630488872528, 0.14697739481925964, 0.1257123202085495, -0.08442368358373642, -0.025144275277853012, -0.058469902724027634, -0.04704130440950394, 0.040689680725336075, -0.09120049327611923, 0.15976232290267944, -0.07558772712945938, 0.06817305088043213, -0.07095204293727875, -0.08520162105560303, -0.013398528099060059, -0.022869771346449852, 0.09341829270124435, -0.017565201967954636, 0.008650798350572586, -0.03223128244280815, -0.022461391985416412, -0.0689430683851242, -0.09241374582052231, 0.014928601682186127, 0.008362913504242897, -0.035451892763376236, -0.002357413526624441, 0.001460131024941802, 0.07038624584674835, -0.02336942031979561, -0.06325193494558334, 0.024171046912670135, -0.054966624826192856, -0.025267746299505234, 0.03650259971618652, 0.09065455943346024, 0.029674584046006203, -0.0861351490020752, 0.042888883501291275, -0.04705512523651123, -0.045505546033382416, -0.03669881075620651, -0.11015172302722931, 0.032291509211063385, -0.038293108344078064, 0.07154174149036407, -0.06656678020954132, 0.02008042484521866, 0.049157049506902695, 0.03739802539348602, 0.0650043785572052, -0.050150346010923386, 0.0358273908495903, -0.043922409415245056, 0.0658046156167984, 0.005587202962487936, 0.03939447179436684, 0.05760005861520767, -0.006201116368174553, 0.0439080111682415, -0.03986502066254616, -0.008627586998045444, 0.028988879173994064, 0.05935521051287651, 0.04419655725359917, -0.0423755943775177, -0.017719509080052376, -0.031538207083940506, -0.00523781031370163, -0.03595812991261482, -0.009972960688173771, 0.010858154855668545, -0.040026191622018814, -0.06634090840816498, -0.024677935987710953, -0.042750515043735504, -0.004611257463693619, -0.04864936321973801, -0.027500614523887634, 0.010537151247262955, 0.033519115298986435, 0.018334049731492996, 0.023238539695739746, 0.0595625564455986, -0.014261254109442234, -0.0073152873665094376, 0.012207075022161007, 0.0008852341561578214, 0.006775630172342062, -0.05235811695456505, 0.029515454545617104, -0.0010059992782771587, 0.032040756195783615, 0.01807580702006817, 0.0026194488164037466, 0.007321053650230169, 0.005313387140631676, 0.02231406979262829, 0.011900480836629868, -0.011519345454871655, -0.032687101513147354, -0.0044291079975664616, 0.0004401883634272963, -0.007377719972282648, -0.028537390753626823, 0.020033936947584152, -0.0027117845602333546, -0.004246985074132681, -0.0033527761697769165, -0.023613883182406425, -0.01934775337576866, 0.0034071896225214005, 0.028708219528198242, 0.001593993278220296, -0.007546724285930395, 0.0030805207788944244, 0.0021409871987998486, 0.026922456920146942, 0.015614232048392296, 0.013654213398694992, -0.01478553470224142, -0.0364718995988369, 0.008251934312283993, -0.0015398365212604403, 0.0031382355373352766, 0.0005535228410735726, 0.0027800595853477716, 0.005806331522762775, -0.0002105173043673858, 0.016438208520412445, 0.007715360261499882, 0.0024011749774217606, -0.012964889407157898, 0.03885400667786598, 0.008224488236010075, -0.02389315329492092, 0.06469980627298355, 0.01823817752301693, -0.0015829871408641338, -0.0019321313593536615, 0.07162389159202576, -0.012926539406180382, -0.006078687030822039, -0.00012519008305389434, -0.00012589781545102596, 0.000423316698288545, 1.2425252293724043e-07, 1.8362085185685828e-09, -3.5516720231498766e-08, -2.039300728284843e-09, -3.076782384425769e-09, -5.920205126130895e-08, 1.006320360374957e-09, 1.7695533927053475e-08, 6.38307184885889e-10, -6.726242229859736e-09, 0.029006948694586754, -0.04696619138121605, -0.02997424826025963, -0.040048208087682724, 0.12328217178583145, 0.08665207773447037, -0.07298727333545685, -0.10537439584732056, -0.011858117766678333, -0.16708233952522278, 0.13979804515838623, 0.021997682750225067, 0.03091324120759964, 0.059360552579164505, 0.07946813851594925, -0.09536401927471161, -0.06508473306894302, -0.04648042842745781, -0.15639163553714752, 0.019352667033672333, -0.11807778477668762, 0.022596964612603188, 0.0508367083966732, -0.03541646525263786, 0.021189453080296516, -0.05847452953457832, 0.028376568108797073, 0.06842414289712906, -0.01766699180006981, 0.11101565510034561, -0.003850804641842842, -0.030206162482500076, -0.0690983310341835, -0.019319823011755943, 0.033959824591875076, -0.029848603531718254, -0.040411751717329025, -0.10237810015678406, -0.04971473291516304, 0.05903548374772072, 0.016925148665905, 0.05523966997861862, 0.06301074475049973, -0.00624929228797555, -0.019663598388433456, 0.0292951837182045, 0.002825641306117177, -0.05391432344913483, -0.06321638077497482, 0.013865173794329166, -0.01500091515481472, 0.08384550362825394, 0.02872254140675068, 0.0021870203781872988, 0.01968361996114254, 0.014782476238906384, -0.023024041205644608, 0.054975539445877075, 0.012833085842430592, 0.0003107082739006728, 0.022424569353461266, -0.005295553710311651, -0.033108167350292206, 0.023821862414479256, 0.007561584934592247, -0.00868732389062643, 0.029819883406162262, -0.008289415389299393, 0.012477263808250427, 0.001421845518052578, -0.02735769748687744, -0.02335374616086483, 0.022906413301825523, 0.02509326860308647, 0.008215047419071198, -0.06830115616321564, -0.026740247383713722, 0.02003033272922039, 0.04191041365265846, 0.05047538876533508, 0.019040243700146675, -0.014168990775942802, -0.008732275106012821, 0.01461213082075119, -0.021571407094597816, 0.04547669738531113, 0.042799368500709534, 0.011541752144694328, 0.030615221709012985, -0.061745453625917435, -0.010537038557231426, -0.0212513767182827, -0.01672510989010334, -0.06923321634531021, -0.0026274409610778093, 0.002166268415749073, 0.031762998551130295, -0.009122279472649097, 0.021652234718203545, -0.029481885954737663, 0.0013047077227383852, 0.013153189793229103, 0.05525233969092369, -0.015261394903063774, -0.06461448222398758, -0.03622572124004364, -0.01869097910821438, -4.397574957692996e-05, 0.022781938314437866, 0.00991771463304758, -0.04861152544617653, 0.0034771934151649475, -0.01452648639678955, 0.014666206203401089, -0.005735829472541809, 0.009212618693709373, 0.024826060980558395, -0.05546768009662628, -5.345833415049128e-05, 0.025881849229335785, -0.022496864199638367, 0.033455658704042435, -0.003104630159214139, -0.031569305807352066, 0.005922307725995779, -0.022682739421725273, 0.012277316302061081, 0.01381424069404602, 0.04884374141693115, -0.023349404335021973, 0.01354885008186102, 0.0013987664133310318, 0.017974665388464928, 0.006913723889738321, 0.004006930161267519, 0.018936704844236374, 0.0007122392416931689, -0.005086018703877926, 4.36310947407037e-05, 0.0013349707005545497, 0.000568205607123673, 0.008378319442272186, -0.006598650012165308, -0.018008388578891754, -0.020457806065678596, -0.0005509751499630511, 0.018618090078234673, 0.002834001323208213, -0.0011214235564693809, -0.0008023567497730255, 0.00018087458738591522, 3.5556739021558315e-05, 0.007886331528425217, -2.5304783775936812e-05, -0.005649445578455925, 8.19890999537165e-07, -1.859065719145292e-07, -2.4121163733070716e-07, -1.3672418219812243e-07, -3.155484762373817e-10, -1.0230053959503493e-07, 2.0392876365349366e-07, -6.445495728257811e-07, 8.81920669826286e-09, -1.3597336590009945e-07, -0.16953253746032715, -0.03810819238424301, -0.02938450500369072, -0.06640515476465225, 0.03184397518634796, 0.024350805208086967, -0.1643664538860321, 0.11078518629074097, -0.06313023716211319, -0.03560764715075493, 0.05818282067775726, 0.09904185682535172, 0.07951060682535172, -0.06270354241132736, 0.03345771133899689, -0.13645754754543304, -0.1256660372018814, -0.10906150937080383, -0.05052567645907402, 0.1407918930053711, -0.038951557129621506, 0.028035806491971016, 0.03400556743144989, -0.07151076942682266, 0.04392505809664726, 0.11464101821184158, -0.018577899783849716, 0.011736912652850151, 0.07893610745668411, 0.08157296478748322, -0.07539193332195282, 0.015961064025759697, 0.0577743798494339, 0.015024430118501186, 0.0006463523022830486, -0.0008580381399951875, 0.0413702093064785, 0.055726055055856705, -0.059315092861652374, -0.02023640088737011, 0.02492225542664528, 0.010422359220683575, 0.015275377780199051, 0.0025050402618944645, 0.006882731337100267, 0.026374701410531998, 0.021886957809329033, -0.00339264958165586, 0.04769039526581764, 0.02334778569638729, -0.03654322400689125, -0.0632791519165039, -0.033471520990133286, -0.043313492089509964, -0.033182885497808456, 0.05141620337963104, -0.002009924268350005, 0.008631352335214615, 0.04833640530705452, 0.013535011559724808, -0.026247786357998848, 0.04622607305645943, -0.011068025603890419, 0.005614690948277712, 0.06600409746170044, 0.012350003235042095, 0.007349289953708649, -0.011292757466435432, 0.014674926176667213, -0.015333437360823154, 0.005456024780869484, -0.012528558261692524, -0.010364529676735401, 0.024561677128076553, 0.0035145662259310484, -0.013926551677286625, -0.032570552080869675, 0.0029835570603609085, 0.00500625092536211, 0.009089238941669464, 0.045532651245594025, 0.033431652933359146, -0.009991089813411236, 0.0058748419396579266, 0.017774850130081177, 0.013982153497636318, -0.01275026984512806, -0.04455433040857315, -0.007333926856517792, -0.009164175018668175, -0.0017065850552171469, -0.045373935252428055, -0.00262656481936574, 0.03058842197060585, 0.004544254392385483, 0.0023952433839440346, 0.07898443192243576, 0.0228193998336792, -0.009293876588344574, -0.017468828707933426, 0.0008207373903132975, 0.025940019637346268, -0.00554371252655983, -0.0006512071704491973, 0.009583649225533009, 0.0003296460781712085, 0.0007728729979135096, 0.007147241849452257, -0.0045026266016066074, -0.00676732137799263, 0.00600173557177186, -0.006220140028744936, 0.007340307347476482, 0.03891758248209953, 0.001142967725172639, 0.007205117493867874, 0.005254534073174, -0.02207179367542267, -0.03123997524380684, -0.008071036078035831, -0.012384398840367794, -0.011863761581480503, 0.024480093270540237, -0.013501536101102829, -0.020963367074728012, -0.01995982974767685, -0.006304219830781221, -0.0007959740469232202, -0.008709724061191082, 0.0036837728694081306, 0.0015749819576740265, 0.002846949268132448, -0.00041842900100164115, 0.0018757981015369296, 0.013375558890402317, 0.0034129240084439516, 0.002563122194260359, -0.00017633961397223175, 0.0037138257175683975, 0.001995066413655877, 0.0009688949212431908, -0.0008485557627864182, -0.001356108346953988, 0.0011042641708627343, -0.002171603264287114, -0.0011403134558349848, 0.005629559513181448, -0.0026912300381809473, 0.00026051417808048427, 0.00013871517148800194, -0.00028308809851296246, -0.0002843640395440161, -0.0006832822691649199, -0.0016707596369087696, -6.56869015074335e-05, 4.1912554138434643e-07, 6.791217543877792e-08, 1.520740156024658e-08, -1.1714292647013735e-08, 3.8272560232144315e-08, -1.888643765823872e-07, -3.431776463003189e-08, -1.246689578238147e-07, -1.0016529472522961e-07, 7.438852378527372e-08, 0.1097669005393982, 0.019665028899908066, -0.05414199084043503, 0.03165441006422043, -0.049618277698755264, 0.13806574046611786, 0.11661474406719208, 0.11507871747016907, 0.09016189724206924, -0.05175156518816948, -0.0678727999329567, 0.14444179832935333, 0.029520440846681595, -0.06945538520812988, 0.036462169140577316, 0.04362103343009949, 0.03976397216320038, -0.03724434971809387, -0.04872634634375572, -0.025517208501696587, -0.049807168543338776, -0.05165454372763634, -0.04741627350449562, 0.015413516201078892, -0.044422633945941925, 0.012651476077735424, -0.006094422657042742, -0.08778800815343857, 0.006007326766848564, 0.03364381194114685, 0.05927572771906853, -0.01690978743135929, 0.05026311054825783, 0.009624272584915161, -0.06491076946258545, 0.0512043796479702, -0.06965982913970947, 0.07166095823049545, -0.03660416603088379, -0.032227251678705215, 0.018907135352492332, 0.053923942148685455, 0.04352652281522751, -0.04800290986895561, 0.04394760727882385, -0.0174766443669796, 0.008718401193618774, 0.08136828243732452, 0.02968984842300415, -0.03584274277091026, -0.01858566142618656, -0.028656432405114174, -0.048725929111242294, 0.11911074817180634, 0.0038581204134970903, -0.00023915083147585392, -0.03588160127401352, 0.022885745391249657, 0.03596248850226402, -0.03688140958547592, 0.015097854658961296, -0.007199997082352638, 0.06141631677746773, -0.07179142534732819, -0.02802400477230549, -0.06521754711866379, 0.06109977886080742, -0.06931664794683456, -0.013211462646722794, -0.06005539745092392, -0.0025870362296700478, 0.029241785407066345, 0.05451611801981926, 0.05443178117275238, 0.0035351193509995937, -0.02602061815559864, 0.012784677557647228, 0.08141764998435974, -0.016387857496738434, 0.0943480059504509, -0.009668400511145592, 0.006993442308157682, 0.0017076157964766026, 0.03455672040581703, -0.03570927307009697, 0.03348381072282791, -0.018427284434437752, -0.020201459527015686, 0.028657924383878708, 0.011291065253317356, -0.07165724039077759, -0.03348606079816818, -0.05262168124318123, 0.007500375621020794, 0.0022828809451311827, 0.0455145426094532, 0.014049405232071877, 0.01143423281610012, 0.014754113741219044, -0.0015322226099669933, -0.026696855202317238, 0.006779403891414404, 0.04247424378991127, 0.029649026691913605, -0.09729431569576263, -0.044287554919719696, -0.015508557669818401, 0.011059693060815334, -0.008542362600564957, 0.01694420725107193, -0.016772877424955368, 0.06940826028585434, -0.041693855077028275, 0.02024201676249504, -0.014581948518753052, 0.04290721192955971, 0.04282300919294357, 0.03443458676338196, 0.00462120957672596, 0.013929074630141258, -0.010474978014826775, -0.023138446733355522, -0.015979252755641937, -0.00733531778678298, 0.015353886410593987, -0.001620013965293765, 0.0014000257942825556, 0.004789035767316818, -0.0003634344902820885, -0.004732619039714336, -0.0020396579056978226, 0.0009048135834746063, -0.0034356259275227785, -0.013514927588403225, -0.01212829165160656, 0.0015026137698441744, -4.3723921407945454e-05, 0.00302202720195055, -0.0027945395559072495, 0.0027751673478633165, 0.00013086767285130918, 0.002641722559928894, 0.0026370342820882797, 0.0006404787418432534, 0.0003592542780097574, -4.690814239438623e-05, 0.0041083381511271, 0.0022216998040676117, -6.302950350800529e-05, -0.001036832109093666, -0.000646056781988591, 0.0001469823910156265, -0.0018117335857823491, 6.084543565521017e-05, 3.099438617937267e-05, 7.832113624317572e-07, 1.2077303779278736e-07, -7.623373221576912e-08, -2.302622448269176e-08, 2.0644795029056695e-07, -1.5152746613011914e-08, -2.692099698720085e-08, 7.531718893005745e-08, -2.2756214690389243e-08, 6.659149676124798e-08, -0.030540617182850838, -0.0675966888666153, -0.04652818292379379, -0.07127624750137329, 0.06261380016803741, -0.04440972954034805, 0.03245609998703003, -0.09626030921936035, 0.12799809873104095, -0.0718362107872963, -0.13220247626304626, 0.041779205203056335, -0.08127263933420181, 0.0735873430967331, 0.04142369329929352, 0.06503511965274811, -0.02429167926311493, 0.04440266266465187, 0.01900915615260601, -0.01473307330161333, -0.004895794205367565, 0.0838387981057167, 0.07261815667152405, 0.012848488986492157, 0.08488889783620834, 0.002220116090029478, 0.06049981713294983, -0.05060812830924988, 0.03046328015625477, 0.05848762392997742, 0.016213536262512207, -0.01557705644518137, -0.05635698512196541, -0.026358775794506073, -0.06781154870986938, -0.06039324402809143, -0.1057216003537178, -0.04953949153423309, 0.018543865531682968, 0.010458443313837051, -0.048543546348810196, -0.013400587253272533, -0.022525548934936523, -0.07410288602113724, 0.02078239805996418, -0.018576275557279587, -0.023829305544495583, 0.022450219839811325, 0.034458935260772705, -0.04905019327998161, -0.011464059352874756, 0.11106511205434799, 0.07171323895454407, -0.011825750581920147, 0.022886864840984344, -0.03790272772312164, 0.05963683873414993, 0.04830760508775711, 0.002138093812391162, 0.02130598947405815, 0.07639780640602112, -0.05421876162290573, 0.0005048565799370408, -0.013481706380844116, -0.020923824980854988, 0.025834765285253525, 0.031023340299725533, 0.008055824786424637, 0.0036019047256559134, -0.002654359443113208, -0.0031168244313448668, -0.04819051921367645, 0.015440212562680244, 0.0033990610390901566, -0.015016029588878155, 0.012183912098407745, 0.0064911674708127975, -0.0149369016289711, 0.0009852676885202527, 0.005336005240678787, -0.057382144033908844, -0.03540956974029541, 0.0014810082502663136, -0.013050513342022896, 0.00011414818436605856, 0.011642822064459324, 0.04441038519144058, 0.004094657488167286, 0.027813594788312912, -0.026630327105522156, -0.00013369099178817123, 0.01896754465997219, 0.0052429684437811375, -0.019959626719355583, 0.0002824701659847051, 0.019415859133005142, 0.011390459723770618, -0.021704696118831635, -0.010957075282931328, -0.009548655711114407, -0.00024055254471022636, 0.04575604200363159, 0.013565914705395699, -0.017039543017745018, -0.00421065092086792, 0.007707437500357628, 0.03705618157982826, 0.05837408825755119, -0.019378021359443665, -0.00563907902687788, -0.01687215082347393, 0.003685727948322892, -0.0008565060561522841, 0.0008329509291797876, 0.01314542442560196, 0.002101975493133068, -8.669937233207747e-05, 0.021855633705854416, 0.001161511056125164, 0.047574929893016815, -0.0018746963469311595, -0.003183998167514801, 0.0009322352707386017, -0.0023028869181871414, -0.00214921566657722, 0.0003081192553509027, 0.0008049345924519002, -0.01225550938397646, 0.007364185526967049, 0.010288228280842304, -0.01926734298467636, -0.00546274846419692, 0.006033669225871563, 0.00033941565197892487, -0.0008929714094847441, 0.0012151217088103294, -0.0015027759363874793, -0.0017361167119815946, 0.0016340127913281322, 0.000748836318962276, -0.00043673146865330637, 0.018456289544701576, -0.0011436984641477466, -0.004754497669637203, 0.0022488634567707777, 0.000760452589020133, 0.00013660990225616843, 0.0007353144465014338, -0.0004664864973165095, 0.0009558680467307568, -0.002980025252327323, -0.0001319125876761973, 0.0018672277219593525, 0.001884451019577682, -0.004445763770490885, 2.2391920140307775e-07, -1.976684771420878e-08, -9.367559528072888e-08, -4.124654395809557e-08, 3.840915585584526e-09, -7.906773191734828e-08, 1.0326412080985392e-07, -9.908667664149107e-08, 1.4756921018488356e-08, -2.855283582903212e-07, -0.05786406621336937, -0.020243704319000244, 0.02778768353164196, -0.008327011950314045, 0.0802517831325531, -0.05399033799767494, 0.11926629394292831, -0.10296565294265747, -0.09934011846780777, -0.03338630124926567, 0.01389093603938818, 0.1059807687997818, -0.10635437816381454, -0.0015953663969412446, -0.098743736743927, -0.012643525376915932, 0.06254667043685913, 0.021782437339425087, 0.10307470709085464, -0.0445246659219265, -0.022141383960843086, 0.05050509795546532, -0.15014325082302094, 0.01656443253159523, 0.038371577858924866, -0.031884562224149704, 0.004946763627231121, -0.0065681361593306065, 0.07962916791439056, -0.042147405445575714, -0.08476689457893372, -0.09708169102668762, -0.03424626588821411, -0.023474231362342834, 0.09538350254297256, 0.015825925394892693, -0.01355051714926958, 0.038156658411026, 0.0406174398958683, -0.12322844564914703, 0.05320420488715172, 0.05343427136540413, -0.05696117877960205, -0.015087470412254333, 0.03704158589243889, -0.02413896843791008, 0.04165295511484146, 0.0005581293371506035, 0.12297500669956207, 0.09713777899742126, 0.021309159696102142, -0.020313546061515808, -0.07426939904689789, -0.035083841532468796, -0.019181866198778152, -0.006635480560362339, -0.021040569990873337, 0.01683185063302517, -0.0768105760216713, 0.028094690293073654, -0.04948655515909195, 0.04133032634854317, -0.03621901571750641, -0.06722429394721985, 0.04689880460500717, 0.0033238374162465334, 0.019984716549515724, 0.0004236682434566319, 0.03962201625108719, 0.013521412387490273, -0.009756475687026978, 0.061941612511873245, -0.013373264111578465, 0.009979631751775742, -0.10697972774505615, 0.001204691012389958, 0.04819313809275627, -0.008787574246525764, 0.00025755868409760296, -0.04293839633464813, -0.014995886944234371, 0.016179585829377174, -0.04138832539319992, -0.0028252163901925087, 0.0048362757079303265, -0.04577254503965378, 0.004296060651540756, 0.014484748244285583, -0.0028819493018090725, 0.025002142414450645, -0.019493283703923225, -0.015873922035098076, -0.00660044327378273, -0.046661924570798874, -0.002735762856900692, 0.02867695316672325, -0.016705095767974854, -0.032274723052978516, -0.06271860748529434, -0.08506205677986145, -0.01625641994178295, 0.04671207815408707, 0.005905380472540855, -0.0059764874167740345, -0.0122681250795722, -0.011978465132415295, 0.0020393452141433954, 0.0036392142064869404, -0.021585697308182716, -0.0076904334127902985, 0.022142957895994186, -0.0036756335757672787, -0.012582189403474331, -0.060373395681381226, -0.0038455643225461245, -0.017683494836091995, -0.04410010576248169, -0.0050485036335885525, 0.005609579384326935, -0.013692546635866165, 0.04842941835522652, -0.028879720717668533, -0.02895374596118927, 0.012284750118851662, -0.014307098463177681, -0.0044460901990532875, -0.0017605711473152041, -0.0025006404612213373, 0.01401522196829319, 0.04553884640336037, -0.06251148134469986, -0.047967579215765, -0.03182612359523773, 0.03040650673210621, 0.006379473954439163, -0.007099166512489319, 0.0021858655381947756, 0.009634960442781448, 0.011364941485226154, -0.0025794096291065216, -0.009594178758561611, 0.03125487640500069, 0.03555457666516304, -0.01012430340051651, 0.00474785640835762, 0.0197944063693285, -0.0013782273745164275, 0.01353585533797741, -0.006126573774963617, 0.012352748773992062, -0.0026488418225198984, 0.00029072348843328655, 0.0012961531756445765, 0.002700071083381772, 0.0014590854989364743, -5.3388326648473594e-08, 3.5185859559305754e-08, 2.7432973226382273e-08, 9.122183897147806e-09, 1.0627508828520149e-07, -4.436767397919539e-09, 8.571436893589635e-10, -2.0761484975651e-08, -2.595197656773962e-08, -2.883701100131475e-08, 0.16712743043899536, -0.061320751905441284, -0.06430403143167496, 0.00932430848479271, -0.10244659334421158, 0.033448539674282074, -0.04138008505105972, -0.10523809492588043, -0.18380993604660034, 0.08058004826307297, -0.037118952721357346, -0.022066472098231316, -0.14528469741344452, 0.0485307015478611, -0.006566392723470926, -0.03492625802755356, 0.014075173065066338, -0.0463833324611187, 0.07185503095388412, 0.00310556311160326, 0.07850295305252075, 0.07773484289646149, 0.004026018548756838, 0.07870958000421524, 0.05294222757220268, -0.0004074461758136749, -0.06988644599914551, 0.03868696093559265, 0.0926608070731163, 0.010824404656887054, 0.12904992699623108, -0.10331259667873383, 0.009457729756832123, 0.011322815902531147, 0.027056599035859108, 0.04411301761865616, 0.06353171169757843, 0.045223113149404526, -0.05394965782761574, 0.047596391290426254, 0.03739393502473831, 0.07646255195140839, -0.021519122645258904, 0.12316302210092545, -0.008568696677684784, 0.05434475094079971, 0.03557378426194191, -0.011626394465565681, -0.10014303773641586, -0.0890069231390953, -0.025504430755972862, -0.12209819257259369, 0.016960328444838524, 0.11657916009426117, -0.035952091217041016, -0.017858127132058144, -0.0031831045635044575, 0.047584377229213715, -0.017853407189249992, 0.02837357670068741, 0.09422973543405533, 0.04628292843699455, 0.04571637883782387, 0.033597804605960846, -0.08095403760671616, -0.019058382138609886, 0.03665860742330551, 0.08341669291257858, 0.036696385592222214, -0.003864285768941045, 0.004670551046729088, -0.07494647055864334, -0.043011974543333054, 0.010954932309687138, 0.11362411081790924, -0.001951955957338214, 0.01194213517010212, -0.01611890085041523, -0.011564941145479679, -0.03204096108675003, -0.018995337188243866, -0.07602302730083466, -0.027339179068803787, -0.03150998428463936, -0.023641521111130714, 0.019378632307052612, -0.04986753687262535, -0.03570548817515373, 0.018205944448709488, -0.014715776778757572, 0.017177889123558998, 0.05713983625173569, 0.060853056609630585, 0.06420139223337173, 0.06052134186029434, 0.046498820185661316, -0.027886802330613136, 0.03356664627790451, 0.016634244471788406, 0.05773584172129631, -0.003238735953345895, -0.0290398970246315, 0.047022636979818344, -0.05469960719347, 0.0038286391645669937, 0.037694767117500305, 0.011555144563317299, -0.03451477363705635, 0.046657588332891464, -0.03988861292600632, -0.019815677776932716, -0.004468441940844059, 0.02133595198392868, 0.010875191539525986, 0.01619052328169346, 0.030341224744915962, -0.01780070923268795, -0.0396956168115139, -0.0530664287507534, -0.018488112837076187, -0.03198119252920151, 0.017267636954784393, -0.006803648546338081, 0.0075716362334787846, -0.020320950075984, -0.02612413465976715, 0.043600570410490036, 0.011193271726369858, 0.04760577902197838, -0.02496085688471794, 0.08579456806182861, 0.011609661392867565, -0.0182330459356308, 0.01963556744158268, 0.005122800823301077, 0.013350567780435085, -0.031061142683029175, -0.00514031108468771, -0.00904352031648159, 0.00554651441052556, 0.03181452676653862, -0.04144936800003052, -0.02982914261519909, 0.015155081637203693, 0.035364046692848206, -0.04754170402884483, -0.0036983764730393887, 0.00022065400844439864, 0.0032190275378525257, -0.039230573922395706, -0.008197094313800335, -0.0033672023564577103, -0.00035082604154013097, -4.6743432903895155e-05, -0.0006811037892475724, -5.352309813133616e-07, -1.3697098211196135e-07, -8.533741890914825e-08, 5.525453161681071e-07, -3.983249712291581e-07, -1.0968140173872598e-07, -2.1816902062710142e-08, -1.1256977927587286e-07, -2.8498256199327443e-08, 4.933726813760586e-07, -0.017577942460775375, -0.078626848757267, 0.05577114596962929, 0.040968842804431915, -0.050208646804094315, 0.018750309944152832, -0.037565916776657104, 0.052931372076272964, 0.011643484234809875, 0.05501208454370499, 0.05625278130173683, 0.029090434312820435, 0.04720818251371384, 0.023487377911806107, -0.03142175450921059, 0.060949284583330154, -0.08859914541244507, 0.007045472506433725, 0.10256647318601608, 0.045686956495046616, 0.07442633807659149, 0.0022693851497024298, 0.06066175177693367, 0.0785454511642456, 0.09806138277053833, 0.04823795333504677, -0.05659414082765579, -0.13406717777252197, 0.04763803631067276, 0.043312519788742065, -0.015802724286913872, 0.13617968559265137, 0.021528210490942, -0.04398765787482262, 0.0714966282248497, 0.031645044684410095, -0.09323735535144806, 0.03259442374110222, 0.0987197756767273, 0.0016006454825401306, 0.005071072839200497, 0.05748716741800308, -0.06371849030256271, 0.05504981428384781, 0.10373988747596741, -0.04076161980628967, -0.003389898221939802, 0.00978600699454546, -0.005426557268947363, -0.11457093060016632, -0.012894541025161743, -0.01631638966500759, 0.037403929978609085, 0.01845438964664936, 0.05875275656580925, 0.029009008780121803, 0.060808539390563965, -0.037919528782367706, 0.00850600190460682, -0.034044042229652405, 0.06792478263378143, 0.026721302419900894, -0.015670517459511757, 0.008019980974495411, -0.044526685029268265, 0.003835218958556652, -0.028245793655514717, 0.002722916193306446, -0.012199166230857372, 0.02827323228120804, 0.017445987090468407, -0.0756349042057991, 0.00031470844987779856, -0.06509264558553696, 0.10330967605113983, 0.024693403393030167, -0.07093018293380737, -0.03669774904847145, 0.06941339373588562, -0.009011952206492424, -0.03736486658453941, 0.03150303289294243, 0.04247678816318512, -0.00493104662746191, -0.02003096044063568, -0.001923064817674458, 0.009882084093987942, -0.02639656327664852, -0.0205102376639843, 0.04690663889050484, -4.531702506938018e-05, 0.000746019184589386, 0.027575887739658356, 0.04918736591935158, -0.003706597024574876, 0.013187190517783165, -0.0033134762197732925, -0.01036006398499012, -0.009839903563261032, 0.0028207788709551096, -0.011867724359035492, 0.0018479846185073256, -0.02315032295882702, -0.016250239685177803, 0.031246913596987724, 0.003360970178619027, 0.01706167683005333, 0.02364424429833889, 0.036533862352371216, 0.058120131492614746, -0.008573723025619984, 0.0030036538373678923, 0.0311563890427351, -0.020833700895309448, -0.01844683848321438, -0.008878862485289574, 0.0043121627531945705, -0.02911057323217392, -0.0009065633057616651, 0.008556255139410496, -0.009903032332658768, -0.0011455286294221878, -0.03430071845650673, -0.011342660523951054, -0.010349863208830357, -0.026732290163636208, -0.01657193899154663, -0.03594835102558136, 0.004363576881587505, 0.04644249752163887, 0.002070991089567542, -0.012712821364402771, 0.002771995961666107, -0.0007223956054076552, 0.014724930748343468, -0.0026727807708084583, -0.004256575834006071, -0.0010783300967887044, -0.011850601062178612, -0.01335373055189848, 0.0022287657484412193, 0.01616644114255905, -0.014734390191733837, -0.018268458545207977, -0.010827858932316303, -0.010822649113833904, -0.07184319198131561, 0.0016880452167242765, 0.0002385884872637689, -0.07828833162784576, 0.026490703225135803, -0.00015647176769562066, -3.629366256063804e-05, 9.00064769666642e-05, -0.00011316184099996462, 2.845849849109072e-07, 4.4282558064878685e-08, 2.6687268928071717e-07, 5.0946294294362815e-08, 6.743700708966571e-08, -5.572579198087624e-08, -2.382058461591896e-08, 7.539727420180498e-08, -5.2500688241252647e-08, 1.0680238915483642e-08, -0.011145083233714104, -0.05598931014537811, 0.046895164996385574, 0.0359322726726532, -0.10282344371080399, -0.015665533021092415, -0.13856105506420135, -0.11642855405807495, -0.09024930000305176, -0.022617412731051445, -0.04311622306704521, -0.10438241064548492, 0.061053819954395294, -0.15332971513271332, -0.14063230156898499, 0.05719754844903946, 0.06952562183141708, -0.12087588012218475, -0.027644392102956772, -0.0137788699939847, -0.030687319114804268, -0.05973007529973984, -0.07156810164451599, 0.12649017572402954, 0.015034456737339497, 0.028209900483489037, 0.11136478930711746, -0.11881908774375916, -0.10493361204862595, 0.07298783212900162, -0.010954012162983418, 0.04327088221907616, -0.01801283285021782, -0.025123419240117073, -0.0705282911658287, -0.02499541826546192, -0.04747960343956947, -0.004213376902043819, -0.02651340886950493, -0.04898633807897568, -0.00145687663462013, -0.0008091651252470911, -0.001478822436183691, -0.016621682792901993, -0.10397300124168396, 0.03498159721493721, -0.09539257735013962, 0.02942713163793087, -0.027937380596995354, -0.05972522869706154, -0.05435461923480034, -0.004275564569979906, -0.01735706627368927, 0.022546231746673584, -0.0785464271903038, 0.0724518746137619, 0.0012714776676148176, 0.019725168123841286, 0.03493693470954895, 0.11195123195648193, -0.05580136552453041, -0.012353149242699146, 0.04326784983277321, -0.10174982994794846, 0.04822152107954025, -0.022742485627532005, 0.029842499643564224, 0.01726975291967392, -0.039764441549777985, -0.0591287687420845, -0.060788385570049286, -0.03792593255639076, 0.04596012830734253, -0.011779825203120708, 0.07065874338150024, -0.0690058022737503, -0.11606860905885696, 0.0196213535964489, -0.031117528676986694, 0.08293063193559647, -0.005268736742436886, 0.01566411554813385, -0.09366073459386826, 0.009352673776447773, 0.03130972012877464, 0.09246809780597687, 0.019073287025094032, -0.03286450728774071, -0.0035693065728992224, 0.04884358122944832, -0.011165434494614601, 0.07050319015979767, -0.03807626664638519, 0.024379143491387367, 0.040238846093416214, 0.07786441594362259, -0.04142071679234505, 0.010610751807689667, -0.034087955951690674, 0.02416754700243473, -0.08777711540460587, -0.04615471512079239, 0.08232781291007996, 0.03215145692229271, -0.057068824768066406, -0.02341516688466072, -0.06963443011045456, 0.04816437512636185, -0.0588696226477623, -0.010439110919833183, -0.06827961653470993, 0.02662193775177002, -0.050860319286584854, 0.03755209594964981, 0.025671858340501785, 0.03582942485809326, -0.0025306399911642075, 0.022487349808216095, -0.03625306487083435, -0.03907878324389458, -0.02267669513821602, 0.006729468237608671, -0.007137099280953407, 0.0005537769175134599, 0.0063005960546433926, 0.01608879864215851, 2.117903932230547e-05, -0.009846247732639313, 0.039017435163259506, -0.05607631802558899, -0.0072127520106732845, 0.01758463867008686, -0.004202115815132856, 0.012290448881685734, 0.005904446355998516, -0.012016957625746727, -0.0018126502400264144, 0.025044377893209457, 0.005794933065772057, 0.041808538138866425, 0.00270025129429996, 0.0014326486270874739, -0.013267645612359047, 0.0048942724242806435, -0.00045810345909558237, -0.004775653127580881, -0.004381846636533737, 0.002581641310825944, 0.000515508174430579, -0.013304623775184155, -0.007092305924743414, -0.023744530975818634, 6.333170313155279e-05, -1.951921331055928e-05, -1.678301123320125e-05, -9.394000244355993e-08, -2.1437861263962077e-08, -8.433059583978775e-09, 3.3655030762247407e-08, -1.8800232481908097e-08, 3.9384811856280066e-08, 2.8942917396079793e-08, -1.7454698308938532e-07, -6.887430714641596e-08, -1.5351838555943687e-07, -0.0012853355146944523, 0.07384844869375229, 0.03248296678066254, -0.013286405242979527, -0.009122688323259354, 0.008405772037804127, 0.04171575605869293, 0.049730248749256134, 0.005810687318444252, 0.07330063730478287, 0.08659208565950394, 0.03132665902376175, -0.13056907057762146, 0.07678692787885666, 0.01811854913830757, -0.16423800587654114, 0.1364288479089737, -0.1588210016489029, 0.15378437936306, -0.06029105186462402, -0.029833564534783363, 0.09213155508041382, -0.016175290569663048, 0.105567567050457, 0.05489712208509445, 0.05371836945414543, -0.11480415612459183, -0.0037631422746926546, 0.05316077545285225, -0.01186405960470438, -0.06703919917345047, -0.08883966505527496, -0.09808605164289474, 0.04266682267189026, -0.05538858473300934, 0.08941905945539474, 0.1292394995689392, 0.020773837342858315, 0.0461738146841526, -0.060560934245586395, 0.07266455888748169, 0.06060798466205597, -0.11080390214920044, -0.016221724450588226, 0.00012131054245401174, -0.002160150557756424, 0.019485993310809135, 0.05476551875472069, 0.08299649506807327, 0.08414942771196365, -0.02417191118001938, -0.0051767295226454735, -0.02580876834690571, -0.0020830740686506033, 0.007555438671261072, -0.08786085993051529, -0.06897981464862823, -0.0187172032892704, -0.01644599437713623, 0.013329287990927696, 0.015872523188591003, 0.09977777302265167, -0.006520371418446302, 0.0495174303650856, 0.02898797020316124, -0.01401542592793703, 0.11160260438919067, -0.028729302808642387, -0.009869775734841824, 0.02615038864314556, 0.05841226503252983, -0.01811518520116806, 0.0030324000399559736, -0.04882148280739784, 0.012603430077433586, 0.011166398413479328, 0.03703540563583374, 0.018758326768875122, -0.04288873448967934, 0.01576385460793972, 0.023246973752975464, 0.012766823172569275, 0.01888796128332615, -0.004370919894427061, -0.017650241032242775, 0.04062877595424652, -0.005123344715684652, -0.036394331604242325, -0.02162341959774494, 0.029823822900652885, -0.01832989603281021, -0.0823276937007904, 0.06983187049627304, 0.01774347387254238, 0.012212186120450497, -0.056779537349939346, 0.0322352834045887, 0.009437309578061104, 0.05340291187167168, 0.0027436413802206516, 0.013219683431088924, 0.00875262450426817, -0.017104588449001312, -0.11310036480426788, -0.012432971969246864, 0.0626017153263092, 0.06006468087434769, 0.003191141178831458, -0.006028708536177874, -0.03967394307255745, -0.013809905387461185, 0.04636633023619652, -0.02143639698624611, -0.022143714129924774, 0.00035977925290353596, 0.02306039072573185, -0.08173036575317383, 0.02428956888616085, 0.057779550552368164, -0.034413646906614304, 0.017042463645339012, 0.004612942226231098, 0.00527263805270195, -0.0055661615915596485, -0.0410003699362278, -0.0015916795236989856, 0.013780385255813599, -0.010103907436132431, -0.012585542164742947, 0.030196169391274452, 5.86726309848018e-06, -0.05735092610120773, -0.01538991741836071, 0.0016979053616523743, 0.0005538236582651734, 0.0029556634835898876, -0.004745297133922577, 0.020568670704960823, -0.002796476474031806, -0.014218195341527462, -0.0011716927401721478, 0.0015108572551980615, 0.010951502248644829, 0.000656216696370393, -6.758640665793791e-05, -0.0009527190704829991, -0.0006304249400272965, -0.00042834694613702595, -0.000768970581702888, -0.00019184542179573327, 9.443011367693543e-05, -6.74473776598461e-05, 0.0003394233644939959, 0.00021726981503888965, 0.00021625508088618517, 2.03233867068775e-06, 3.1231365937856026e-07, 4.5821951744073885e-07, 1.5945092357583235e-08, 3.367887586591678e-07, 7.29955615952349e-08, 3.344894139445387e-08, 1.1340589622932384e-07, -3.490071662781702e-07, 2.2046077674531261e-07, 0.10729889571666718, 0.014945082366466522, -0.05987619608640671, 0.03833302855491638, -0.11302144825458527, 0.0402919203042984, 0.001872646389529109, -0.10894101858139038, -0.06210068613290787, -0.11332379281520844, -0.03457091748714447, -0.028817981481552124, 0.13395318388938904, -0.06307010352611542, -0.06398666650056839, -0.04479124769568443, 0.0467943400144577, -0.04750805348157883, 0.0033231789711862803, -0.13348719477653503, 0.061827417463064194, 0.02637176401913166, 0.08496787399053574, 0.03638780117034912, 0.03606244549155235, -0.03631515055894852, 0.05649996176362038, -0.06194492429494858, -0.09207115322351456, -0.02158511057496071, 0.014795292168855667, 0.07706800103187561, 0.011852864176034927, -0.02094176597893238, -0.12045034766197205, -0.04999586567282677, -0.047812748700380325, -0.02382020093500614, 0.006627189926803112, 0.010460514575242996, 0.03828582912683487, 0.10359980165958405, 0.12511543929576874, 0.019902782514691353, -0.013956274837255478, -0.06523912400007248, -0.03586327284574509, 0.060943182557821274, 0.061124593019485474, -0.03449396416544914, -0.03645425662398338, -0.010158605873584747, 0.0894610583782196, -0.03495556116104126, -0.008170919492840767, -0.022187521681189537, 0.028535252436995506, 0.014508494175970554, 0.024584555998444557, 0.05786631628870964, -0.04471944272518158, -0.02805374376475811, 0.011052181012928486, -0.020903384312987328, 0.07724245637655258, 0.0013353434624150395, -0.03270278871059418, 0.034314174205064774, -0.008648620918393135, -0.03830692917108536, 0.0172939021140337, 0.020247817039489746, 0.03696176037192345, -0.00019077587057836354, 0.0063368468545377254, 0.03482304885983467, -0.10914599150419235, -0.028934447094798088, 0.046790577471256256, -0.023717757314443588, -0.02384166046977043, -0.04776150733232498, -0.07344015687704086, -0.004087029956281185, 0.03127887099981308, 0.006205735262483358, 0.007239344995468855, -0.00700745265930891, 0.019058778882026672, 0.006961946375668049, -0.05020880699157715, 0.0933825895190239, -0.023758482187986374, 0.025829540565609932, -0.09327428787946701, 0.07072602212429047, -0.1263473778963089, -0.017184102907776833, -0.0023412774316966534, 0.05341368913650513, -0.014862815849483013, 0.02900480106472969, -0.0014480308163911104, 0.09812640398740768, 0.019681744277477264, 0.006641416810452938, -0.055493418127298355, 0.001556823612190783, 0.02833409234881401, -0.053763989359140396, -0.011240704916417599, -0.03414899855852127, 0.001035989262163639, 0.03498862683773041, 0.034825779497623444, 0.019205760210752487, 0.022855335846543312, 0.020794838666915894, -0.04552445933222771, 0.007421261165291071, 0.002800098853185773, 0.025531431660056114, 0.02071467600762844, -0.004413905553519726, -0.011278973892331123, -0.013628349639475346, 0.08528997004032135, 0.014000014401972294, 0.034563690423965454, -0.040340255945920944, 0.055846963077783585, 0.05374251306056976, 0.0018995257560163736, -0.00443915743380785, -0.009002829901874065, -0.007450262550264597, 0.003294941270723939, 0.0036891771014779806, -0.01635047420859337, 0.006241165101528168, -4.071547664352693e-05, -7.662878488190472e-05, -0.0006415731040760875, 0.0006425990723073483, 0.0003901188902091235, 7.781098247505724e-05, -0.0031821238808333874, -0.000507056771311909, -0.00017746120283845812, 0.008929891511797905, -0.0013403553748503327, -0.002007873961701989, -4.902117871097289e-05, -9.380494157085195e-05, 1.6211943147936836e-05, 7.097574439285381e-08, 6.766249782685918e-09, -2.1909700365085882e-07, -5.9346163538975816e-08, -3.063467488573224e-07, -1.8459715533936105e-07, -3.647812718554633e-08, 4.211780435525725e-08, 1.9508657800315632e-08, 1.4095320466367411e-09, 0.048786427825689316, 0.0025124468374997377, 0.012704376131296158, -0.006190709304064512, 0.1230245903134346, -0.07824351638555527, 0.03901287913322449, 0.011099255643785, 0.07680348306894302, 0.128153458237648, -0.029800957068800926, 0.1026344895362854, -0.1337907463312149, -0.09772468358278275, 0.05496687814593315, -0.16484683752059937, 0.058802854269742966, 0.05101734399795532, -0.1167098730802536, 0.1707339882850647, 0.04549368470907211, 0.08782877027988434, -0.010708585381507874, -0.0969059094786644, -0.01884923130273819, -0.13736192882061005, -0.10984805226325989, 0.057578496634960175, 0.05069151893258095, 0.05060841515660286, 0.017069898545742035, -0.07801230251789093, -0.07248599827289581, -0.015701282769441605, -0.05903082713484764, -0.05401139333844185, 0.018392715603113174, -0.06020602211356163, 0.07904835045337677, -0.10605049133300781, 0.10884448885917664, -0.060364075005054474, -0.06643879413604736, -0.06977784633636475, 0.14312341809272766, 0.040811117738485336, 0.09736892580986023, 0.012167052365839481, 0.030501719564199448, 0.05809713527560234, 0.07358059287071228, 0.1327177733182907, -0.08558713644742966, -0.0874510332942009, 0.0737171396613121, -0.06817087531089783, -0.014442468993365765, -0.1255955696105957, -0.08263110369443893, -0.11287180334329605, 0.010765831917524338, -0.01681934855878353, 0.05546825751662254, 0.02824048325419426, 0.02136567234992981, -2.750635758275166e-05, 0.027190806344151497, 0.06469544768333435, -0.04550379142165184, 0.08974767476320267, -0.0176023431122303, 0.05101124197244644, 0.053800150752067566, -0.055361565202474594, -0.039015334099531174, 0.03227423131465912, 0.0382852666079998, 0.02196848951280117, 0.002527666511014104, 0.0033457789104431868, -0.03889872506260872, 0.0574430413544178, 0.059429142624139786, 0.10142552107572556, -0.024808768182992935, -0.07403762638568878, 0.03302813693881035, 0.020448515191674232, 0.0630287453532219, 0.03906473517417908, -0.004978478420525789, -0.052352260798215866, 0.02625812403857708, -0.04906953126192093, 0.0038481021765619516, -0.024242034181952477, 0.06131717562675476, 0.010982053354382515, 0.08017821609973907, 0.0133222546428442, 0.07597385346889496, -0.005915264133363962, 0.04395560920238495, -0.056302860379219055, 0.06889647990465164, 0.07956106215715408, 0.11930596083402634, 0.006412719376385212, 0.1158609539270401, -0.06129205971956253, 0.04060740023851395, 0.034096721559762955, 0.06757114827632904, -0.015028220601379871, 0.022432317957282066, -0.008245150558650494, -0.06894427537918091, 0.016072330996394157, 0.07333250343799591, -0.008624124340713024, 0.06252943724393845, -0.012624356895685196, -0.015479120425879955, 0.023728996515274048, -0.06536759436130524, -0.016617273911833763, -0.05931057035923004, 0.037678178399801254, -0.08088687062263489, 0.024065464735031128, -0.0323227122426033, -0.08172556012868881, -0.006196990609169006, -0.010916132479906082, 0.012537170201539993, 0.000774370098952204, 0.0230766162276268, -0.003106252523139119, 0.0064080702140927315, 0.009812048636376858, 0.018113940954208374, -0.015725569799542427, -0.0054678176529705524, 0.0005972436629235744, 0.003956983797252178, 0.0024474903475493193, -0.0013428475940600038, 0.007677111774682999, -0.002638688078150153, -0.001225659274496138, -0.002113199792802334, 0.00022115433239378035, -4.199476461508311e-05, 0.00013468533870764077, -0.003135873470455408, 1.042890175995126e-06, 2.149369322523853e-07, -8.106570703603211e-08, 1.7923393613727967e-07, 4.3696081775124185e-07, 1.749394868966192e-07, 6.266559893219892e-08, 4.504456896370357e-08, -1.1998649540601036e-07, -9.412679560227843e-07, 0.11410634964704514, -0.11149643361568451, 0.20067423582077026, -0.046947479248046875, 0.03753778710961342, -0.10049060732126236, -0.07238554954528809, 0.07267169654369354, -0.007135928142815828, 0.0964881032705307, -0.13338331878185272, -0.06624539941549301, -0.03429895639419556, -0.14889758825302124, 0.1223410815000534, 0.04607909545302391, 0.03162728622555733, 0.08618258684873581, 0.03290244936943054, 0.042623210698366165, 0.13255572319030762, 0.1390739381313324, -0.005307899322360754, 0.04972727596759796, 0.10587120056152344, -0.06475504487752914, -1.7394164387951605e-05, 0.09136135131120682, -0.03448216989636421, -0.0998840183019638, 0.06205446273088455, 0.12455474585294724, 0.02355891466140747, -0.0868929848074913, 0.10836537182331085, -0.021605003625154495, -0.03055259957909584, -0.04642513394355774, -0.045978207141160965, 0.08242159336805344, -0.07462333887815475, -0.030514920130372047, 0.11714871972799301, 0.01442403718829155, -0.06877776235342026, -0.06093369051814079, 0.014010874554514885, -0.03405250981450081, -0.026266058906912804, 0.0010248636826872826, 0.06932857632637024, 0.02718557044863701, 0.04232374578714371, -0.04868505895137787, -0.017536325380206108, 0.005369939841330051, 0.013669107109308243, -0.009835785254836082, -0.04263678565621376, 0.04816536232829094, 0.018420759588479996, -0.039959993213415146, 0.04234086349606514, -0.041424766182899475, 0.05837502330541611, 0.07844670861959457, -0.024738529697060585, 0.009842337109148502, -0.004741006530821323, -0.004918640945106745, 0.07551687955856323, -0.0017560991691425443, 0.0070404778234660625, 0.0019581164233386517, -0.015060238540172577, -0.0009289065492339432, -0.09552083909511566, -0.06925772875547409, 0.08511132001876831, 0.03604254499077797, -0.11437536031007767, -0.04026830941438675, 0.10443948954343796, 0.028674766421318054, 0.01761215552687645, 0.02553468383848667, 0.027346013113856316, -0.04358842223882675, -0.002430591033771634, -0.0010783725883811712, -0.09687156975269318, 0.01066148467361927, 0.021357672289013863, 0.03886231407523155, 0.030124923214316368, 0.04216671735048294, -0.04255491867661476, -0.016076501458883286, -0.030954351648688316, 0.04538622871041298, 0.006508599501103163, -0.017118610441684723, -0.03159846365451813, 0.013839131221175194, 0.034670934081077576, 0.0015958198346197605, 0.0021176193840801716, -0.011983511038124561, -0.00016727893671486527, 0.048821788281202316, -0.03188047185540199, 0.018492083996534348, 0.03929869085550308, 0.009384716860949993, 0.00011639785225270316, -0.0756952166557312, 0.02727791666984558, 0.0005159317515790462, 0.0167846642434597, 0.010390990413725376, 0.0034533999860286713, 0.0011823357781395316, 0.019903047010302544, -0.019192710518836975, -0.002939982106909156, -0.015513133257627487, -0.04444528743624687, -0.03903702646493912, -0.017940042540431023, -0.012456054799258709, 0.00616799620911479, -0.011979547329246998, -0.0024814787320792675, -0.025183234363794327, -0.0006872331141494215, -0.0037658291403204203, -0.008941943757236004, -0.0005306253442540765, -0.015078766271471977, -0.00046616728650406003, 0.012296395376324654, 0.005459965206682682, -0.00376823334954679, 0.0034070913679897785, 0.005501291248947382, -0.030000736936926842, -0.030389858409762383, 0.00216546468436718, 0.005527956411242485, -0.02614005096256733, 7.468368858098984e-05, -0.0021000562701374292, -0.0002455504145473242, 1.7287831724388525e-05, -0.00017642350576352328, -6.616702421524678e-07, -1.3200544657365754e-08, 1.8511794053210906e-07, 1.4635114453653841e-08, -7.525752039327926e-07, 1.8646097998953337e-08, 4.660974184389488e-08, -6.134591501449904e-08, -1.150239015146326e-09, -1.9035095988328976e-07, -0.00413985550403595, -0.035393018275499344, -0.017669489607214928, 0.13811960816383362, -0.035608697682619095, 0.05692598596215248, 0.009357623755931854, -0.11969639360904694, -0.010210677981376648, 0.007391553837805986, -0.14574843645095825, 0.024215977638959885, 0.13911733031272888, 0.02919606678187847, -0.13840104639530182, 0.0026739612221717834, 0.01730772666633129, 0.15929874777793884, 0.017506832256913185, 0.0375569686293602, -0.010402591899037361, -0.014060698449611664, -0.0251552015542984, -0.08424466103315353, -0.07964522391557693, 0.02709866501390934, 0.05273629352450371, 0.026670997962355614, -0.04181290417909622, 0.07860379666090012, 0.002913146046921611, 0.12197516113519669, 0.06172409653663635, 0.002362472703680396, 0.01439615711569786, -0.04307932034134865, -0.037494730204343796, -0.010416319593787193, -0.05063306912779808, 0.02198128215968609, 0.06528618186712265, -0.032120149582624435, 0.03474085405468941, -0.012219058349728584, 0.0067287227138876915, 